{"learner":{"attributes":{"scikit_learn":"{\"_estimator_type\": \"classifier\"}"},"feature_names":[],"feature_types":[],"gradient_booster":{"model":{"gbtree_model_param":{"num_parallel_tree":"1","num_trees":"100"},"iteration_indptr":[0,1,2,3,4,5,6,7,8,9,10,11,12,13,14,15,16,17,18,19,20,21,22,23,24,25,26,27,28,29,30,31,32,33,34,35,36,37,38,39,40,41,42,43,44,45,46,47,48,49,50,51,52,53,54,55,56,57,58,59,60,61,62,63,64,65,66,67,68,69,70,71,72,73,74,75,76,77,78,79,80,81,82,83,84,85,86,87,88,89,90,91,92,93,94,95,96,97,98,99,100],"tree_info":[0,0,0,0,0,0,0,0,0,0,0,0,0,0,0,0,0,0,0,0,0,0,0,0,0,0,0,0,0,0,0,0,0,0,0,0,0,0,0,0,0,0,0,0,0,0,0,0,0,0,0,0,0,0,0,0,0,0,0,0,0,0,0,0,0,0,0,0,0,0,0,0,0,0,0,0,0,0,0,0,0,0,0,0,0,0,0,0,0,0,0,0,0,0,0,0,0,0,0,0],"trees":[{"base_weights":[-6.5176416E-4,-5.9611917E-1,4.9957532E-1,-1.034837E0,-3.4765536E-1,2.667622E-1,1.0387098E0,-1.372653E0,-8.8271695E-1,-5.6890935E-2,-4.7307524E-1,4.4105595E-1,-4.8623424E-2,8.143315E-1,1.2616609E0,-1.5140623E0,-1.2195399E0,-9.690788E-1,-5.861151E-1,8.3488536E-1,-1.2323362E-1,-4.1267097E-1,-9.3276614E-1,1.1280818E0,3.9248216E-1,2.3380514E-2,-7.8439283E-1,1.3144683E0,7.663749E-1,1.1394762E0,1.5562974E0,-7.182943E-2,-8.985724E-2,-6.1250545E-2,3.8144346E-2,-4.301831E-3,-4.960928E-2,-2.5710661E-2,-5.006664E-2,2.5512142E-2,6.1070956E-2,-1.5050783E-2,2.7355884E-4,-3.2802526E-2,-1.4969376E-2,-3.955869E-2,-6.303212E-2,4.5117795E-2,7.3251836E-2,3.7862812E-3,2.4100339E-2,-4.422136E-3,1.0702602E-2,-6.463692E-2,-2.7070588E-2,-8.807759E-3,6.7302816E-2,2.320233E-2,4.1589674E-2,7.274616E-2,5.4912865E-2,7.388302E-2,8.828392E-2],"categories":[],"categories_nodes":[],"categories_segments":[],"categories_sizes":[],"default_left":[0,0,0,0,0,0,0,0,0,0,0,0,0,0,0,0,0,0,0,0,0,0,0,0,0,0,0,0,0,0,0,0,0,0,0,0,0,0,0,0,0,0,0,0,0,0,0,0,0,0,0,0,0,0,0,0,0,0,0,0,0,0,0],"id":0,"left_children":[1,3,5,7,9,11,13,15,17,19,21,23,25,27,29,31,33,35,37,39,41,43,45,47,49,51,53,55,57,59,61,-1,-1,-1,-1,-1,-1,-1,-1,-1,-1,-1,-1,-1,-1,-1,-1,-1,-1,-1,-1,-1,-1,-1,-1,-1,-1,-1,-1,-1,-1,-1,-1],"loss_changes":[8.452885E3,1.4117417E3,1.9353445E3,2.3925244E2,3.0161517E2,5.922188E2,2.3141895E2,2.932373E1,8.2076904E1,1.4761255E2,1.599607E2,2.3095166E2,2.0326501E2,5.4453003E1,8.186377E1,1.3554321E1,8.602539E0,5.0852783E1,2.1179794E1,2.0881073E1,5.3178673E1,1.4060132E2,2.9913513E1,3.323828E1,1.8371985E2,7.45284E1,4.135971E1,9.841888E0,4.1422974E1,1.9620117E1,8.266968E0,0E0,0E0,0E0,0E0,0E0,0E0,0E0,0E0,0E0,0E0,0E0,0E0,0E0,0E0,0E0,0E0,0E0,0E0,0E0,0E0,0E0,0E0,0E0,0E0,0E0,0E0,0E0,0E0,0E0,0E0,0E0,0E0],"parents":[2147483647,0,0,1,1,2,2,3,3,4,4,5,5,6,6,7,7,8,8,9,9,10,10,11,11,12,12,13,13,14,14,15,15,16,16,17,17,18,18,19,19,20,20,21,21,22,22,23,23,24,24,25,25,26,26,27,27,28,28,29,29,30,30],"right_children":[2,4,6,8,10,12,14,16,18,20,22,24,26,28,30,32,34,36,38,40,42,44,46,48,50,52,54,56,58,60,62,-1,-1,-1,-1,-1,-1,-1,-1,-1,-1,-1,-1,-1,-1,-1,-1,-1,-1,-1,-1,-1,-1,-1,-1,-1,-1,-1,-1,-1,-1,-1,-1],"split_conditions":[-1.2685962E1,-1.3092839E2,1.3212354E2,-2.3752893E2,-1E0,-1E0,1.9665025E2,-2.4213466E2,-8.177615E1,-4.26E2,2.67E2,-3.96E2,3.42E2,-3.27E2,3.0417572E2,5E0,1.1047905E1,-1.11E2,2.27E2,2.9312994E0,-5.1170364E1,-8.177615E1,5.54E2,5.3169007E0,-4.3245173E0,4.5683254E1,-7.2258544E0,-3.153846E-2,5.8583965E1,-3.27E2,5E0,-7.182943E-2,-8.985724E-2,-6.1250545E-2,3.8144346E-2,-4.301831E-3,-4.960928E-2,-2.5710661E-2,-5.006664E-2,2.5512142E-2,6.1070956E-2,-1.5050783E-2,2.7355884E-4,-3.2802526E-2,-1.4969376E-2,-3.955869E-2,-6.303212E-2,4.5117795E-2,7.3251836E-2,3.7862812E-3,2.4100339E-2,-4.422136E-3,1.0702602E-2,-6.463692E-2,-2.7070588E-2,-8.807759E-3,6.7302816E-2,2.320233E-2,4.1589674E-2,7.274616E-2,5.4912865E-2,7.388302E-2,8.828392E-2],"split_indices":[4,4,4,4,1,1,4,12,12,1,1,1,1,1,4,2,27,1,1,33,12,12,1,33,12,12,36,8,12,1,2,0,0,0,0,0,0,0,0,0,0,0,0,0,0,0,0,0,0,0,0,0,0,0,0,0,0,0,0,0,0,0,0],"split_type":[0,0,0,0,0,0,0,0,0,0,0,0,0,0,0,0,0,0,0,0,0,0,0,0,0,0,0,0,0,0,0,0,0,0,0,0,0,0,0,0,0,0,0,0,0,0,0,0,0,0,0,0,0,0,0,0,0,0,0,0,0,0,0],"sum_hessian":[2.8375834E4,1.2954675E4,1.542116E4,4.6827227E3,8.271952E3,1.07714375E4,4.6497227E3,1.4512416E3,3.2314812E3,2.4934854E3,5.7784663E3,6.9374595E3,3.8339775E3,2.3199863E3,2.3297363E3,7.494956E2,7.017459E2,2.5007354E3,7.307457E2,1.71749E2,2.3217363E3,5.10922E3,6.692461E2,4.5649734E2,6.480962E3,3.4929795E3,3.4099802E2,2.0049883E2,2.1194875E3,1.6504904E3,6.7924603E2,5.934965E2,1.5599908E2,7.002459E2,1.4999912E0,6.3999626E1,2.4367358E3,6.2499634E2,1.0574938E2,9.474944E1,7.699955E1,9.747443E2,1.3469922E3,1.6209905E3,3.4882297E3,4.6999725E2,1.9924884E2,2.7574838E2,1.8074895E2,1.4287417E3,5.0522207E3,2.201737E3,1.2912424E3,1.0874937E2,2.3224864E2,3.9999766E0,1.9649886E2,3.787478E2,1.7407399E3,1.8649892E2,1.4639915E3,4.9999707E2,1.7924895E2],"tree_param":{"num_deleted":"0","num_feature":"66","num_nodes":"63","size_leaf_vector":"1"}},{"base_weights":[-3.9294598E-4,-5.5301E-1,4.7368404E-1,-9.928638E-1,-3.279689E-1,2.1189594E-1,8.909938E-1,-1.2920629E0,-8.4985155E-1,-4.5825136E-1,-1.6687779E-1,5.2147396E-2,3.4089997E-1,6.989547E-1,1.1854525E0,-1.2233549E0,-1.5727407E0,-9.8257554E-1,-7.930501E-1,-4.696696E-1,1.0638549E0,-1.871538E-1,6.633937E-1,-6.1157435E-1,8.1322305E-2,-1.0247257E0,3.5336015E-1,6.7817706E-1,1.2533783E0,1.0792776E0,1.5270036E0,-6.608423E-2,-5.404492E-2,-7.926252E-2,2.0139297E-2,-5.260255E-2,-4.14021E-2,-3.579425E-2,-4.6377517E-2,-1.527243E-2,-2.621915E-2,-3.6146905E-2,6.0370542E-2,-3.0179906E-3,-1.3998195E-2,-1.2605059E-2,4.330679E-2,-4.2501714E-2,9.551228E-3,3.295285E-3,5.579154E-2,-3.4374274E-2,-6.8411455E-2,1.6531749E-2,4.0557396E-2,-3.836436E-2,3.412645E-2,1.878907E-3,6.547854E-2,3.4092188E-2,5.5396523E-2,7.2459534E-2,8.607091E-2],"categories":[],"categories_nodes":[],"categories_segments":[],"categories_sizes":[],"default_left":[0,0,0,0,0,0,0,0,0,0,0,0,0,0,0,0,0,0,0,0,0,0,0,0,0,0,0,0,0,0,0,0,0,0,0,0,0,0,0,0,0,0,0,0,0,0,0,0,0,0,0,0,0,0,0,0,0,0,0,0,0,0,0],"id":1,"left_children":[1,3,5,7,9,11,13,15,17,19,21,23,25,27,29,31,33,35,37,39,41,43,45,47,49,51,53,55,57,59,61,-1,-1,-1,-1,-1,-1,-1,-1,-1,-1,-1,-1,-1,-1,-1,-1,-1,-1,-1,-1,-1,-1,-1,-1,-1,-1,-1,-1,-1,-1,-1,-1],"loss_changes":[7.4466265E3,1.2987151E3,1.6710796E3,1.887417E2,1.8212122E2,1.93719E2,3.32458E2,2.5456055E1,2.1723145E1,8.386926E1,6.5477974E1,8.137165E1,8.880304E1,4.0105347E1,8.244995E1,1.4538208E1,7.633606E0,8.57019E0,2.109607E1,4.2574097E1,1.0151196E1,4.4586884E1,1.7488483E1,3.4088036E1,6.402473E1,4.3232E0,5.324945E1,2.2188477E1,8.538864E0,1.9315186E1,5.4937744E0,0E0,0E0,0E0,0E0,0E0,0E0,0E0,0E0,0E0,0E0,0E0,0E0,0E0,0E0,0E0,0E0,0E0,0E0,0E0,0E0,0E0,0E0,0E0,0E0,0E0,0E0,0E0,0E0,0E0,0E0,0E0,0E0],"parents":[2147483647,0,0,1,1,2,2,3,3,4,4,5,5,6,6,7,7,8,8,9,9,10,10,11,11,12,12,13,13,14,14,15,15,16,16,17,17,18,18,19,19,20,20,21,21,22,22,23,23,24,24,25,25,26,26,27,27,28,28,29,29,30,30],"right_children":[2,4,6,8,10,12,14,16,18,20,22,24,26,28,30,32,34,36,38,40,42,44,46,48,50,52,54,56,58,60,62,-1,-1,-1,-1,-1,-1,-1,-1,-1,-1,-1,-1,-1,-1,-1,-1,-1,-1,-1,-1,-1,-1,-1,-1,-1,-1,-1,-1,-1,-1,-1,-1],"split_conditions":[-1.1375058E1,-1.3552753E2,1.08364265E2,-2.3752893E2,-5.7633743E1,3.5237484E1,1.9665025E2,5E0,-1.9513698E2,1.8314426E1,9.225049E0,-7.125459E0,-1.8460663E1,8.385874E0,3.2000934E2,-3.4502046E0,2E0,3.3536031E0,-1E0,-3E0,-5.1318626E0,0E0,1E0,1E0,1.5908037E1,-3.5534601E0,7.758861E0,-2.0774693E1,-5.1527243E0,-6.111532E0,5E0,-6.608423E-2,-5.404492E-2,-7.926252E-2,2.0139297E-2,-5.260255E-2,-4.14021E-2,-3.579425E-2,-4.6377517E-2,-1.527243E-2,-2.621915E-2,-3.6146905E-2,6.0370542E-2,-3.0179906E-3,-1.3998195E-2,-1.2605059E-2,4.330679E-2,-4.2501714E-2,9.551228E-3,3.295285E-3,5.579154E-2,-3.4374274E-2,-6.8411455E-2,1.6531749E-2,4.0557396E-2,-3.836436E-2,3.412645E-2,1.878907E-3,6.547854E-2,3.4092188E-2,5.5396523E-2,7.2459534E-2,8.607091E-2],"split_indices":[4,4,4,4,4,4,4,2,4,22,31,31,26,33,4,36,64,21,62,62,41,62,16,16,27,54,36,25,40,44,2,0,0,0,0,0,0,0,0,0,0,0,0,0,0,0,0,0,0,0,0,0,0,0,0,0,0,0,0,0,0,0,0],"split_type":[0,0,0,0,0,0,0,0,0,0,0,0,0,0,0,0,0,0,0,0,0,0,0,0,0,0,0,0,0,0,0,0,0,0,0,0,0,0,0,0,0,0,0,0,0,0,0,0,0,0,0,0,0,0,0,0,0,0,0,0,0,0,0],"sum_hessian":[2.8422049E4,1.312393E4,1.5298118E4,4.4406357E3,8.683294E3,9.401859E3,5.896259E3,1.4332874E3,3.0073484E3,4.7993516E3,3.8839426E3,4.201379E3,5.200481E3,3.5710303E3,2.3252288E3,1.1560173E3,2.7727002E2,8.959007E2,2.1114475E3,4.764368E3,3.498327E1,3.792228E3,9.171475E1,1.7591718E2,4.0254617E3,4.621385E1,5.154267E3,3.4443528E3,1.26677505E2,1.7772152E3,5.480134E2,6.7862305E2,4.773943E2,2.7577194E2,1.4980782E0,6.13588E2,2.8231268E2,1.3461838E3,7.6526373E2,1.1927548E3,3.5716135E3,2.2496812E0,3.273359E1,1.6038416E3,2.1883862E3,1.6494791E1,7.521996E1,1.3567294E2,4.0244244E1,3.967497E3,5.7964638E1,2.498092E1,2.1232927E1,4.912352E3,2.4191495E2,9.743724E0,3.434609E3,5.7485375E0,1.2092896E2,1.2141335E2,1.6558019E3,3.9777533E2,1.5023811E2],"tree_param":{"num_deleted":"0","num_feature":"66","num_nodes":"63","size_leaf_vector":"1"}},{"base_weights":[1.2564226E-3,-4.6211627E-1,4.6222937E-1,-8.7288064E-1,-2.2370568E-1,2.0300551E-1,7.851028E-1,-1.1921918E0,-7.238457E-1,-3.1250435E-1,7.896776E-3,-8.288208E-1,2.218375E-1,6.51792E-1,1.1931312E0,-1.3960204E0,-1.056145E0,-5.121869E-1,-8.202078E-1,-4.2805552E-1,-2.0309512E-1,-4.1343175E-2,1.0291688E0,-5.2247834E-1,-1.050876E0,9.566211E-2,3.3839035E-1,5.4454726E-1,8.496562E-1,1.0881252E0,1.4574682E0,-5.531153E-2,-7.3449574E-2,-4.2749334E-2,-5.68566E-2,-3.461585E-2,-1.825789E-2,-4.598592E-2,-3.2943185E-2,-3.035598E-2,-1.725688E-2,-1.8379832E-2,-5.037533E-3,-2.1225704E-2,6.138824E-4,-2.3211064E-2,5.4949116E-2,-3.5982456E-2,3.3662673E-3,-6.594991E-2,-3.1695317E-2,-1.906565E-3,1.11738555E-2,1.0138699E-2,2.1733139E-2,3.2538477E-2,1.9304184E-2,3.8937707E-2,5.465147E-2,5.8117714E-2,4.466216E-2,7.326622E-2,-3.400675E-2],"categories":[],"categories_nodes":[],"categories_segments":[],"categories_sizes":[],"default_left":[0,0,0,0,0,0,0,0,0,0,0,0,0,0,0,0,0,0,0,0,0,0,0,0,0,0,0,0,0,0,0,0,0,0,0,0,0,0,0,0,0,0,0,0,0,0,0,0,0,0,0,0,0,0,0,0,0,0,0,0,0,0,0],"id":2,"left_children":[1,3,5,7,9,11,13,15,17,19,21,23,25,27,29,31,33,35,37,39,41,43,45,47,49,51,53,55,57,59,61,-1,-1,-1,-1,-1,-1,-1,-1,-1,-1,-1,-1,-1,-1,-1,-1,-1,-1,-1,-1,-1,-1,-1,-1,-1,-1,-1,-1,-1,-1,-1,-1],"loss_changes":[6.0589014E3,1.3849958E3,1.1898723E3,2.46146E2,1.841437E2,1.5341211E2,3.4345654E2,4.4069336E1,7.1736206E1,8.1664246E1,1.2494204E2,8.920067E0,1.1387045E2,1.00722046E2,4.14021E1,1.2022339E1,1.5032837E1,2.9086823E1,3.8307373E1,4.6406372E1,5.591899E1,4.8708786E1,1.2488792E1,7.282877E0,8.00927E0,6.3682014E1,5.2423676E1,5.182019E1,2.7886719E1,1.4946533E1,8.45929E0,0E0,0E0,0E0,0E0,0E0,0E0,0E0,0E0,0E0,0E0,0E0,0E0,0E0,0E0,0E0,0E0,0E0,0E0,0E0,0E0,0E0,0E0,0E0,0E0,0E0,0E0,0E0,0E0,0E0,0E0,0E0,0E0],"parents":[2147483647,0,0,1,1,2,2,3,3,4,4,5,5,6,6,7,7,8,8,9,9,10,10,11,11,12,12,13,13,14,14,15,15,16,16,17,17,18,18,19,19,20,20,21,21,22,22,23,23,24,24,25,25,26,26,27,27,28,28,29,29,30,30],"right_children":[2,4,6,8,10,12,14,16,18,20,22,24,26,28,30,32,34,36,38,40,42,44,46,48,50,52,54,56,58,60,62,-1,-1,-1,-1,-1,-1,-1,-1,-1,-1,-1,-1,-1,-1,-1,-1,-1,-1,-1,-1,-1,-1,-1,-1,-1,-1,-1,-1,-1,-1,-1,-1],"split_conditions":[1.2340699E-1,-1.04948395E2,8.732056E1,-2.023571E2,1.4366716E0,-1.4354816E1,2.0764626E2,-2.745189E2,-3.8E0,-4.7326653E1,1.775253E1,-3.0471416E0,4.530559E-1,3.0158257E0,3.1034155E2,-5.8E0,-4.4E0,-2.3926618E0,-1.3154355E2,-4.589107E0,-2.4557312E0,-8.177615E1,9.2975885E-1,-3.8333332E1,-1.5798968E1,3.511943E1,1E0,2.4E0,7.298827E0,4.7E0,4.972824E0,-5.531153E-2,-7.3449574E-2,-4.2749334E-2,-5.68566E-2,-3.461585E-2,-1.825789E-2,-4.598592E-2,-3.2943185E-2,-3.035598E-2,-1.725688E-2,-1.8379832E-2,-5.037533E-3,-2.1225704E-2,6.138824E-4,-2.3211064E-2,5.4949116E-2,-3.5982456E-2,3.3662673E-3,-6.594991E-2,-3.1695317E-2,-1.906565E-3,1.11738555E-2,1.0138699E-2,2.1733139E-2,3.2538477E-2,1.9304184E-2,3.8937707E-2,5.465147E-2,5.8117714E-2,4.466216E-2,7.326622E-2,-3.400675E-2],"split_indices":[12,12,12,12,36,27,12,12,0,12,25,56,34,31,12,0,0,34,12,27,31,12,41,51,45,12,16,0,36,0,53,0,0,0,0,0,0,0,0,0,0,0,0,0,0,0,0,0,0,0,0,0,0,0,0,0,0,0,0,0,0,0,0],"split_type":[0,0,0,0,0,0,0,0,0,0,0,0,0,0,0,0,0,0,0,0,0,0,0,0,0,0,0,0,0,0,0,0,0,0,0,0,0,0,0,0,0,0,0,0,0,0,0,0,0,0,0,0,0,0,0,0,0,0,0,0,0,0,0],"sum_hessian":[2.836334E4,1.4144742E4,1.4218598E4,5.1935493E3,8.951193E3,7.887741E3,6.330856E3,1.6502263E3,3.543323E3,6.4704434E3,2.4807498E3,1.405138E2,7.7472275E3,4.7739556E3,1.5569008E3,6.5655914E2,9.936672E2,1.1108025E3,2.4325205E3,3.1450315E3,3.325412E3,2.3674656E3,1.1328417E2,6.0648174E1,7.9865616E1,3.721337E3,4.0258906E3,3.0986882E3,1.6752672E3,1.1181987E3,4.387021E2,1.355964E2,5.209627E2,2.8889435E2,7.047728E2,4.9723492E2,6.1356757E2,1.501274E3,9.312464E2,9.930273E2,2.1520042E3,1.2740394E3,2.0513728E3,2.9001135E2,2.0774543E3,4.7430534E0,1.08541115E2,4.5415287E1,1.5232886E1,4.7146263E1,3.2719357E1,1.8181082E3,1.9032288E3,1.6731351E3,2.3527554E3,1.8529019E3,1.2457863E3,1.3008888E3,3.7437845E2,8.0579913E2,3.1239954E2,4.374556E2,1.2464814E0],"tree_param":{"num_deleted":"0","num_feature":"66","num_nodes":"63","size_leaf_vector":"1"}},{"base_weights":[1.2223027E-3,-5.088528E-1,4.3091252E-1,-9.371514E-1,-3.0162662E-1,2.3263374E-1,8.9115566E-1,-1.200108E0,-8.0154747E-1,-1.5587073E-2,-4.277837E-1,3.8445255E-1,-7.8730576E-2,7.688267E-1,1.2400075E0,-1.4231331E0,-1.100391E0,-6.500017E-1,-8.940362E-1,7.96261E-1,-8.119981E-2,-3.62427E-1,-8.510421E-1,9.430989E-1,3.374868E-1,1.0153957E-2,-5.8919096E-1,8.6577094E-1,5.7658815E-1,1.1303941E0,1.4317409E0,-7.29452E-2,-4.8682462E-2,-4.9825847E-2,-5.98144E-2,-1.6929898E-2,-3.7415937E-2,-5.0674856E-2,-4.0207785E-2,7.043663E-3,4.651113E-2,-6.230918E-3,1.0547431E-2,-2.3531105E-2,-1.3453089E-2,-3.4006532E-2,-5.6732655E-2,3.7517615E-2,6.405633E-2,1.1880975E-2,2.3638245E-2,-3.1223192E-3,1.3825535E-2,-1.905558E-2,-4.9761273E-2,6.1260432E-2,4.0884655E-2,2.977387E-2,-1.493533E-2,-1.7318415E-2,5.6788724E-2,7.231792E-2,2.4199057E-2],"categories":[],"categories_nodes":[],"categories_segments":[],"categories_sizes":[],"default_left":[0,0,0,0,0,0,0,0,0,0,0,0,0,0,0,0,0,0,0,0,0,0,0,0,0,0,0,0,0,0,0,0,0,0,0,0,0,0,0,0,0,0,0,0,0,0,0,0,0,0,0,0,0,0,0,0,0,0,0,0,0,0,0],"id":3,"left_children":[1,3,5,7,9,11,13,15,17,19,21,23,25,27,29,31,33,35,37,39,41,43,45,47,49,51,53,55,57,59,61,-1,-1,-1,-1,-1,-1,-1,-1,-1,-1,-1,-1,-1,-1,-1,-1,-1,-1,-1,-1,-1,-1,-1,-1,-1,-1,-1,-1,-1,-1,-1,-1],"loss_changes":[6.210862E3,1.1495637E3,1.4032825E3,1.4946338E2,3.1510712E2,5.0828204E2,1.9645605E2,3.009375E1,3.8373047E1,1.4244525E2,1.6721436E2,1.8918762E2,1.5998106E2,6.330298E1,2.3352905E1,5.404907E0,8.513184E0,3.213916E1,1.7575195E1,1.7316757E1,3.1416313E1,5.2849304E1,3.8293457E1,3.530783E1,8.991205E1,5.8103424E1,4.366057E1,3.817102E1,1.9281067E1,6.5811157E0,5.099304E0,0E0,0E0,0E0,0E0,0E0,0E0,0E0,0E0,0E0,0E0,0E0,0E0,0E0,0E0,0E0,0E0,0E0,0E0,0E0,0E0,0E0,0E0,0E0,0E0,0E0,0E0,0E0,0E0,0E0,0E0,0E0,0E0],"parents":[2147483647,0,0,1,1,2,2,3,3,4,4,5,5,6,6,7,7,8,8,9,9,10,10,11,11,12,12,13,13,14,14,15,15,16,16,17,17,18,18,19,19,20,20,21,21,22,22,23,23,24,24,25,25,26,26,27,27,28,28,29,29,30,30],"right_children":[2,4,6,8,10,12,14,16,18,20,22,24,26,28,30,32,34,36,38,40,42,44,46,48,50,52,54,56,58,60,62,-1,-1,-1,-1,-1,-1,-1,-1,-1,-1,-1,-1,-1,-1,-1,-1,-1,-1,-1,-1,-1,-1,-1,-1,-1,-1,-1,-1,-1,-1,-1,-1],"split_conditions":[-1.2685962E1,-1.4065369E2,1.3212354E2,-2.3752893E2,2E0,6E0,2.5220041E2,-3.3740527E2,5.6E1,-3.96E2,2.45E2,-3.47E2,2.36E2,-4.8E1,3.4123834E2,5.3357296E0,-8E-1,-3.7E0,-4.460896E0,0E0,2.8115556E0,-7.774431E1,4.59E2,5.2209654E0,6.757661E1,6.900605E1,5.54E2,-3.7E2,3.08E2,-1.2307465E1,3.0335996E0,-7.29452E-2,-4.8682462E-2,-4.9825847E-2,-5.98144E-2,-1.6929898E-2,-3.7415937E-2,-5.0674856E-2,-4.0207785E-2,7.043663E-3,4.651113E-2,-6.230918E-3,1.0547431E-2,-2.3531105E-2,-1.3453089E-2,-3.4006532E-2,-5.6732655E-2,3.7517615E-2,6.405633E-2,1.1880975E-2,2.3638245E-2,-3.1223192E-3,1.3825535E-2,-1.905558E-2,-4.9761273E-2,6.1260432E-2,4.0884655E-2,2.977387E-2,-1.493533E-2,-1.7318415E-2,5.6788724E-2,7.231792E-2,2.4199057E-2],"split_indices":[4,4,4,4,1,1,4,4,1,1,1,1,1,1,4,30,0,0,30,60,31,4,1,31,4,4,1,1,1,32,53,0,0,0,0,0,0,0,0,0,0,0,0,0,0,0,0,0,0,0,0,0,0,0,0,0,0,0,0,0,0,0,0],"split_type":[0,0,0,0,0,0,0,0,0,0,0,0,0,0,0,0,0,0,0,0,0,0,0,0,0,0,0,0,0,0,0,0,0,0,0,0,0,0,0,0,0,0,0,0,0,0,0,0,0,0,0,0,0,0,0,0,0,0,0,0,0,0,0],"sum_hessian":[2.8335588E4,1.295573E4,1.5379856E4,4.2231807E3,8.73255E3,1.0750236E4,4.6296206E3,1.4339481E3,2.7892327E3,2.6732742E3,6.0592754E3,7.22666E3,3.5235767E3,3.4302532E3,1.1993673E3,4.386338E2,9.9531433E2,1.0605669E3,1.7286659E3,1.9894928E2,2.474325E3,5.250605E3,8.0867035E2,5.587889E2,6.667871E3,3.0016882E3,5.218884E2,2.277637E3,1.1526162E3,7.678226E2,4.315447E2,4.040133E2,3.4620476E1,4.83754E2,5.1156033E2,2.5580522E2,8.0476166E2,7.373103E2,9.913555E2,3.423882E1,1.6471045E2,2.1549727E3,3.1935223E2,2.4297778E3,2.8208271E3,5.0693103E2,3.0173932E2,3.581079E2,2.0068097E2,3.8380073E3,2.8298638E3,2.359071E3,6.4261725E2,3.465023E2,1.7538612E2,2.6557715E2,2.0120597E3,1.1286925E3,2.3923697E1,2.4897714E0,7.6533276E2,4.2436807E2,7.176662E0],"tree_param":{"num_deleted":"0","num_feature":"66","num_nodes":"63","size_leaf_vector":"1"}},{"base_weights":[-3.887234E-3,-4.780971E-1,4.2755467E-1,-9.03327E-1,-2.8705308E-1,2.3875688E-1,8.416782E-1,-1.265482E0,-8.207271E-1,-6.422893E-3,-4.0471405E-1,3.7307832E-1,-9.0295725E-2,6.409644E-1,1.0464556E0,-1.1921611E0,-1.4960916E0,-9.3960285E-1,-7.120892E-1,6.17067E-1,-8.9925654E-2,-3.48549E-1,-7.7299714E-1,8.8433003E-1,3.201042E-1,-1.05140675E-2,-6.7263067E-1,9.4759524E-1,5.84393E-1,9.5495045E-1,1.334827E0,-5.9968244E-2,1.1738754E-2,-7.6676406E-2,-4.9395826E-2,-4.8108812E-2,-2.374712E-2,-3.2581374E-2,-5.0562765E-2,8.425411E-4,3.9577436E-2,-1.4605313E-2,-1.5402114E-4,-2.009327E-2,2.850618E-3,-5.7044376E-2,-3.3618834E-2,3.9161474E-2,7.331913E-2,4.600882E-3,2.0408077E-2,-2.4338744E-3,2.0765193E-2,2.0854168E-3,-3.990829E-2,4.3086406E-2,7.155109E-2,5.6120614E-3,3.0554399E-2,4.9430978E-2,2.3527307E-2,6.258087E-2,7.720719E-2],"categories":[],"categories_nodes":[],"categories_segments":[],"categories_sizes":[],"default_left":[0,0,0,0,0,0,0,0,0,0,0,0,0,0,0,0,0,0,0,0,0,0,0,0,0,0,0,0,0,0,0,0,0,0,0,0,0,0,0,0,0,0,0,0,0,0,0,0,0,0,0,0,0,0,0,0,0,0,0,0,0,0,0],"id":4,"left_children":[1,3,5,7,9,11,13,15,17,19,21,23,25,27,29,31,33,35,37,39,41,43,45,47,49,51,53,55,57,59,61,-1,-1,-1,-1,-1,-1,-1,-1,-1,-1,-1,-1,-1,-1,-1,-1,-1,-1,-1,-1,-1,-1,-1,-1,-1,-1,-1,-1,-1,-1,-1,-1],"loss_changes":[5.7635425E3,1.0898513E3,1.1529563E3,1.2318359E2,3.0576776E2,4.4792914E2,1.8898169E2,1.0974976E1,4.2947754E1,1.4251436E2,1.3459277E2,1.9448914E2,1.3641916E2,3.979962E1,5.8770752E1,6.441223E0,1.6879578E0,1.6341553E1,3.1298035E1,3.3762497E1,4.237314E1,1.2252893E2,3.0975525E1,3.8340576E1,1.3090906E2,4.199282E1,3.1839142E1,1.35572815E1,2.4743408E1,2.773059E1,7.322693E0,0E0,0E0,0E0,0E0,0E0,0E0,0E0,0E0,0E0,0E0,0E0,0E0,0E0,0E0,0E0,0E0,0E0,0E0,0E0,0E0,0E0,0E0,0E0,0E0,0E0,0E0,0E0,0E0,0E0,0E0,0E0,0E0],"parents":[2147483647,0,0,1,1,2,2,3,3,4,4,5,5,6,6,7,7,8,8,9,9,10,10,11,11,12,12,13,13,14,14,15,15,16,16,17,17,18,18,19,19,20,20,21,21,22,22,23,23,24,24,25,25,26,26,27,27,28,28,29,29,30,30],"right_children":[2,4,6,8,10,12,14,16,18,20,22,24,26,28,30,32,34,36,38,40,42,44,46,48,50,52,54,56,58,60,62,-1,-1,-1,-1,-1,-1,-1,-1,-1,-1,-1,-1,-1,-1,-1,-1,-1,-1,-1,-1,-1,-1,-1,-1,-1,-1,-1,-1,-1,-1,-1,-1],"split_conditions":[-6.535706E0,-1.4065369E2,1.3212354E2,-2.8976108E2,-3E0,1.2E1,1.9665025E2,5E0,-1.5693538E2,-2.69E2,2.45E2,-2.95E2,3.08E2,-2.27E2,3.2000934E2,5.311615E1,1E0,1.2040697E1,2.27E2,0E0,-6.773158E1,2.5009222E1,-1.1542824E1,1.2457325E1,7.235681E0,1.1799778E2,-1.2121212E-2,8.187287E0,-1.6592564E1,-6E0,5E0,-5.9968244E-2,1.1738754E-2,-7.6676406E-2,-4.9395826E-2,-4.8108812E-2,-2.374712E-2,-3.2581374E-2,-5.0562765E-2,8.425411E-4,3.9577436E-2,-1.4605313E-2,-1.5402114E-4,-2.009327E-2,2.850618E-3,-5.7044376E-2,-3.3618834E-2,3.9161474E-2,7.331913E-2,4.600882E-3,2.0408077E-2,-2.4338744E-3,2.0765193E-2,2.0854168E-3,-3.990829E-2,4.3086406E-2,7.155109E-2,5.6120614E-3,3.0554399E-2,4.9430978E-2,2.3527307E-2,6.258087E-2,7.720719E-2],"split_indices":[4,4,4,4,1,1,4,2,12,1,1,1,1,1,4,12,65,28,1,60,12,12,35,26,12,12,6,31,12,1,2,0,0,0,0,0,0,0,0,0,0,0,0,0,0,0,0,0,0,0,0,0,0,0,0,0,0,0,0,0,0,0,0],"split_type":[0,0,0,0,0,0,0,0,0,0,0,0,0,0,0,0,0,0,0,0,0,0,0,0,0,0,0,0,0,0,0,0,0,0,0,0,0,0,0,0,0,0,0,0,0,0,0,0,0,0,0,0,0,0,0,0,0,0,0,0,0,0,0],"sum_hessian":[2.8168607E4,1.3419254E4,1.4749354E4,4.1586313E3,9.260622E3,1.0132015E4,4.61734E3,7.694566E2,3.3891748E3,2.7362842E3,6.524338E3,7.195098E3,2.9369163E3,2.3341382E3,2.2832017E3,5.888416E2,1.8061499E2,1.6142418E3,1.774933E3,3.2228586E2,2.4139983E3,5.66293E3,8.6140753E2,6.738833E2,6.521215E3,2.584079E3,3.5283694E2,3.6083002E2,1.9733081E3,1.7367572E3,5.4644434E2,5.8611224E2,2.7293954E0,1.6615973E2,1.4455265E1,1.5382281E3,7.601363E1,1.4794478E3,2.9548526E2,7.2963066E1,2.493228E2,7.242917E2,1.6897067E3,5.005188E3,6.577421E2,1.8256778E2,6.788398E2,5.762995E2,9.758383E1,1.817276E3,4.703939E3,2.3725618E3,2.1151747E2,5.271892E1,3.00118E2,3.0894418E2,5.1885826E1,1.0607727E2,1.867231E3,1.622721E3,1.14036285E2,3.9634335E2,1.5010098E2],"tree_param":{"num_deleted":"0","num_feature":"66","num_nodes":"63","size_leaf_vector":"1"}},{"base_weights":[6.449685E-3,-3.4270698E-1,5.168317E-1,-8.147606E-1,-1.6387226E-1,3.9506254E-1,1.0032836E0,-1.0878919E0,-6.9337523E-1,9.755488E-2,-3.2984245E-1,5.089224E-1,1.4122263E-1,8.9263624E-1,1.2329736E0,-1.204801E0,-9.604423E-1,-7.7678835E-1,-4.9530315E-1,6.483011E-1,2.576662E-2,-2.7004957E-1,-7.204114E-1,1.3134624E-1,5.6019205E-1,2.2348168E-1,-3.2690594E-1,9.8482215E-1,7.1899587E-1,1.2439212E0,-2.0346637E-1,-7.4617736E-2,-5.7744186E-2,-5.5802375E-2,-4.2465877E-2,5.5155E-3,-3.9897207E-2,-1.0747582E-2,-3.0410731E-2,3.5417627E-3,3.975092E-2,-7.871784E-3,5.088111E-3,-2.5003156E-2,-8.724121E-3,-5.019771E-2,-2.8284928E-2,3.16339E-2,3.2697048E-3,5.3486165E-2,2.6266227E-2,5.9592403E-3,2.291571E-2,-4.373866E-2,-9.4041E-3,4.2413358E-2,5.356844E-2,1.9210907E-2,3.9529722E-2,5.745572E-2,7.03257E-2,-5.4971624E-2,2.119756E-2],"categories":[],"categories_nodes":[],"categories_segments":[],"categories_sizes":[],"default_left":[0,0,0,0,0,0,0,0,0,0,0,0,0,0,0,0,0,0,0,0,0,0,0,0,0,0,0,0,0,0,0,0,0,0,0,0,0,0,0,0,0,0,0,0,0,0,0,0,0,0,0,0,0,0,0,0,0,0,0,0,0,0,0],"id":5,"left_children":[1,3,5,7,9,11,13,15,17,19,21,23,25,27,29,31,33,35,37,39,41,43,45,47,49,51,53,55,57,59,61,-1,-1,-1,-1,-1,-1,-1,-1,-1,-1,-1,-1,-1,-1,-1,-1,-1,-1,-1,-1,-1,-1,-1,-1,-1,-1,-1,-1,-1,-1,-1,-1],"loss_changes":[5.0242935E3,1.4130487E3,6.778772E2,1.5155396E2,5.2692224E2,2.6465942E2,5.6940186E1,1.9681763E1,5.214624E1,1.8637042E2,1.7317206E2,1.2228162E2,1.09373E2,2.394629E1,1.2029907E1,8.528809E0,1.0638367E1,4.2206787E1,2.9782623E1,4.5915024E1,5.811373E1,1.4148563E2,4.2500244E1,2.4938362E1,9.819226E1,5.904074E1,3.2013866E1,1.0835144E1,1.2567871E1,9.487061E0,4.1340437E0,0E0,0E0,0E0,0E0,0E0,0E0,0E0,0E0,0E0,0E0,0E0,0E0,0E0,0E0,0E0,0E0,0E0,0E0,0E0,0E0,0E0,0E0,0E0,0E0,0E0,0E0,0E0,0E0,0E0,0E0,0E0,0E0],"parents":[2147483647,0,0,1,1,2,2,3,3,4,4,5,5,6,6,7,7,8,8,9,9,10,10,11,11,12,12,13,13,14,14,15,15,16,16,17,17,18,18,19,19,20,20,21,21,22,22,23,23,24,24,25,25,26,26,27,27,28,28,29,29,30,30],"right_children":[2,4,6,8,10,12,14,16,18,20,22,24,26,28,30,32,34,36,38,40,42,44,46,48,50,52,54,56,58,60,62,-1,-1,-1,-1,-1,-1,-1,-1,-1,-1,-1,-1,-1,-1,-1,-1,-1,-1,-1,-1,-1,-1,-1,-1,-1,-1,-1,-1,-1,-1,-1,-1],"split_conditions":[2.9925144E1,-1.3092839E2,1.9665025E2,-2.3752893E2,3E0,-1.3E1,2.5195108E2,-2.4213466E2,-1.0100345E2,-2.69E2,2.45E2,-4.3245173E0,1.63E2,-6.7E1,2.36E2,-4.3502167E2,-4.6929693E0,-1.11E2,3.4E1,0E0,-5.1170364E1,-7.380686E1,-4.1208086E0,-2.36E2,-4.26E2,9.423807E1,-6.345668E0,2.9673219E0,-2.8759704E0,3.6732324E2,2.5220041E2,-7.4617736E-2,-5.7744186E-2,-5.5802375E-2,-4.2465877E-2,5.5155E-3,-3.9897207E-2,-1.0747582E-2,-3.0410731E-2,3.5417627E-3,3.975092E-2,-7.871784E-3,5.088111E-3,-2.5003156E-2,-8.724121E-3,-5.019771E-2,-2.8284928E-2,3.16339E-2,3.2697048E-3,5.3486165E-2,2.6266227E-2,5.9592403E-3,2.291571E-2,-4.373866E-2,-9.4041E-3,4.2413358E-2,5.356844E-2,1.9210907E-2,3.9529722E-2,5.745572E-2,7.03257E-2,-5.4971624E-2,2.119756E-2],"split_indices":[4,4,4,4,1,1,12,12,12,1,1,12,1,1,1,12,36,1,1,60,12,12,33,1,1,12,24,29,39,4,4,0,0,0,0,0,0,0,0,0,0,0,0,0,0,0,0,0,0,0,0,0,0,0,0,0,0,0,0,0,0,0,0],"split_type":[0,0,0,0,0,0,0,0,0,0,0,0,0,0,0,0,0,0,0,0,0,0,0,0,0,0,0,0,0,0,0,0,0,0,0,0,0,0,0,0,0,0,0,0,0,0,0,0,0,0,0,0,0,0,0,0,0,0,0,0,0,0,0],"sum_hessian":[2.819208E4,1.674014E4,1.1451939E4,4.5983037E3,1.2141837E4,9.1608125E3,2.2911265E3,1.4121084E3,3.1861953E3,4.714937E3,7.4269E3,6.323161E3,2.8376519E3,1.5498475E3,7.4127893E2,7.3169244E2,6.804159E2,2.2396118E3,9.465835E2,5.4262146E2,4.1723154E3,6.442547E3,9.843531E2,7.566098E2,5.5665513E3,2.4141724E3,4.2347964E2,1.0089482E3,5.408993E2,7.3587415E2,5.404737E0,1.0365815E2,6.280343E2,2.7933176E2,4.0108414E2,5.1958538E1,2.1876533E3,2.7286572E2,6.737178E2,1.1037194E2,4.3224954E2,1.2226033E3,2.9497122E3,1.8895201E3,4.553027E3,3.4533005E2,6.39023E2,8.67878E1,6.69822E2,3.5444095E2,5.2121104E3,1.6730492E3,7.411231E2,8.4394806E1,3.3908484E2,3.960343E2,6.1291394E2,9.66676E1,4.442317E2,4.703174E2,2.6555673E2,1.9817805E0,3.4229565E0],"tree_param":{"num_deleted":"0","num_feature":"66","num_nodes":"63","size_leaf_vector":"1"}},{"base_weights":[6.3069887E-3,-3.1278864E-1,4.730128E-1,-6.7814934E-1,-9.591842E-2,3.5330507E-1,8.999227E-1,-9.588034E-1,-5.507607E-1,-2.3081297E-1,4.711889E-2,1.6420314E-1,4.4824657E-1,7.269389E-1,1.0879195E0,-1.1411062E0,-8.431484E-1,-4.1931957E-1,-6.552908E-1,-1.6008852E-1,-3.6444452E-1,2.6021572E-3,6.148132E-1,-4.1390884E-1,2.1185912E-1,3.2860836E-1,5.3180337E-1,3.3158794E-1,7.794813E-1,9.9053264E-1,1.2604699E0,-2.54774E-2,-5.8324266E-2,-2.6807902E-2,-4.5037534E-2,-2.7695669E-2,-1.619096E-2,-3.3285815E-2,4.942638E-2,-2.7912676E-2,-5.7405937E-3,-3.2511584E-2,-1.3851784E-2,-3.5240387E-3,7.349455E-3,4.101865E-3,4.5401312E-2,-4.6305675E-2,-8.638597E-3,8.669594E-3,2.8868735E-2,1.8274931E-2,-3.1281952E-3,2.1468056E-2,3.1075805E-2,2.082288E-2,-1.5543207E-2,4.544547E-2,3.1196246E-2,5.4428127E-2,3.852679E-2,2.3336856E-2,6.415594E-2],"categories":[],"categories_nodes":[],"categories_segments":[],"categories_sizes":[],"default_left":[0,0,0,0,0,0,0,0,0,0,0,0,0,0,0,0,0,0,0,0,0,0,0,0,0,0,0,0,0,0,0,0,0,0,0,0,0,0,0,0,0,0,0,0,0,0,0,0,0,0,0,0,0,0,0,0,0,0,0,0,0,0,0],"id":6,"left_children":[1,3,5,7,9,11,13,15,17,19,21,23,25,27,29,31,33,35,37,39,41,43,45,47,49,51,53,55,57,59,61,-1,-1,-1,-1,-1,-1,-1,-1,-1,-1,-1,-1,-1,-1,-1,-1,-1,-1,-1,-1,-1,-1,-1,-1,-1,-1,-1,-1,-1,-1,-1,-1],"loss_changes":[4.1958228E3,1.3257266E3,5.842429E2,2.2214478E2,2.0265955E2,1.6032178E2,8.0482056E1,3.98302E1,5.855127E1,5.097412E1,1.2876001E2,8.242193E1,5.9209595E1,2.6795532E1,1.865747E1,1.1282837E1,2.0481506E1,2.4197113E1,4.1533936E1,6.362919E1,4.642517E1,4.990891E1,5.770407E1,2.7869175E1,3.8665077E1,3.5399933E1,3.1799988E1,8.61174E0,2.2500671E1,1.5599121E1,6.923218E0,0E0,0E0,0E0,0E0,0E0,0E0,0E0,0E0,0E0,0E0,0E0,0E0,0E0,0E0,0E0,0E0,0E0,0E0,0E0,0E0,0E0,0E0,0E0,0E0,0E0,0E0,0E0,0E0,0E0,0E0,0E0,0E0],"parents":[2147483647,0,0,1,1,2,2,3,3,4,4,5,5,6,6,7,7,8,8,9,9,10,10,11,11,12,12,13,13,14,14,15,15,16,16,17,17,18,18,19,19,20,20,21,21,22,22,23,23,24,24,25,25,26,26,27,27,28,28,29,29,30,30],"right_children":[2,4,6,8,10,12,14,16,18,20,22,24,26,28,30,32,34,36,38,40,42,44,46,48,50,52,54,56,58,60,62,-1,-1,-1,-1,-1,-1,-1,-1,-1,-1,-1,-1,-1,-1,-1,-1,-1,-1,-1,-1,-1,-1,-1,-1,-1,-1,-1,-1,-1,-1,-1,-1],"split_conditions":[2.5009222E1,-8.67419E1,1.6810034E2,-1.879137E2,-2.7861115E-1,5.720467E1,2.2650464E2,-2.618471E2,-1.7E0,1.9E0,9.055201E0,-6.7896395E0,5.498559E-1,-4.3552537E0,3.1034155E2,-1.19E1,-6.9E0,-3.4631746E0,2.2523188E1,-7.125459E0,-3E0,2.8122873E0,6E0,-2.2219343E0,8.68702E0,8.9E0,9.9874054E1,8.377159E0,1.9E0,4.1E0,-9.505562E0,-2.54774E-2,-5.8324266E-2,-2.6807902E-2,-4.5037534E-2,-2.7695669E-2,-1.619096E-2,-3.3285815E-2,4.942638E-2,-2.7912676E-2,-5.7405937E-3,-3.2511584E-2,-1.3851784E-2,-3.5240387E-3,7.349455E-3,4.101865E-3,4.5401312E-2,-4.6305675E-2,-8.638597E-3,8.669594E-3,2.8868735E-2,1.8274931E-2,-3.1281952E-3,2.1468056E-2,3.1075805E-2,2.082288E-2,-1.5543207E-2,4.544547E-2,3.1196246E-2,5.4428127E-2,3.852679E-2,2.3336856E-2,6.415594E-2],"split_indices":[12,12,12,12,31,12,12,12,0,0,34,24,34,32,12,0,0,25,50,31,16,27,16,18,27,0,12,20,0,0,30,0,0,0,0,0,0,0,0,0,0,0,0,0,0,0,0,0,0,0,0,0,0,0,0,0,0,0,0,0,0,0,0],"split_type":[0,0,0,0,0,0,0,0,0,0,0,0,0,0,0,0,0,0,0,0,0,0,0,0,0,0,0,0,0,0,0,0,0,0,0,0,0,0,0,0,0,0,0,0,0,0,0,0,0,0,0,0,0,0,0,0,0,0,0,0,0,0,0],"sum_hessian":[2.8172197E4,1.6732193E4,1.1440004E4,6.2314683E3,1.0500726E4,8.936285E3,2.503718E3,1.9431466E3,4.288322E3,5.40423E3,5.096495E3,2.988217E3,5.9480684E3,1.3067349E3,1.1969833E3,7.504725E2,1.1926742E3,1.9022769E3,2.3860447E3,3.5358367E3,1.8683934E3,4.727E3,3.6949518E2,2.2682564E2,2.7613914E3,2.448454E3,3.4996143E3,1.54374E2,1.1523608E3,7.6981964E2,4.2716364E2,2.995905E1,7.205134E2,1.9033437E2,1.00233984E3,7.871115E2,1.1151654E3,2.371659E3,1.4385728E1,3.5963666E2,3.1762E3,4.3583344E2,1.4325599E3,3.1383242E3,1.5886758E3,1.3174031E2,2.3775485E2,7.156256E1,1.5526308E2,2.5000332E3,2.6135822E2,2.2377407E3,2.107132E2,1.6371107E3,1.8625034E3,1.3680862E2,1.7565369E1,6.260121E2,5.2634875E2,5.294816E2,2.4033797E2,1.2572801E1,4.1459085E2],"tree_param":{"num_deleted":"0","num_feature":"66","num_nodes":"63","size_leaf_vector":"1"}},{"base_weights":[-5.114829E-3,3.8515654E-1,-3.87951E-1,2.186794E-1,5.489259E-1,-5.602226E-1,-2.4807514E-1,4.211543E-1,1.237297E-1,1.0208209E0,4.899832E-1,-4.6076083E-1,-8.114782E-1,-6.74714E-2,-3.4236068E-1,2.7520424E-1,5.697789E-1,2.2578646E-1,-2.9863495E-2,8.598484E-1,1.2061554E0,4.3198544E-1,9.3109685E-1,-9.14618E-1,-3.924217E-1,-7.1415675E-1,-1.0654463E0,-3.001697E-1,2.22401E-2,-5.237544E-1,-2.7111566E-1,2.6377244E-2,1.0683089E-2,6.001437E-3,3.0881897E-2,5.906099E-3,1.88141E-2,-9.383805E-3,4.5615393E-3,3.5615817E-2,5.1118076E-2,2.9587565E-2,6.1383624E-2,1.7340697E-2,3.0740393E-2,4.2396095E-2,6.2848635E-2,-5.608974E-2,-3.946687E-2,-2.1993201E-2,-6.069721E-3,-4.907115E-2,-3.3269644E-2,-5.7711672E-2,-4.1544974E-2,-1.9340971E-2,2.1464839E-3,-0E0,2.4732256E-2,-6.896689E-3,-2.8295413E-2,-1.1352646E-2,-2.4575325E-2],"categories":[],"categories_nodes":[],"categories_segments":[],"categories_sizes":[],"default_left":[0,0,0,0,0,0,0,0,0,0,0,0,0,0,0,0,0,0,0,0,0,0,0,0,0,0,0,0,0,0,0,0,0,0,0,0,0,0,0,0,0,0,0,0,0,0,0,0,0,0,0,0,0,0,0,0,0,0,0,0,0,0,0],"id":7,"left_children":[1,3,5,7,9,11,13,15,17,19,21,23,25,27,29,31,33,35,37,39,41,43,45,47,49,51,53,55,57,59,61,-1,-1,-1,-1,-1,-1,-1,-1,-1,-1,-1,-1,-1,-1,-1,-1,-1,-1,-1,-1,-1,-1,-1,-1,-1,-1,-1,-1,-1,-1,-1,-1],"loss_changes":[4.197239E3,3.790664E2,3.4150073E2,1.3255222E2,1.9437134E2,1.5827783E2,1.3324435E2,4.752649E1,7.368796E1,2.1949768E1,1.589768E2,1.4076929E2,4.3557495E1,5.6123066E1,6.624164E1,1.7102768E1,2.3309265E1,4.5660004E1,3.588615E1,9.1640625E0,3.8322754E0,8.552869E1,1.8332886E1,1.4368866E1,5.0812378E1,1.6187988E1,9.18042E0,2.2288216E1,2.0403053E1,2.341507E1,3.5698883E1,0E0,0E0,0E0,0E0,0E0,0E0,0E0,0E0,0E0,0E0,0E0,0E0,0E0,0E0,0E0,0E0,0E0,0E0,0E0,0E0,0E0,0E0,0E0,0E0,0E0,0E0,0E0,0E0,0E0,0E0,0E0,0E0],"parents":[2147483647,0,0,1,1,2,2,3,3,4,4,5,5,6,6,7,7,8,8,9,9,10,10,11,11,12,12,13,13,14,14,15,15,16,16,17,17,18,18,19,19,20,20,21,21,22,22,23,23,24,24,25,25,26,26,27,27,28,28,29,29,30,30],"right_children":[2,4,6,8,10,12,14,16,18,20,22,24,26,28,30,32,34,36,38,40,42,44,46,48,50,52,54,56,58,60,62,-1,-1,-1,-1,-1,-1,-1,-1,-1,-1,-1,-1,-1,-1,-1,-1,-1,-1,-1,-1,-1,-1,-1,-1,-1,-1,-1,-1,-1,-1,-1,-1],"split_conditions":[-1E0,1.2012707E0,-1.8381834E0,-1.06E2,-3.47E2,1.63E2,3.8E1,-2.5447538E-2,1.8E0,6.638743E0,1.1E1,-1E1,4.59E2,-2E0,-3.457885E0,-1.6371481E0,-2E0,1E0,-1.6576437E0,5.54183E0,-8.441703E0,4.728222E0,1.7E1,-1.4E1,1E0,-5E0,-4.171189E0,1E0,7E0,-3.8462405E0,2.36E2,2.6377244E-2,1.0683089E-2,6.001437E-3,3.0881897E-2,5.906099E-3,1.88141E-2,-9.383805E-3,4.5615393E-3,3.5615817E-2,5.1118076E-2,2.9587565E-2,6.1383624E-2,1.7340697E-2,3.0740393E-2,4.2396095E-2,6.2848635E-2,-5.608974E-2,-3.946687E-2,-2.1993201E-2,-6.069721E-3,-4.907115E-2,-3.3269644E-2,-5.7711672E-2,-4.1544974E-2,-1.9340971E-2,2.1464839E-3,-0E0,2.4732256E-2,-6.896689E-3,-2.8295413E-2,-1.1352646E-2,-2.4575325E-2],"split_indices":[1,34,34,1,1,1,1,30,0,25,64,64,1,64,29,53,64,62,25,34,35,29,64,64,64,62,37,13,62,58,1,0,0,0,0,0,0,0,0,0,0,0,0,0,0,0,0,0,0,0,0,0,0,0,0,0,0,0,0,0,0,0,0],"split_type":[0,0,0,0,0,0,0,0,0,0,0,0,0,0,0,0,0,0,0,0,0,0,0,0,0,0,0,0,0,0,0,0,0,0,0,0,0,0,0,0,0,0,0,0,0,0,0,0,0,0,0,0,0,0,0,0,0,0,0,0,0,0,0],"sum_hessian":[2.8090086E4,1.3909835E4,1.4180251E4,6.899353E3,7.010482E3,6.352619E3,7.827632E3,2.2011138E3,4.6982393E3,7.764235E2,6.2340586E3,4.5533613E3,1.7992577E3,2.6857874E3,5.1418447E3,1.1123276E3,1.088786E3,2.8227869E3,1.8754523E3,4.188287E2,3.5759482E2,5.5115977E3,7.224608E2,5.940802E2,3.9592812E3,1.3038307E3,4.954269E2,7.4698584E2,1.9388015E3,1.4478313E3,3.6940132E3,2.1628876E2,8.960389E2,1.0525553E2,9.835305E2,1.6469841E3,1.1758029E3,8.143935E2,1.0610587E3,2.2267725E2,1.9615146E2,1.3221194E1,3.4437363E2,3.762299E3,1.7492987E3,5.786722E2,1.4378864E2,2.2057039E2,3.735098E2,3.3686243E3,5.906571E2,1.9791522E2,1.1059155E3,3.562295E2,1.3919742E2,5.9650305E2,1.5048277E2,1.8524913E3,8.631021E1,1.4326028E2,1.304571E3,3.080594E3,6.134191E2],"tree_param":{"num_deleted":"0","num_feature":"66","num_nodes":"63","size_leaf_vector":"1"}},{"base_weights":[-3.1982379E-3,3.6924794E-1,-3.686828E-1,1.9949858E-1,5.354182E-1,-6.6692245E-1,-2.6357308E-1,3.750941E-1,1.009961E-1,8.254459E-1,4.5310023E-1,-6.0459214E-1,-1.0294952E0,-1.9997695E-1,-4.9868053E-1,2.7896932E-1,4.8848933E-1,3.4975834E-2,3.8591552E-1,1.1364508E0,7.501178E-1,3.6670434E-1,8.08719E-1,-1.0586089E0,-5.408504E-1,-1.0504287E0,1.3950041E-1,-6.38186E-1,-1.5930267E-1,-5.74135E-1,-2.8933173E-1,1.0898257E-2,2.6245642E-2,2.6837617E-2,1.2815713E-2,6.9597587E-3,-5.611801E-3,1.4162115E-2,3.0618316E-2,2.5624061E-2,6.0059894E-2,3.127567E-2,4.479837E-2,2.3769816E-2,1.1455083E-2,3.4688782E-2,5.799668E-2,-6.994306E-2,-4.9636226E-2,-2.0264972E-2,-3.3070423E-2,-5.3626265E-2,-8.321148E-3,-2.7830834E-2,4.4000916E-2,-3.456075E-2,-1.6803684E-2,-1.26533825E-2,-8.60576E-4,-2.5954638E-2,-4.2953607E-2,-3.2224935E-2,-9.247729E-3],"categories":[],"categories_nodes":[],"categories_segments":[],"categories_sizes":[],"default_left":[0,0,0,0,0,0,0,0,0,0,0,0,0,0,0,0,0,0,0,0,0,0,0,0,0,0,0,0,0,0,0,0,0,0,0,0,0,0,0,0,0,0,0,0,0,0,0,0,0,0,0,0,0,0,0,0,0,0,0,0,0,0,0],"id":8,"left_children":[1,3,5,7,9,11,13,15,17,19,21,23,25,27,29,31,33,35,37,39,41,43,45,47,49,51,53,55,57,59,61,-1,-1,-1,-1,-1,-1,-1,-1,-1,-1,-1,-1,-1,-1,-1,-1,-1,-1,-1,-1,-1,-1,-1,-1,-1,-1,-1,-1,-1,-1,-1,-1],"loss_changes":[3.8223838E3,3.9211438E2,4.4401636E2,1.18942444E2,1.672638E2,8.265991E1,1.5654645E2,2.673529E1,8.2903885E1,3.531909E1,1.6782874E2,9.052661E1,1.3451904E1,1.4689716E2,3.4981873E1,1.9928879E1,1.2472687E1,5.4974335E1,1.9018517E1,1.1350037E1,2.2051758E1,6.5743164E1,4.2176025E1,7.047241E0,4.4849915E1,1.0063904E1,5.830868E0,1.0884766E1,1.0059131E2,2.5109497E1,2.179292E1,0E0,0E0,0E0,0E0,0E0,0E0,0E0,0E0,0E0,0E0,0E0,0E0,0E0,0E0,0E0,0E0,0E0,0E0,0E0,0E0,0E0,0E0,0E0,0E0,0E0,0E0,0E0,0E0,0E0,0E0,0E0,0E0],"parents":[2147483647,0,0,1,1,2,2,3,3,4,4,5,5,6,6,7,7,8,8,9,9,10,10,11,11,12,12,13,13,14,14,15,15,16,16,17,17,18,18,19,19,20,20,21,21,22,22,23,23,24,24,25,25,26,26,27,27,28,28,29,29,30,30],"right_children":[2,4,6,8,10,12,14,16,18,20,22,24,26,28,30,32,34,36,38,40,42,44,46,48,50,52,54,56,58,60,62,-1,-1,-1,-1,-1,-1,-1,-1,-1,-1,-1,-1,-1,-1,-1,-1,-1,-1,-1,-1,-1,-1,-1,-1,-1,-1,-1,-1,-1,-1,-1,-1],"split_conditions":[-1E0,1.1863086E0,-3.749071E0,-9.2E1,-1.97E2,3.65E2,1.5E2,6.609091E-1,6E0,-6.35E2,1.2E1,-1.7E1,1.78789E0,-1.4E1,-5E0,7.202508E-1,3.117376E0,1.8E0,1.3E1,-1.8544756E0,4.659882E0,-5.4E1,2.4E1,-5.7E1,7.9E1,1.0701205E1,-1.1E0,5.3357296E0,1.8473092E0,4.59E2,-2E0,1.0898257E-2,2.6245642E-2,2.6837617E-2,1.2815713E-2,6.9597587E-3,-5.611801E-3,1.4162115E-2,3.0618316E-2,2.5624061E-2,6.0059894E-2,3.127567E-2,4.479837E-2,2.3769816E-2,1.1455083E-2,3.4688782E-2,5.799668E-2,-6.994306E-2,-4.9636226E-2,-2.0264972E-2,-3.3070423E-2,-5.3626265E-2,-8.321148E-3,-2.7830834E-2,4.4000916E-2,-3.456075E-2,-1.6803684E-2,-1.26533825E-2,-8.60576E-4,-2.5954638E-2,-4.2953607E-2,-3.2224935E-2,-9.247729E-3],"split_indices":[1,36,36,1,1,1,1,30,59,1,59,59,32,61,16,33,56,0,59,29,33,1,59,61,1,30,0,30,30,1,59,0,0,0,0,0,0,0,0,0,0,0,0,0,0,0,0,0,0,0,0,0,0,0,0,0,0,0,0,0,0,0,0],"split_type":[0,0,0,0,0,0,0,0,0,0,0,0,0,0,0,0,0,0,0,0,0,0,0,0,0,0,0,0,0,0,0,0,0,0,0,0,0,0,0,0,0,0,0,0,0,0,0,0,0,0,0,0,0,0,0,0,0,0,0,0,0,0,0],"sum_hessian":[2.8078299E4,1.3906563E4,1.4171734E4,6.8805835E3,7.02598E3,3.6914038E3,1.0480331E4,2.4712986E3,4.4092847E3,1.5510355E3,5.4749443E3,3.1524119E3,5.389918E2,8.250786E3,2.2295454E3,1.3398523E3,1.1314463E3,3.580988E3,8.2829694E2,2.994189E2,1.2516166E3,4.406676E3,1.0682687E3,3.8598163E2,2.7664302E3,5.296934E2,9.298404E0,6.993298E2,7.551456E3,1.6372279E3,5.923175E2,1.0754011E3,2.6445126E2,9.3528326E2,1.961631E2,2.0970823E3,1.4839058E3,5.717546E2,2.5654233E2,2.9132042E1,2.7028687E2,6.7819E2,5.7342664E2,2.460194E3,1.9464818E3,8.073155E2,2.609532E2,5.9086464E1,3.2689517E2,1.3046836E3,1.4617467E3,5.164577E2,1.3235691E1,4.8512917E0,4.447112E0,5.935301E2,1.0579969E2,4.548468E3,3.002988E3,1.3748215E3,2.6240637E2,1.331413E2,4.5917618E2],"tree_param":{"num_deleted":"0","num_feature":"66","num_nodes":"63","size_leaf_vector":"1"}},{"base_weights":[1.8393223E-3,3.4722984E-1,-3.558032E-1,2.1590282E-1,5.4382557E-1,-6.5405923E-1,-2.6474687E-1,9.836753E-2,3.3106676E-1,8.1521314E-1,4.4135845E-1,-5.887585E-1,-1.0058645E0,-3.502249E-1,-9.1426514E-2,3.411096E-1,5.925204E-2,2.9450527E-1,7.4865466E-1,1.0063524E0,7.037626E-1,3.585072E-1,8.7470496E-1,-9.836457E-1,-5.078971E-1,-1.0394641E0,-5.3963304E-1,-2.002325E-1,-4.4546694E-1,-2.0477678E-1,3.702626E-2,6.049837E-3,2.3634495E-2,-3.4988896E-4,1.2404322E-2,2.2615228E-2,9.680695E-3,-4.2088684E-3,4.0037952E-2,3.1309746E-2,5.2717537E-2,2.7541716E-2,3.868332E-2,2.3624433E-2,1.0784748E-2,3.742094E-2,5.4211684E-2,-5.9639186E-2,-4.2232867E-2,-1.6459493E-2,-2.9977798E-2,-4.4867005E-2,-5.7310987E-2,-3.2697033E-2,5.3385105E-2,-2.3287237E-2,-5.0663385E-3,-2.9128626E-2,-1.7078383E-2,-1.744535E-2,-4.6657617E-3,1.0343353E-2,-1.8729114E-3],"categories":[],"categories_nodes":[],"categories_segments":[],"categories_sizes":[],"default_left":[0,0,0,0,0,0,0,0,0,0,0,0,0,0,0,0,0,0,0,0,0,0,0,0,0,0,0,0,0,0,0,0,0,0,0,0,0,0,0,0,0,0,0,0,0,0,0,0,0,0,0,0,0,0,0,0,0,0,0,0,0,0,0],"id":9,"left_children":[1,3,5,7,9,11,13,15,17,19,21,23,25,27,29,31,33,35,37,39,41,43,45,47,49,51,53,55,57,59,61,-1,-1,-1,-1,-1,-1,-1,-1,-1,-1,-1,-1,-1,-1,-1,-1,-1,-1,-1,-1,-1,-1,-1,-1,-1,-1,-1,-1,-1,-1,-1,-1],"loss_changes":[3.4566587E3,3.673452E2,3.7309387E2,1.1547235E2,1.5802515E2,7.3095215E1,1.5598761E2,4.0071033E1,6.549194E1,3.2371094E1,1.4821222E2,8.600903E1,7.138855E0,1.0061804E2,5.0708748E1,1.6855164E1,4.5583042E1,6.2983917E1,1.5161255E1,9.613342E0,1.002063E1,5.6437836E1,1.656546E1,1.215979E1,3.6645325E1,5.8466187E0,7.2707996E0,7.1898384E1,6.115155E1,2.9640099E1,2.0673368E1,0E0,0E0,0E0,0E0,0E0,0E0,0E0,0E0,0E0,0E0,0E0,0E0,0E0,0E0,0E0,0E0,0E0,0E0,0E0,0E0,0E0,0E0,0E0,0E0,0E0,0E0,0E0,0E0,0E0,0E0,0E0,0E0],"parents":[2147483647,0,0,1,1,2,2,3,3,4,4,5,5,6,6,7,7,8,8,9,9,10,10,11,11,12,12,13,13,14,14,15,15,16,16,17,17,18,18,19,19,20,20,21,21,22,22,23,23,24,24,25,25,26,26,27,27,28,28,29,29,30,30],"right_children":[2,4,6,8,10,12,14,16,18,20,22,24,26,28,30,32,34,36,38,40,42,44,46,48,50,52,54,56,58,60,62,-1,-1,-1,-1,-1,-1,-1,-1,-1,-1,-1,-1,-1,-1,-1,-1,-1,-1,-1,-1,-1,-1,-1,-1,-1,-1,-1,-1,-1,-1,-1,-1],"split_conditions":[3E0,1.8881596E0,-3.5412045E0,8.272344E-2,-1.74E2,3.65E2,1E0,-1.97E2,1.3E1,-3.96E2,1.5E1,-1.4E1,-4.042224E0,4.9E1,1.1995534E0,1E1,2E0,-8.6E1,-4.605457E0,-2.0302706E0,-3.0649137E0,-5.2E1,2.4E1,-2.4E1,6.3E1,-4.5397836E-1,1.2737046E1,-6E0,-2.1458397E0,-5.958834E-1,3.2E1,6.049837E-3,2.3634495E-2,-3.4988896E-4,1.2404322E-2,2.2615228E-2,9.680695E-3,-4.2088684E-3,4.0037952E-2,3.1309746E-2,5.2717537E-2,2.7541716E-2,3.868332E-2,2.3624433E-2,1.0784748E-2,3.742094E-2,5.4211684E-2,-5.9639186E-2,-4.2232867E-2,-1.6459493E-2,-2.9977798E-2,-4.4867005E-2,-5.7310987E-2,-3.2697033E-2,5.3385105E-2,-2.3287237E-2,-5.0663385E-3,-2.9128626E-2,-1.7078383E-2,-1.744535E-2,-4.6657617E-3,1.0343353E-2,-1.8729114E-3],"split_indices":[1,33,33,27,1,1,60,1,59,1,59,59,33,1,27,16,59,1,42,29,21,1,59,59,1,56,21,59,29,33,1,0,0,0,0,0,0,0,0,0,0,0,0,0,0,0,0,0,0,0,0,0,0,0,0,0,0,0,0,0,0,0,0],"split_type":[0,0,0,0,0,0,0,0,0,0,0,0,0,0,0,0,0,0,0,0,0,0,0,0,0,0,0,0,0,0,0,0,0,0,0,0,0,0,0,0,0,0,0,0,0,0,0,0,0,0,0,0,0,0,0,0,0,0,0,0,0,0,0],"sum_hessian":[2.798118E4,1.4234565E4,1.3746613E4,8.535448E3,5.6991177E3,3.2134944E3,1.0533119E4,4.225581E3,4.309867E3,1.5598562E3,4.139261E3,2.7128953E3,5.0059903E2,7.0530854E3,3.4800337E3,5.849894E2,3.6405916E3,3.9646877E3,3.4517963E2,5.7124164E2,9.8861456E2,3.4766255E3,6.62636E2,4.5899405E2,2.2539011E3,4.656009E2,3.4998127E1,2.7408286E3,4.3122563E3,1.8487925E3,1.6312412E3,2.1986682E2,3.6512256E2,2.6953872E3,9.452042E2,1.544514E3,2.4201736E3,2.0174673E1,3.2500494E2,6.584713E1,5.0539453E2,3.1336917E2,6.7524536E2,1.9318035E3,1.544822E3,4.165962E2,2.4603978E2,1.7993764E2,2.790564E2,7.660387E2,1.4878625E3,2.0415329E2,2.614476E2,3.3286297E1,1.7118305E0,7.426002E2,1.9982285E3,1.8566494E3,2.4556072E3,8.049236E2,1.0438689E3,4.9716415E2,1.1340771E3],"tree_param":{"num_deleted":"0","num_feature":"66","num_nodes":"63","size_leaf_vector":"1"}},{"base_weights":[2.8635703E-3,-1.9119146E-1,2.6933107E-1,-2.5766337E-1,1.5497091E-1,1.288579E-1,4.3773088E-1,-7.054403E-1,-2.1164344E-1,8.475262E-2,4.777413E-1,4.9468204E-2,4.1856182E-1,3.5057402E-1,7.017414E-1,-9.6281815E-1,-5.8551407E-1,-4.062567E-1,-1.2519759E-1,4.8654784E-2,3.921158E-1,4.0113392E-1,1.0543537E0,-3.0019635E-1,8.384668E-2,3.3704445E-1,8.546226E-1,2.9282162E-1,6.781053E-1,5.5174464E-1,8.36439E-1,-4.268859E-2,-6.267692E-2,-3.278206E-2,-8.722181E-3,-2.697643E-2,-1.454055E-2,-1.48612885E-2,-3.3253187E-3,-2.8184822E-2,3.2387946E-3,3.196469E-3,2.4592755E-2,1.4051515E-2,3.603884E-2,2.500887E-2,6.1678864E-2,-1.8745001E-2,1.6530028E-3,6.1385176E-4,1.0299054E-2,6.4450204E-3,1.9670358E-2,-3.8390134E-2,4.385586E-2,-2.1825267E-3,1.6704304E-2,2.8411403E-2,4.5860913E-2,2.2401059E-2,4.3271583E-2,3.9565817E-2,6.227045E-2],"categories":[],"categories_nodes":[],"categories_segments":[],"categories_sizes":[],"default_left":[0,0,0,0,0,0,0,0,0,0,0,0,0,0,0,0,0,0,0,0,0,0,0,0,0,0,0,0,0,0,0,0,0,0,0,0,0,0,0,0,0,0,0,0,0,0,0,0,0,0,0,0,0,0,0,0,0,0,0,0,0,0,0],"id":10,"left_children":[1,3,5,7,9,11,13,15,17,19,21,23,25,27,29,31,33,35,37,39,41,43,45,47,49,51,53,55,57,59,61,-1,-1,-1,-1,-1,-1,-1,-1,-1,-1,-1,-1,-1,-1,-1,-1,-1,-1,-1,-1,-1,-1,-1,-1,-1,-1,-1,-1,-1,-1,-1,-1],"loss_changes":[1.4434784E3,3.7170917E2,2.7815002E2,2.789933E2,5.888359E1,1.4747552E2,1.22731445E2,3.8242065E1,2.066474E2,2.366743E1,1.9950157E1,6.054842E1,4.8626785E1,7.581583E1,2.6196533E1,1.1380371E1,2.4705048E1,5.7903748E1,8.5879105E1,1.8895697E1,7.256916E0,1.5506378E1,4.5440598E0,1.1270012E1,4.0069378E1,1.3552811E1,8.58255E0,4.7564148E1,1.514975E1,2.0005142E1,1.1663849E1,0E0,0E0,0E0,0E0,0E0,0E0,0E0,0E0,0E0,0E0,0E0,0E0,0E0,0E0,0E0,0E0,0E0,0E0,0E0,0E0,0E0,0E0,0E0,0E0,0E0,0E0,0E0,0E0,0E0,0E0,0E0,0E0],"parents":[2147483647,0,0,1,1,2,2,3,3,4,4,5,5,6,6,7,7,8,8,9,9,10,10,11,11,12,12,13,13,14,14,15,15,16,16,17,17,18,18,19,19,20,20,21,21,22,22,23,23,24,24,25,25,26,26,27,27,28,28,29,29,30,30],"right_children":[2,4,6,8,10,12,14,16,18,20,22,24,26,28,30,32,34,36,38,40,42,44,46,48,50,52,54,56,58,60,62,-1,-1,-1,-1,-1,-1,-1,-1,-1,-1,-1,-1,-1,-1,-1,-1,-1,-1,-1,-1,-1,-1,-1,-1,-1,-1,-1,-1,-1,-1,-1,-1],"split_conditions":[7.0141464E-1,1E0,2.720336E0,-1.3E1,1.1E1,5E0,5.706915E0,-2.1E1,-4.589107E0,1.4E1,3.1E1,-5E0,1.9E1,1.2E1,1.07432E0,5E0,1.928229E0,-3.6846178E0,-1E0,-1E1,-4.1731954E0,3.2083437E0,-2.7544858E0,1E0,1E0,-3.1216917E0,-1.0637087E1,0E0,2E1,3E0,2.4E1,-4.268859E-2,-6.267692E-2,-3.278206E-2,-8.722181E-3,-2.697643E-2,-1.454055E-2,-1.48612885E-2,-3.3253187E-3,-2.8184822E-2,3.2387946E-3,3.196469E-3,2.4592755E-2,1.4051515E-2,3.603884E-2,2.500887E-2,6.1678864E-2,-1.8745001E-2,1.6530028E-3,6.1385176E-4,1.0299054E-2,6.4450204E-3,1.9670358E-2,-3.8390134E-2,4.385586E-2,-2.1825267E-3,1.6704304E-2,2.8411403E-2,4.5860913E-2,2.2401059E-2,4.3271583E-2,3.9565817E-2,6.227045E-2],"split_indices":[31,59,29,59,59,64,31,59,27,61,61,59,59,59,19,2,29,36,60,61,18,43,20,13,60,29,20,59,59,60,59,0,0,0,0,0,0,0,0,0,0,0,0,0,0,0,0,0,0,0,0,0,0,0,0,0,0,0,0,0,0,0,0],"split_type":[0,0,0,0,0,0,0,0,0,0,0,0,0,0,0,0,0,0,0,0,0,0,0,0,0,0,0,0,0,0,0,0,0,0,0,0,0,0,0,0,0,0,0,0,0,0,0,0,0,0,0,0,0,0,0,0,0,0,0,0,0,0,0],"sum_hessian":[2.7913078E4,1.6151009E4,1.1762069E4,1.3549673E4,2.6013352E3,6.4140522E3,5.348017E3,1.2612386E3,1.2288435E4,2.1378262E3,4.6350903E2,5.03562E3,1.3784319E3,4.0227175E3,1.3252993E3,3.9838605E2,8.628526E2,3.7780825E3,8.510353E3,1.9144678E3,2.2335832E2,4.1080017E2,5.270885E1,4.4982236E2,4.585798E3,1.1630189E3,2.1541296E2,3.4215989E3,6.0111884E2,6.298022E2,6.954971E2,2.9282928E2,1.0555676E2,7.3638916E2,1.26463455E2,1.7515421E3,2.0265404E3,2.163426E3,6.3469263E3,4.8078114E1,1.8663896E3,5.2675667E1,1.7068266E2,3.001957E2,1.1060446E2,1.3943378E1,3.8765472E1,3.6759613E2,8.2226234E1,2.8926501E3,1.6931476E3,2.4890158E2,9.141173E2,2.4319246E0,2.1298103E2,3.735089E2,3.0480898E3,4.1446045E2,1.8665839E2,4.7536536E2,1.5443686E2,6.292497E2,6.624736E1],"tree_param":{"num_deleted":"0","num_feature":"66","num_nodes":"63","size_leaf_vector":"1"}},{"base_weights":[1.0043493E-3,-3.772725E-1,3.1778893E-1,-7.078471E-1,-2.2261408E-1,1.6872412E-1,6.700456E-1,-9.1776764E-1,-6.0251E-1,-3.9389098E-1,-1.1981064E-1,4.7214616E-2,2.8711304E-1,6.04193E-1,1.0881697E0,-8.515832E-1,-1.1321838E0,-6.604611E-1,-3.8540378E-1,-5.642311E-1,-3.4225678E-1,-1.4969595E-1,2.0062241E-1,-3.3435667E-1,7.636313E-2,-5.464656E-1,3.0031756E-1,4.5978177E-1,7.097789E-1,9.9879855E-1,1.3006136E0,-5.087304E-2,-3.9546955E-2,-5.7003584E-2,2.4521561E-2,-3.513463E-2,-2.4963321E-2,-2.2276325E-2,-1.4868433E-3,-1.818007E-2,-3.733992E-2,-2.636368E-2,-1.4214257E-2,-8.163962E-3,2.3377432E-2,2.7174326E-3,2.0644747E-2,-1.3214621E-2,-4.4170927E-2,-4.8526723E-4,9.645005E-3,-3.312972E-2,3.0251184E-2,1.4314338E-2,4.0974434E-2,2.1119414E-2,4.3238934E-2,2.9436354E-2,3.8732525E-2,3.5032126E-4,5.1148262E-2,6.578401E-2,-1.6470274E-2],"categories":[],"categories_nodes":[],"categories_segments":[],"categories_sizes":[],"default_left":[0,0,0,0,0,0,0,0,0,0,0,0,0,0,0,0,0,0,0,0,0,0,0,0,0,0,0,0,0,0,0,0,0,0,0,0,0,0,0,0,0,0,0,0,0,0,0,0,0,0,0,0,0,0,0,0,0,0,0,0,0,0,0],"id":11,"left_children":[1,3,5,7,9,11,13,15,17,19,21,23,25,27,29,31,33,35,37,39,41,43,45,47,49,51,53,55,57,59,61,-1,-1,-1,-1,-1,-1,-1,-1,-1,-1,-1,-1,-1,-1,-1,-1,-1,-1,-1,-1,-1,-1,-1,-1,-1,-1,-1,-1,-1,-1,-1,-1],"loss_changes":[3.3391692E3,6.4904785E2,7.9612805E2,8.878821E1,1.5227527E2,1.532674E2,1.233219E2,1.7996338E1,3.3587402E1,2.8258057E1,5.182911E1,5.851518E1,5.955008E1,5.8989258E1,1.0091492E1,9.436218E0,4.6562805E0,1.4014709E1,1.2154144E1,2.7193405E1,2.6510681E1,4.1539543E1,1.4264528E1,1.4013252E1,4.9055645E1,1.1693264E1,3.836499E1,2.448584E1,1.7071045E1,1.0326843E1,4.893463E0,0E0,0E0,0E0,0E0,0E0,0E0,0E0,0E0,0E0,0E0,0E0,0E0,0E0,0E0,0E0,0E0,0E0,0E0,0E0,0E0,0E0,0E0,0E0,0E0,0E0,0E0,0E0,0E0,0E0,0E0,0E0,0E0],"parents":[2147483647,0,0,1,1,2,2,3,3,4,4,5,5,6,6,7,7,8,8,9,9,10,10,11,11,12,12,13,13,14,14,15,15,16,16,17,17,18,18,19,19,20,20,21,21,22,22,23,23,24,24,25,25,26,26,27,27,28,28,29,29,30,30],"right_children":[2,4,6,8,10,12,14,16,18,20,22,24,26,28,30,32,34,36,38,40,42,44,46,48,50,52,54,56,58,60,62,-1,-1,-1,-1,-1,-1,-1,-1,-1,-1,-1,-1,-1,-1,-1,-1,-1,-1,-1,-1,-1,-1,-1,-1,-1,-1,-1,-1,-1,-1,-1,-1],"split_conditions":[-1.2685962E1,-1.4065369E2,1.3212354E2,-2.3752893E2,-6.925605E1,3.511943E1,3.0417572E2,1.28E2,-8.177615E1,-8.168341E0,5.720467E1,-8.852312E1,-8.672553E0,1.34708E2,1.28E2,-3.3740527E2,5.631689E0,5.360773E0,3.402017E1,-1E0,-1.367728E2,9.225049E0,1.8044976E0,2.08E2,1.78789E0,4.9742327E0,2.0764626E2,7.9008417E0,1.8109135E2,3.2914032E1,1.2E1,-5.087304E-2,-3.9546955E-2,-5.7003584E-2,2.4521561E-2,-3.513463E-2,-2.4963321E-2,-2.2276325E-2,-1.4868433E-3,-1.818007E-2,-3.733992E-2,-2.636368E-2,-1.4214257E-2,-8.163962E-3,2.3377432E-2,2.7174326E-3,2.0644747E-2,-1.3214621E-2,-4.4170927E-2,-4.8526723E-4,9.645005E-3,-3.312972E-2,3.0251184E-2,1.4314338E-2,4.0974434E-2,2.1119414E-2,4.3238934E-2,2.9436354E-2,3.8732525E-2,3.5032126E-4,5.1148262E-2,6.578401E-2,-1.6470274E-2],"split_indices":[4,4,4,4,12,12,4,3,12,35,12,12,36,12,3,4,54,35,12,62,12,31,21,16,32,50,12,19,4,12,13,0,0,0,0,0,0,0,0,0,0,0,0,0,0,0,0,0,0,0,0,0,0,0,0,0,0,0,0,0,0,0,0],"split_type":[0,0,0,0,0,0,0,0,0,0,0,0,0,0,0,0,0,0,0,0,0,0,0,0,0,0,0,0,0,0,0,0,0,0,0,0,0,0,0,0,0,0,0,0,0,0,0,0,0,0,0,0,0,0,0,0,0,0,0,0,0,0,0],"sum_hessian":[2.7863408E4,1.2698932E4,1.5164477E4,4.0461865E3,8.652745E3,1.0656653E4,4.507823E3,1.3490593E3,2.6971272E3,3.2440886E3,5.4086567E3,5.260123E3,5.3965303E3,3.8967815E3,6.1104156E2,1.035016E3,3.1404333E2,2.1269011E3,5.702262E2,7.5185846E2,2.49223E3,4.9480225E3,4.6063412E2,3.7232086E2,4.887802E3,8.340419E1,5.3131265E3,1.648462E3,2.2483196E3,4.3444928E2,1.7659229E2,2.7242743E2,7.625885E2,3.1288138E2,1.1619661E0,1.6822008E3,4.447003E2,4.873155E2,8.291069E1,3.598956E2,3.919629E2,5.922479E2,1.8999822E3,4.8423574E3,1.0566501E2,2.737348E2,1.8689934E2,3.316619E2,4.0658966E1,2.8114568E3,2.0763452E3,7.622794E1,7.176242E0,5.1750137E3,1.381127E2,1.5112205E3,1.3724158E2,7.8852655E2,1.459793E3,1.0463384E1,4.2398587E2,1.7522684E2,1.3654553E0],"tree_param":{"num_deleted":"0","num_feature":"66","num_nodes":"63","size_leaf_vector":"1"}},{"base_weights":[1.0741814E-3,-3.8451323E-1,2.9316908E-1,-7.148261E-1,-2.4881244E-1,1.4167444E-1,6.01928E-1,-1.004819E0,-6.3916296E-1,-1.03913E-1,-3.8113233E-1,5.630843E-1,8.890155E-2,5.0356203E-1,9.2504793E-1,-9.423816E-1,-1.2034861E0,-4.893394E-1,-7.177982E-1,5.554636E-1,-1.322096E-1,-3.4605876E-1,-7.835818E-1,8.878436E-1,4.54832E-1,1.3039508E-1,-3.903348E-1,5.930645E-1,3.6960042E-1,8.049466E-1,1.0479108E0,-4.7846522E-2,3.3774916E-3,-1.8307766E-2,-6.1010253E-2,-3.4740448E-2,-1.8897798E-2,-2.6247427E-2,-3.8977265E-2,9.607505E-3,4.0569533E-2,-1.1739594E-2,-3.103223E-3,-2.1900486E-2,-1.3241331E-2,-4.9010914E-2,-2.5915587E-2,1.0824329E-2,4.8145592E-2,2.618877E-2,1.23215895E-2,8.1613904E-4,1.0681777E-2,-2.4343083E-2,1.8912051E-3,4.5783926E-2,2.7725348E-2,2.33366E-2,1.103258E-2,1.1949342E-2,4.183223E-2,4.862161E-2,6.261991E-2],"categories":[],"categories_nodes":[],"categories_segments":[],"categories_sizes":[],"default_left":[0,0,0,0,0,0,0,0,0,0,0,0,0,0,0,0,0,0,0,0,0,0,0,0,0,0,0,0,0,0,0,0,0,0,0,0,0,0,0,0,0,0,0,0,0,0,0,0,0,0,0,0,0,0,0,0,0,0,0,0,0,0,0],"id":12,"left_children":[1,3,5,7,9,11,13,15,17,19,21,23,25,27,29,31,33,35,37,39,41,43,45,47,49,51,53,55,57,59,61,-1,-1,-1,-1,-1,-1,-1,-1,-1,-1,-1,-1,-1,-1,-1,-1,-1,-1,-1,-1,-1,-1,-1,-1,-1,-1,-1,-1,-1,-1,-1,-1],"loss_changes":[3.1352905E3,5.375405E2,7.407234E2,7.583887E1,1.6300385E2,2.3622253E2,1.6508203E2,7.592224E0,3.2202026E1,7.581833E1,6.2364502E1,4.102765E1,1.8785759E2,4.7630188E1,1.6902466E1,8.285126E0,1.751648E0,2.1558502E1,2.1087341E1,1.5289055E1,2.7987862E1,3.037143E1,1.7877365E1,1.4505493E1,1.2567276E1,8.252782E1,3.1172997E1,2.9138489E1,2.3044891E1,1.0801147E1,7.7733154E0,0E0,0E0,0E0,0E0,0E0,0E0,0E0,0E0,0E0,0E0,0E0,0E0,0E0,0E0,0E0,0E0,0E0,0E0,0E0,0E0,0E0,0E0,0E0,0E0,0E0,0E0,0E0,0E0,0E0,0E0,0E0,0E0],"parents":[2147483647,0,0,1,1,2,2,3,3,4,4,5,5,6,6,7,7,8,8,9,9,10,10,11,11,12,12,13,13,14,14,15,15,16,16,17,17,18,18,19,19,20,20,21,21,22,22,23,23,24,24,25,25,26,26,27,27,28,28,29,29,30,30],"right_children":[2,4,6,8,10,12,14,16,18,20,22,24,26,28,30,32,34,36,38,40,42,44,46,48,50,52,54,56,58,60,62,-1,-1,-1,-1,-1,-1,-1,-1,-1,-1,-1,-1,-1,-1,-1,-1,-1,-1,-1,-1,-1,-1,-1,-1,-1,-1,-1,-1,-1,-1,-1,-1],"split_conditions":[-2.0220322E1,-1.5392427E2,1.1639713E2,-2.8976108E2,3.6E1,-1.91E2,2.4493398E2,5E0,5.3E1,-3.96E2,4.22E2,-5.06E2,1.74E2,-5.6E1,3.0417572E2,5.5978427E0,-1.39E1,-1.2E1,-5.2E0,7.217664E-1,-7.6108696E1,-8.778531E1,-2.4915347E0,-5.6878777E0,5.2E0,2.9925144E1,1.5384615E-3,-3.96E2,1.6E0,-6.6442075E0,5E0,-4.7846522E-2,3.3774916E-3,-1.8307766E-2,-6.1010253E-2,-3.4740448E-2,-1.8897798E-2,-2.6247427E-2,-3.8977265E-2,9.607505E-3,4.0569533E-2,-1.1739594E-2,-3.103223E-3,-2.1900486E-2,-1.3241331E-2,-4.9010914E-2,-2.5915587E-2,1.0824329E-2,4.8145592E-2,2.618877E-2,1.23215895E-2,8.1613904E-4,1.0681777E-2,-2.4343083E-2,1.8912051E-3,4.5783926E-2,2.7725348E-2,2.33366E-2,1.103258E-2,1.1949342E-2,4.183223E-2,4.862161E-2,6.261991E-2],"split_indices":[4,4,4,4,1,1,4,2,1,1,1,1,1,1,4,24,0,61,0,27,4,4,32,27,0,4,8,1,0,44,2,0,0,0,0,0,0,0,0,0,0,0,0,0,0,0,0,0,0,0,0,0,0,0,0,0,0,0,0,0,0,0,0],"split_type":[0,0,0,0,0,0,0,0,0,0,0,0,0,0,0,0,0,0,0,0,0,0,0,0,0,0,0,0,0,0,0,0,0,0,0,0,0,0,0,0,0,0,0,0,0,0,0,0,0,0,0,0,0,0,0,0,0,0,0,0,0,0,0],"sum_hessian":[2.7835629E4,1.199744E4,1.5838188E4,3.4921355E3,8.505305E3,1.062617E4,5.212019E3,7.1979333E2,2.7723423E3,4.0608904E3,4.4444146E3,1.1813239E3,9.444846E3,3.9978416E3,1.2141774E3,5.524235E2,1.673698E2,9.571606E2,1.8151816E3,1.6618681E2,3.8947036E3,4.090072E3,3.5434244E2,2.9329803E2,8.880258E2,8.69311E3,7.517357E2,2.3941128E3,1.6037288E3,6.1821924E2,5.959581E2,5.4472784E2,7.695709E0,3.8418431E0,1.6352795E2,3.3431415E2,6.2284644E2,4.4293152E2,1.3722501E3,6.9568726E1,9.661809E1,1.580119E3,2.3145845E3,1.9158248E3,2.1742473E3,2.0173239E2,1.5261005E2,3.0021646E1,2.632764E2,6.657783E2,2.2224748E2,3.668379E3,5.0247314E3,6.13517E2,1.382187E2,2.5288261E2,2.1412302E3,9.690155E2,6.3471326E2,3.3408707E1,5.848105E2,4.3984924E2,1.5610892E2],"tree_param":{"num_deleted":"0","num_feature":"66","num_nodes":"63","size_leaf_vector":"1"}},{"base_weights":[-6.871853E-3,-2.6574147E-1,3.7339067E-1,-5.8791554E-1,-1.1457371E-1,2.5722313E-1,7.087523E-1,-7.9006356E-1,-4.5838064E-1,2.9125394E-2,-2.620816E-1,4.6060878E-1,1.7741767E-1,6.242694E-1,9.7931826E-1,-1.0389712E0,-7.312534E-1,-5.42753E-1,-3.483543E-1,4.789387E-1,-1.767828E-2,-2.2417207E-1,-7.3772705E-1,9.635218E-1,4.0935823E-1,2.1315373E-1,-2.0790578E-1,5.082773E-1,7.373262E-1,8.831101E-1,1.2361548E0,-2.2247221E-2,-5.3085286E-2,-3.5320908E-2,-5.664573E-2,5.9044454E-4,-2.8266126E-2,-2.1111405E-2,-9.198609E-3,3.6710687E-3,2.9498322E-2,-1.17266085E-2,2.0545132E-3,-1.4823486E-2,-3.970376E-3,-4.6262573E-2,-2.4034964E-2,2.3657742E-3,5.1045317E-2,5.7122745E-3,2.2332802E-2,-7.756769E-3,1.2341372E-2,-3.176632E-2,-4.396689E-3,2.6292449E-2,-2.8268239E-2,5.46546E-2,3.4679215E-2,-1.0779123E-2,4.5419015E-2,6.5361656E-2,4.393628E-2],"categories":[],"categories_nodes":[],"categories_segments":[],"categories_sizes":[],"default_left":[0,0,0,0,0,0,0,0,0,0,0,0,0,0,0,0,0,0,0,0,0,0,0,0,0,0,0,0,0,0,0,0,0,0,0,0,0,0,0,0,0,0,0,0,0,0,0,0,0,0,0,0,0,0,0,0,0,0,0,0,0,0,0],"id":13,"left_children":[1,3,5,7,9,11,13,15,17,19,21,23,25,27,29,31,33,35,37,39,41,43,45,47,49,51,53,55,57,59,61,-1,-1,-1,-1,-1,-1,-1,-1,-1,-1,-1,-1,-1,-1,-1,-1,-1,-1,-1,-1,-1,-1,-1,-1,-1,-1,-1,-1,-1,-1,-1,-1],"loss_changes":[2.7344812E3,8.047931E2,4.380448E2,1.3771423E2,2.3850967E2,1.3552026E2,6.537659E1,2.9210938E1,2.96073E1,1.2004555E2,9.9853455E1,6.015323E1,8.273111E1,2.8459778E1,1.5660767E1,4.656128E0,1.5670593E1,2.2838745E1,1.6869278E1,2.4085434E1,6.58286E1,5.3776733E1,1.9138763E1,1.1244797E1,2.3432892E1,6.82061E1,2.6019228E1,2.0926056E1,1.6424805E1,1.4237152E1,3.315094E0,0E0,0E0,0E0,0E0,0E0,0E0,0E0,0E0,0E0,0E0,0E0,0E0,0E0,0E0,0E0,0E0,0E0,0E0,0E0,0E0,0E0,0E0,0E0,0E0,0E0,0E0,0E0,0E0,0E0,0E0,0E0,0E0],"parents":[2147483647,0,0,1,1,2,2,3,3,4,4,5,5,6,6,7,7,8,8,9,9,10,10,11,11,12,12,13,13,14,14,15,15,16,16,17,17,18,18,19,19,20,20,21,21,22,22,23,23,24,24,25,25,26,26,27,27,28,28,29,29,30,30],"right_children":[2,4,6,8,10,12,14,16,18,20,22,24,26,28,30,32,34,36,38,40,42,44,46,48,50,52,54,56,58,60,62,-1,-1,-1,-1,-1,-1,-1,-1,-1,-1,-1,-1,-1,-1,-1,-1,-1,-1,-1,-1,-1,-1,-1,-1,-1,-1,-1,-1,-1,-1,-1,-1],"split_conditions":[2.9925144E1,-1.1369597E2,1.7072366E2,-1.9950127E2,2E1,-1.03E2,2.9150946E2,-3.3740527E2,-1.0891844E2,-2.58E2,4.22E2,-5.64E2,1.31E2,3.8396566E0,1.28E2,1E1,4.59E2,-8E1,3.5291154E0,0E0,-6.925605E1,-6.446904E0,-2.1641824E0,-2.1949495E1,-1.3481317E0,-3.636754E1,-4.1208086E0,1.24E2,-3.47E2,-5.9793077E0,2.220446E-16,-2.2247221E-2,-5.3085286E-2,-3.5320908E-2,-5.664573E-2,5.9044454E-4,-2.8266126E-2,-2.1111405E-2,-9.198609E-3,3.6710687E-3,2.9498322E-2,-1.17266085E-2,2.0545132E-3,-1.4823486E-2,-3.970376E-3,-4.6262573E-2,-2.4034964E-2,2.3657742E-3,5.1045317E-2,5.7122745E-3,2.2332802E-2,-7.756769E-3,1.2341372E-2,-3.176632E-2,-4.396689E-3,2.6292449E-2,-2.8268239E-2,5.46546E-2,3.4679215E-2,-1.0779123E-2,4.5419015E-2,6.5361656E-2,4.393628E-2],"split_indices":[4,4,4,4,1,1,4,4,12,1,1,1,1,27,3,1,1,1,21,60,12,12,32,51,12,12,33,1,1,27,9,0,0,0,0,0,0,0,0,0,0,0,0,0,0,0,0,0,0,0,0,0,0,0,0,0,0,0,0,0,0,0,0],"split_type":[0,0,0,0,0,0,0,0,0,0,0,0,0,0,0,0,0,0,0,0,0,0,0,0,0,0,0,0,0,0,0,0,0,0,0,0,0,0,0,0,0,0,0,0,0,0,0,0,0,0,0,0,0,0,0,0,0,0,0,0,0,0,0],"sum_hessian":[2.7776701E4,1.6526557E4,1.12501455E4,5.276833E3,1.1249723E4,8.357288E3,2.892857E3,2.0585132E3,3.2183196E3,5.698494E3,5.551229E3,2.3534514E3,6.003837E3,2.2073118E3,6.855451E2,3.8990704E2,1.6686061E3,1.8187738E3,1.3995458E3,5.3638586E2,5.1621084E3,5.1430063E3,4.082224E2,2.1582693E2,2.1376245E3,5.4949272E3,5.0890994E2,1.0926617E3,1.1146501E3,5.022394E2,1.8330568E2,1.5292871E1,3.7461417E2,1.5742745E3,9.433164E1,7.0971115E1,1.7478026E3,9.640998E2,4.35446E2,1.1584305E2,4.205428E2,1.100396E3,4.0617122E3,3.4288484E3,1.7141581E3,2.3429483E2,1.7392758E2,1.2931349E1,2.0289558E2,2.4060683E2,1.8970176E3,4.5977658E2,5.0351504E3,1.10413605E2,3.9849637E2,1.0756604E3,1.700136E1,1.19165665E2,9.954845E2,1.1033619E1,4.9120578E2,1.504501E2,3.2855568E1],"tree_param":{"num_deleted":"0","num_feature":"66","num_nodes":"63","size_leaf_vector":"1"}},{"base_weights":[3.4389747E-3,-2.4935621E-1,3.7292325E-1,-5.487874E-1,-1.08836055E-1,2.6830348E-1,6.71271E-1,-7.6778525E-1,-4.322512E-1,-2.1942228E-1,-1.1009028E-2,1.7245558E-1,3.5969076E-1,5.958753E-1,9.659632E-1,-1.0735811E0,-7.1055937E-1,-2.961692E-1,-4.9514598E-1,-2.2980174E-1,4.7374347E-1,-2.1358466E-2,6.3793194E-1,-4.5992857E-1,1.8539444E-1,-4.7988978E-1,3.650304E-1,6.397625E-1,4.1684806E-1,8.832551E-1,1.1791728E0,2.7305732E-2,-5.4550227E-2,-3.9131053E-2,-2.750636E-2,-4.2794175E-3,-1.7775184E-2,-2.5128145E-2,3.172196E-2,-6.5292045E-3,-1.52544E-2,-1.1136475E-2,3.0686414E-2,-1.9243253E-2,-2.2164639E-4,6.6328305E-3,4.3227214E-2,4.333989E-2,-2.7007176E-2,7.908834E-3,2.0009404E-2,-3.292047E-2,1.7055875E-2,2.1356465E-2,1.4225132E-2,3.5692908E-2,2.6908157E-2,2.5387233E-2,6.4032893E-3,9.981047E-4,4.4995707E-2,6.1178636E-2,2.7415771E-2],"categories":[],"categories_nodes":[],"categories_segments":[],"categories_sizes":[],"default_left":[0,0,0,0,0,0,0,0,0,0,0,0,0,0,0,0,0,0,0,0,0,0,0,0,0,0,0,0,0,0,0,0,0,0,0,0,0,0,0,0,0,0,0,0,0,0,0,0,0,0,0,0,0,0,0,0,0,0,0,0,0,0,0],"id":14,"left_children":[1,3,5,7,9,11,13,15,17,19,21,23,25,27,29,31,33,35,37,39,41,43,45,47,49,51,53,55,57,59,61,-1,-1,-1,-1,-1,-1,-1,-1,-1,-1,-1,-1,-1,-1,-1,-1,-1,-1,-1,-1,-1,-1,-1,-1,-1,-1,-1,-1,-1,-1,-1,-1],"loss_changes":[2.5839155E3,6.9099475E2,3.5050806E2,1.3342737E2,1.209306E2,7.278375E1,6.407556E1,3.0914185E1,2.9100647E1,3.783899E1,3.9806473E1,3.3315437E1,1.9256653E1,1.7898865E1,9.197754E0,8.685394E0,1.7201233E1,1.3495453E1,1.9921814E1,3.8542175E1,7.7416687E0,3.5902996E1,1.0438076E1,9.12261E0,2.3171753E1,4.2471337E0,2.0973755E1,1.3532837E1,1.197641E1,6.0900574E0,3.6961365E0,0E0,0E0,0E0,0E0,0E0,0E0,0E0,0E0,0E0,0E0,0E0,0E0,0E0,0E0,0E0,0E0,0E0,0E0,0E0,0E0,0E0,0E0,0E0,0E0,0E0,0E0,0E0,0E0,0E0,0E0,0E0,0E0],"parents":[2147483647,0,0,1,1,2,2,3,3,4,4,5,5,6,6,7,7,8,8,9,9,10,10,11,11,12,12,13,13,14,14,15,15,16,16,17,17,18,18,19,19,20,20,21,21,22,22,23,23,24,24,25,25,26,26,27,27,28,28,29,29,30,30],"right_children":[2,4,6,8,10,12,14,16,18,20,22,24,26,28,30,32,34,36,38,40,42,44,46,48,50,52,54,56,58,60,62,-1,-1,-1,-1,-1,-1,-1,-1,-1,-1,-1,-1,-1,-1,-1,-1,-1,-1,-1,-1,-1,-1,-1,-1,-1,-1,-1,-1,-1,-1,-1,-1],"split_conditions":[2.9925144E1,-1.1369597E2,1.7072366E2,-2.0858212E2,-3.7045616E1,8.351882E1,3.0417572E2,-3.6383102E2,-3.5E0,9.225049E0,1.5268487E1,-1.2194694E1,-2.0389227E1,5.090036E-3,1.28E2,-2.7847579E0,-1.6253213E0,-2.9771908E-3,1.5223724E1,-1.1E0,-6E0,-7.125459E0,6E0,-1.3846153E-2,7.4518986E0,2.32E2,1.6E0,2.4E0,2.220446E-16,-2.94E2,2E-1,2.7305732E-2,-5.4550227E-2,-3.9131053E-2,-2.750636E-2,-4.2794175E-3,-1.7775184E-2,-2.5128145E-2,3.172196E-2,-6.5292045E-3,-1.52544E-2,-1.1136475E-2,3.0686414E-2,-1.9243253E-2,-2.2164639E-4,6.6328305E-3,4.3227214E-2,4.333989E-2,-2.7007176E-2,7.908834E-3,2.0009404E-2,-3.292047E-2,1.7055875E-2,2.1356465E-2,1.4225132E-2,3.5692908E-2,2.6908157E-2,2.5387233E-2,6.4032893E-3,9.981047E-4,4.4995707E-2,6.1178636E-2,2.7415771E-2],"split_indices":[4,4,4,4,4,4,4,4,0,31,29,27,30,10,3,55,29,10,22,0,16,31,16,8,29,16,0,0,9,16,11,0,0,0,0,0,0,0,0,0,0,0,0,0,0,0,0,0,0,0,0,0,0,0,0,0,0,0,0,0,0,0,0],"split_type":[0,0,0,0,0,0,0,0,0,0,0,0,0,0,0,0,0,0,0,0,0,0,0,0,0,0,0,0,0,0,0,0,0,0,0,0,0,0,0,0,0,0,0,0,0,0,0,0,0,0,0,0,0,0,0,0,0,0,0,0,0,0,0],"sum_hessian":[2.7661781E4,1.6424475E4,1.1237306E4,5.24481E3,1.1179665E4,8.321493E3,2.9158127E3,1.8193662E3,3.4254438E3,5.2465557E3,5.9331094E3,4.0635652E3,4.2579277E3,2.3244688E3,5.913439E2,2.8372528E2,1.5356409E3,1.0850596E3,2.3403843E3,5.1699536E3,7.660214E1,5.841076E3,9.203344E1,8.062769E1,3.9829375E3,2.6228785E1,4.231699E3,1.8643136E3,4.6015518E2,4.3010825E2,1.612356E2,2.635575E0,2.8108972E2,1.0565615E3,4.790794E2,2.3943188E2,8.456277E2,2.3257568E3,1.46274185E1,2.232226E3,2.9377273E3,1.2601225E1,6.4000916E1,2.5864117E2,5.5824346E3,2.9123571E1,6.2909863E1,3.966732E0,7.6660965E1,3.536952E3,4.4598575E2,2.180694E1,4.4218454E0,2.3861086E3,1.8455905E3,1.0740255E3,7.902882E2,3.4915216E2,1.1100301E2,8.297951E0,4.218103E2,1.4960806E2,1.1627534E1],"tree_param":{"num_deleted":"0","num_feature":"66","num_nodes":"63","size_leaf_vector":"1"}},{"base_weights":[-5.726494E-4,-3.3253855E-1,2.511933E-1,-6.177868E-1,-2.0210023E-1,1.2507859E-1,5.7755536E-1,-8.338949E-1,-5.259987E-1,-8.01602E-2,-3.5552427E-1,2.1018505E-1,-9.066797E-2,4.8732945E-1,8.5104966E-1,-1.0522621E0,-7.622083E-1,-3.489201E-1,-5.776606E-1,7.277201E-1,-1.0712653E-1,-2.9844442E-1,-6.155046E-1,5.632066E-1,1.6833118E-1,-3.643837E-2,-5.5319464E-1,5.7437027E-1,3.332907E-1,7.1234906E-1,9.783094E-1,-5.0337764E-4,-5.3692844E-2,-2.3732621E-2,-4.0144913E-2,-8.589232E-3,-2.59852E-2,-1.5924219E-2,-3.0290848E-2,-2.293332E-3,4.0340032E-2,-6.3019185E-3,1.799222E-2,-1.7647441E-2,-4.1812314E-3,-3.484798E-2,-1.2141094E-2,2.3544248E-2,4.5206767E-2,-1.9215336E-3,1.1000103E-2,-4.171075E-3,1.1731136E-2,-3.4171406E-2,1.1781234E-3,2.7246187E-2,4.864912E-2,2.8405006E-3,2.0345133E-2,4.0000793E-2,2.485474E-2,4.950283E-2,-1.27043305E-2],"categories":[],"categories_nodes":[],"categories_segments":[],"categories_sizes":[],"default_left":[0,0,0,0,0,0,0,0,0,0,0,0,0,0,0,0,0,0,0,0,0,0,0,0,0,0,0,0,0,0,0,0,0,0,0,0,0,0,0,0,0,0,0,0,0,0,0,0,0,0,0,0,0,0,0,0,0,0,0,0,0,0,0],"id":15,"left_children":[1,3,5,7,9,11,13,15,17,19,21,23,25,27,29,31,33,35,37,39,41,43,45,47,49,51,53,55,57,59,61,-1,-1,-1,-1,-1,-1,-1,-1,-1,-1,-1,-1,-1,-1,-1,-1,-1,-1,-1,-1,-1,-1,-1,-1,-1,-1,-1,-1,-1,-1,-1,-1],"loss_changes":[2.2973772E3,4.4091467E2,6.4325745E2,7.3206055E1,1.5216449E2,2.070847E2,1.06953E2,1.6342285E1,2.3616394E1,9.882401E1,5.3189148E1,1.1932361E2,7.994258E1,4.3673523E1,1.8180786E1,5.970337E0,9.287262E0,1.7789291E1,1.446582E1,9.075874E0,3.879111E1,3.4542725E1,1.9388275E1,2.6395386E1,7.728725E1,3.6386482E1,2.5210106E1,2.3884644E1,2.407753E1,9.29248E0,8.4279175E0,0E0,0E0,0E0,0E0,0E0,0E0,0E0,0E0,0E0,0E0,0E0,0E0,0E0,0E0,0E0,0E0,0E0,0E0,0E0,0E0,0E0,0E0,0E0,0E0,0E0,0E0,0E0,0E0,0E0,0E0,0E0,0E0],"parents":[2147483647,0,0,1,1,2,2,3,3,4,4,5,5,6,6,7,7,8,8,9,9,10,10,11,11,12,12,13,13,14,14,15,15,16,16,17,17,18,18,19,19,20,20,21,21,22,22,23,23,24,24,25,25,26,26,27,27,28,28,29,29,30,30],"right_children":[2,4,6,8,10,12,14,16,18,20,22,24,26,28,30,32,34,36,38,40,42,44,46,48,50,52,54,56,58,60,62,-1,-1,-1,-1,-1,-1,-1,-1,-1,-1,-1,-1,-1,-1,-1,-1,-1,-1,-1,-1,-1,-1,-1,-1,-1,-1,-1,-1,-1,-1,-1,-1],"split_conditions":[-2.0220322E1,-1.24224686E2,1.3212354E2,-2.3752893E2,5.6E1,2E1,2.1970851E2,-3.6383102E2,-3.01E2,-4.26E2,2.94E2,-2.58E2,3.65E2,-5.6E1,2.7582602E2,-3.5084667E0,-4.88E2,6.3E1,-1.7E1,0E0,8.8975746E1,-7.4995017E0,1E0,9.044105E0,-1.4500369E1,8.554389E1,1E0,8.187287E0,6.1241867E1,-4.8E1,2.36E2,-5.0337764E-4,-5.3692844E-2,-2.3732621E-2,-4.0144913E-2,-8.589232E-3,-2.59852E-2,-1.5924219E-2,-3.0290848E-2,-2.293332E-3,4.0340032E-2,-6.3019185E-3,1.799222E-2,-1.7647441E-2,-4.1812314E-3,-3.484798E-2,-1.2141094E-2,2.3544248E-2,4.5206767E-2,-1.9215336E-3,1.1000103E-2,-4.171075E-3,1.1731136E-2,-3.4171406E-2,1.1781234E-3,2.7246187E-2,4.864912E-2,2.8405006E-3,2.0345133E-2,4.0000793E-2,2.485474E-2,4.950283E-2,-1.27043305E-2],"split_indices":[4,12,4,4,1,1,12,4,16,1,1,1,1,1,12,58,16,1,1,64,12,12,65,27,12,12,16,31,12,1,1,0,0,0,0,0,0,0,0,0,0,0,0,0,0,0,0,0,0,0,0,0,0,0,0,0,0,0,0,0,0,0,0],"split_type":[0,0,0,0,0,0,0,0,0,0,0,0,0,0,0,0,0,0,0,0,0,0,0,0,0,0,0,0,0,0,0,0,0,0,0,0,0,0,0,0,0,0,0,0,0,0,0,0,0,0,0,0,0,0,0,0,0,0,0,0,0,0,0],"sum_hessian":[2.7485816E4,1.1854779E4,1.5631037E4,3.7184985E3,8.136281E3,1.1275559E4,4.355478E3,1.105801E3,2.6126975E3,4.5344863E3,3.6017944E3,8.0862363E3,3.1893228E3,3.2774072E3,1.078071E3,2.6957263E2,8.362284E2,5.9227606E2,2.0204215E3,1.4550897E2,4.3889775E3,2.9554456E3,6.463489E2,8.555078E2,7.2307285E3,2.8557869E3,3.3353586E2,2.091954E3,1.1854531E3,5.193807E2,5.586903E2,5.5960603E0,2.6397656E2,1.05535095E2,7.306933E2,2.9200378E2,3.002723E2,1.9953957E2,1.820882E3,1.3416883E1,1.3209209E2,4.219054E3,1.6992313E2,2.356454E3,5.9899146E2,5.294843E2,1.1686456E2,6.753116E2,1.8019623E2,1.4453717E3,5.785357E3,2.4348196E3,4.2096713E2,2.7208636E2,6.1449493E1,1.9504845E3,1.4146959E2,2.4991652E2,9.3553656E2,3.66809E2,1.525717E2,5.536903E2,4.999983E0],"tree_param":{"num_deleted":"0","num_feature":"66","num_nodes":"63","size_leaf_vector":"1"}},{"base_weights":[1.430711E-3,-3.1818515E-1,2.4425007E-1,-6.0067004E-1,-2.0788456E-1,9.657283E-2,4.9891677E-1,-7.8746086E-1,-4.8872656E-1,5.882803E-1,-2.2564213E-1,1.8407848E-1,-1.0971287E-1,3.8833734E-1,6.8978745E-1,-7.1794665E-1,-1.0750965E0,-2.3549555E-1,-5.3230894E-1,-2.206896E-1,6.8855464E-1,-1.5228797E-1,-3.658446E-1,8.0717796E-1,1.5990767E-1,-5.970623E-2,-5.358538E-1,8.70299E-1,3.5870275E-1,6.364888E-1,1.0364678E0,-3.8458936E-2,-2.6081214E-2,-5.475651E-2,-1.0873843E-2,-5.7042525E-3,-3.5677943E-2,-2.3670567E-2,-3.413537E-2,-3.2792605E-2,6.534087E-2,-3.5794806E-2,3.7633516E-2,-1.8258265E-3,-1.1426358E-2,-1.6460774E-2,-3.7623554E-2,1.6493665E-2,4.554386E-2,1.2747067E-2,2.0389638E-3,6.5084235E-3,-4.8072906E-3,-4.2152148E-2,-1.7677091E-2,3.476061E-2,5.8401443E-2,2.0563757E-2,9.942929E-3,3.3559904E-2,1.54650165E-2,3.7183728E-2,5.467235E-2],"categories":[],"categories_nodes":[],"categories_segments":[],"categories_sizes":[],"default_left":[0,0,0,0,0,0,0,0,0,0,0,0,0,0,0,0,0,0,0,0,0,0,0,0,0,0,0,0,0,0,0,0,0,0,0,0,0,0,0,0,0,0,0,0,0,0,0,0,0,0,0,0,0,0,0,0,0,0,0,0,0,0,0],"id":16,"left_children":[1,3,5,7,9,11,13,15,17,19,21,23,25,27,29,31,33,35,37,39,41,43,45,47,49,51,53,55,57,59,61,-1,-1,-1,-1,-1,-1,-1,-1,-1,-1,-1,-1,-1,-1,-1,-1,-1,-1,-1,-1,-1,-1,-1,-1,-1,-1,-1,-1,-1,-1,-1,-1],"loss_changes":[2.1288516E3,3.687826E2,5.861405E2,6.90083E1,1.2053253E2,1.7815936E2,1.20374756E2,2.3920288E1,2.2774048E1,1.5287498E1,8.559918E1,1.04140366E2,6.2549114E1,5.1340393E1,3.7920532E1,9.578857E0,3.750946E0,1.7702158E1,1.5284637E1,1.485787E1,1.5476578E1,4.827437E1,4.0165558E1,1.236377E1,7.5498215E1,1.8220707E1,1.685302E1,9.901001E0,2.8571167E1,2.0367798E1,3.6342163E0,0E0,0E0,0E0,0E0,0E0,0E0,0E0,0E0,0E0,0E0,0E0,0E0,0E0,0E0,0E0,0E0,0E0,0E0,0E0,0E0,0E0,0E0,0E0,0E0,0E0,0E0,0E0,0E0,0E0,0E0,0E0,0E0],"parents":[2147483647,0,0,1,1,2,2,3,3,4,4,5,5,6,6,7,7,8,8,9,9,10,10,11,11,12,12,13,13,14,14,15,15,16,16,17,17,18,18,19,19,20,20,21,21,22,22,23,23,24,24,25,25,26,26,27,27,28,28,29,29,30,30],"right_children":[2,4,6,8,10,12,14,16,18,20,22,24,26,28,30,32,34,36,38,40,42,44,46,48,50,52,54,56,58,60,62,-1,-1,-1,-1,-1,-1,-1,-1,-1,-1,-1,-1,-1,-1,-1,-1,-1,-1,-1,-1,-1,-1,-1,-1,-1,-1,-1,-1,-1,-1,-1,-1],"split_conditions":[-2.0220322E1,-1.5392427E2,1.04524895E2,-2.3752893E2,-3.7E2,2.1E1,1.9665025E2,5E0,-6.9E0,0E0,7.9E1,-5.06E2,3.65E2,-3.96E2,3.6732324E2,-1.356241E0,8.575474E0,2.94E2,0E0,6.108839E0,-2E-1,-1.2E0,4.98E2,-3.0198379E0,1.2E0,0E0,-7.1654916E0,5.846187E0,4.6E0,-1.4E1,2.6638336E0,-3.8458936E-2,-2.6081214E-2,-5.475651E-2,-1.0873843E-2,-5.7042525E-3,-3.5677943E-2,-2.3670567E-2,-3.413537E-2,-3.2792605E-2,6.534087E-2,-3.5794806E-2,3.7633516E-2,-1.8258265E-3,-1.1426358E-2,-1.6460774E-2,-3.7623554E-2,1.6493665E-2,4.554386E-2,1.2747067E-2,2.0389638E-3,6.5084235E-3,-4.8072906E-3,-4.2152148E-2,-1.7677091E-2,3.476061E-2,5.8401443E-2,2.0563757E-2,9.942929E-3,3.3559904E-2,1.54650165E-2,3.7183728E-2,5.467235E-2],"split_indices":[4,4,4,4,1,1,4,2,0,64,1,1,1,1,4,33,30,1,60,28,11,0,1,25,0,64,21,31,0,1,31,0,0,0,0,0,0,0,0,0,0,0,0,0,0,0,0,0,0,0,0,0,0,0,0,0,0,0,0,0,0,0,0],"split_type":[0,0,0,0,0,0,0,0,0,0,0,0,0,0,0,0,0,0,0,0,0,0,0,0,0,0,0,0,0,0,0,0,0,0,0,0,0,0,0,0,0,0,0,0,0,0,0,0,0,0,0,0,0,0,0,0,0,0,0,0,0,0,0],"sum_hessian":[2.7428594E4,1.1841396E4,1.5587197E4,3.3237546E3,8.517642E3,9.867157E3,5.7200396E3,1.2429008E3,2.0808538E3,1.8500781E2,8.332634E3,6.928644E3,2.9385134E3,3.6240393E3,2.0960002E3,1.00408307E3,2.388177E2,3.0681775E2,1.774036E3,2.016082E1,1.6484698E2,5.472312E3,2.860322E3,2.5737E2,6.671274E3,2.631131E3,3.073823E2,2.0808633E2,3.415953E3,1.8194087E3,2.765915E2,7.935674E2,2.1051567E2,2.3298178E2,5.835922E0,2.4583302E2,6.0984734E1,1.2782664E3,4.9576974E2,1.6185837E1,3.9749832E0,6.685087E0,1.581619E2,2.173928E3,3.2983838E3,2.6147131E3,2.4560883E2,4.6854492E1,2.1051549E2,3.7098184E3,2.9614558E3,4.2279077E2,2.2083403E3,1.1292872E2,1.9445358E2,1.3334229E2,7.474405E1,2.568862E3,8.470908E2,1.6436841E3,1.7572461E2,4.763274E1,2.2895876E2],"tree_param":{"num_deleted":"0","num_feature":"66","num_nodes":"63","size_leaf_vector":"1"}},{"base_weights":[1.505059E-3,2.596993E-1,-2.5139365E-1,1.7155337E-1,4.6073845E-1,-3.8743812E-1,-1.4685792E-1,3.0709788E-1,1.0616646E-1,8.05645E-1,4.0415198E-1,-3.1923038E-1,-5.88967E-1,-6.0818102E-2,-2.489661E-1,1.5742238E-1,3.7415084E-1,2.8331308E-3,1.8009382E-1,5.5193925E-1,9.01317E-1,3.5854536E-1,6.9344324E-1,-9.011065E-1,-2.8584683E-1,-5.252618E-1,-8.1191176E-1,-1.7404136E-1,4.6562377E-2,-8.778185E-2,-2.9383245E-1,-1.3556155E-2,1.0123324E-2,2.8905371E-2,1.5680222E-2,-2.5076056E-3,1.32258525E-2,8.297819E-3,2.964758E-2,-1.9155161E-2,3.2055505E-2,-2.9264554E-2,4.5673627E-2,1.6113115E-2,2.8375138E-2,3.692035E-2,-1.4842163E-2,-3.402415E-2,-5.053428E-2,-2.2840764E-2,-1.15638245E-2,-3.447401E-3,-2.7458265E-2,-4.3231405E-2,4.244378E-3,-2.4791988E-2,-7.157729E-3,1.5295557E-3,2.6920704E-2,-1.0867828E-2,2.9700024E-3,-1.7602665E-2,-8.33889E-3],"categories":[],"categories_nodes":[],"categories_segments":[],"categories_sizes":[],"default_left":[0,0,0,0,0,0,0,0,0,0,0,0,0,0,0,0,0,0,0,0,0,0,0,0,0,0,0,0,0,0,0,0,0,0,0,0,0,0,0,0,0,0,0,0,0,0,0,0,0,0,0,0,0,0,0,0,0,0,0,0,0,0,0],"id":17,"left_children":[1,3,5,7,9,11,13,15,17,19,21,23,25,27,29,31,33,35,37,39,41,43,45,47,49,51,53,55,57,59,61,-1,-1,-1,-1,-1,-1,-1,-1,-1,-1,-1,-1,-1,-1,-1,-1,-1,-1,-1,-1,-1,-1,-1,-1,-1,-1,-1,-1,-1,-1,-1,-1],"loss_changes":[1.7889042E3,2.4008905E2,1.9671466E2,8.3469696E1,8.0181885E1,8.236981E1,6.8728424E1,3.0663574E1,4.8572525E1,1.3459351E1,4.6499084E1,8.6935455E1,2.1011597E1,5.16957E1,2.5818604E1,1.8403921E1,2.5866547E1,3.683882E1,2.1465096E1,1.3775608E1,8.157684E0,2.3003326E1,2.173581E1,5.024048E0,3.9500854E1,1.2820068E1,1.6006226E1,2.0434772E1,1.706546E1,1.4927436E1,2.0592758E1,0E0,0E0,0E0,0E0,0E0,0E0,0E0,0E0,0E0,0E0,0E0,0E0,0E0,0E0,0E0,0E0,0E0,0E0,0E0,0E0,0E0,0E0,0E0,0E0,0E0,0E0,0E0,0E0,0E0,0E0,0E0,0E0],"parents":[2147483647,0,0,1,1,2,2,3,3,4,4,5,5,6,6,7,7,8,8,9,9,10,10,11,11,12,12,13,13,14,14,15,15,16,16,17,17,18,18,19,19,20,20,21,21,22,22,23,23,24,24,25,25,26,26,27,27,28,28,29,29,30,30],"right_children":[2,4,6,8,10,12,14,16,18,20,22,24,26,28,30,32,34,36,38,40,42,44,46,48,50,52,54,56,58,60,62,-1,-1,-1,-1,-1,-1,-1,-1,-1,-1,-1,-1,-1,-1,-1,-1,-1,-1,-1,-1,-1,-1,-1,-1,-1,-1,-1,-1,-1,-1,-1,-1],"split_conditions":[-1E0,2.9631307E0,-1.6786271E0,-1.03E2,-3.47E2,1.85E2,6.7E1,1.1E1,-1.8238406E0,5.110564E0,7E0,-3.4E1,5.54E2,1.9961612E-2,-2.0334575E0,-8.579512E0,-3.1E2,3E0,2.7E1,-4.448777E0,-2.01E2,9.6E1,2.8357964E0,-3.1986825E0,-6E0,-3.3251143E0,5.707873E0,-1.4E1,1.1258161E1,2.6552415E0,-2E0,-1.3556155E-2,1.0123324E-2,2.8905371E-2,1.5680222E-2,-2.5076056E-3,1.32258525E-2,8.297819E-3,2.964758E-2,-1.9155161E-2,3.2055505E-2,-2.9264554E-2,4.5673627E-2,1.6113115E-2,2.8375138E-2,3.692035E-2,-1.4842163E-2,-3.402415E-2,-5.053428E-2,-2.2840764E-2,-1.15638245E-2,-3.447401E-3,-2.7458265E-2,-4.3231405E-2,4.244378E-3,-2.4791988E-2,-7.157729E-3,1.5295557E-3,2.6920704E-2,-1.0867828E-2,2.9700024E-3,-1.7602665E-2,-8.33889E-3],"split_indices":[1,31,31,1,1,1,1,16,28,31,62,61,1,27,58,45,1,61,61,39,16,3,58,44,64,53,35,61,29,34,16,0,0,0,0,0,0,0,0,0,0,0,0,0,0,0,0,0,0,0,0,0,0,0,0,0,0,0,0,0,0,0,0],"split_type":[0,0,0,0,0,0,0,0,0,0,0,0,0,0,0,0,0,0,0,0,0,0,0,0,0,0,0,0,0,0,0,0,0,0,0,0,0,0,0,0,0,0,0,0,0,0,0,0,0,0,0,0,0,0,0,0,0,0,0,0,0,0,0],"sum_hessian":[2.7394414E4,1.3555469E4,1.3838944E4,9.425288E3,4.130181E3,6.011638E3,7.8273057E3,3.065468E3,6.35982E3,5.799935E2,3.5501877E3,4.49379E3,1.5178485E3,4.249287E3,3.5780188E3,9.49913E2,2.115555E3,2.6533884E3,3.7064314E3,1.6096259E2,4.1903094E2,3.0689539E3,4.8123407E2,2.4225702E2,4.2515327E3,1.1834802E3,3.3436835E2,2.0685225E3,2.1807644E3,7.8022235E2,2.7977964E3,8.9659676E1,8.6025336E2,4.8192896E2,1.6336259E3,2.2069548E3,4.464337E2,3.5853042E3,1.21127174E2,1.3629222E1,1.4733337E2,2.9493742E0,4.1608157E2,2.6174795E3,4.5147418E2,4.6067264E2,2.0561424E1,8.308948E1,1.5916754E2,1.0264548E3,3.225078E3,5.931095E1,1.1241692E3,3.159437E2,1.842465E1,1.7955128E2,1.8889712E3,2.1134043E3,6.736033E1,4.1503772E2,3.6518463E2,1.9168647E3,8.8093164E2],"tree_param":{"num_deleted":"0","num_feature":"66","num_nodes":"63","size_leaf_vector":"1"}},{"base_weights":[6.8111497E-4,-2.991453E-1,2.2498532E-1,-5.0617975E-1,-1.4577392E-1,6.968331E-2,4.471627E-1,-6.9866174E-1,-4.0772468E-1,2.197244E-1,-1.79489E-1,1.6405079E-1,-1.3833258E-1,3.736788E-1,7.3170054E-1,-8.1948406E-1,-6.1139053E-1,-2.7958235E-1,-4.7138268E-1,2.971203E-1,-5.7202435E-1,-1.499352E-1,-5.3262055E-1,2.1764758E-1,-4.775916E-2,-9.123835E-2,-6.176121E-1,7.7065635E-1,3.4626877E-1,6.4626604E-1,9.000882E-1,-1.0021868E-2,-4.205527E-2,-2.8926412E-2,-5.270487E-2,2.6914144E-2,-1.4944817E-2,-1.5288427E-2,-2.59883E-2,2.909382E-2,7.979703E-3,-3.6737256E-2,4.087534E-2,-1.1067757E-3,-1.1529887E-2,-3.3897493E-2,-1.5192288E-2,3.1114662E-2,9.581708E-3,-5.006581E-3,1.9094339E-2,-6.188505E-3,1.691862E-2,-3.4530655E-2,6.610726E-3,3.40725E-2,5.4623604E-2,2.0182291E-2,9.2447605E-3,1.6143983E-2,3.4496464E-2,-2.1040352E-2,4.5659166E-2],"categories":[],"categories_nodes":[],"categories_segments":[],"categories_sizes":[],"default_left":[0,0,0,0,0,0,0,0,0,0,0,0,0,0,0,0,0,0,0,0,0,0,0,0,0,0,0,0,0,0,0,0,0,0,0,0,0,0,0,0,0,0,0,0,0,0,0,0,0,0,0,0,0,0,0,0,0,0,0,0,0,0,0],"id":18,"left_children":[1,3,5,7,9,11,13,15,17,19,21,23,25,27,29,31,33,35,37,39,41,43,45,47,49,51,53,55,57,59,61,-1,-1,-1,-1,-1,-1,-1,-1,-1,-1,-1,-1,-1,-1,-1,-1,-1,-1,-1,-1,-1,-1,-1,-1,-1,-1,-1,-1,-1,-1,-1,-1],"loss_changes":[1.8344888E3,3.7053088E2,5.383381E2,9.373291E1,8.269054E1,1.8034326E2,1.3384033E2,1.7061035E1,2.6621399E1,3.4867058E1,6.3950226E1,7.177348E1,6.458305E1,5.516095E1,1.8199646E1,9.106903E0,1.3474731E1,1.7426682E1,1.7349548E1,2.0078827E1,1.2053225E1,5.841091E1,1.5444046E1,5.2896057E1,2.8738003E1,3.6522766E1,1.4167671E1,8.512009E0,4.4093445E1,1.2061584E1,8.046112E0,0E0,0E0,0E0,0E0,0E0,0E0,0E0,0E0,0E0,0E0,0E0,0E0,0E0,0E0,0E0,0E0,0E0,0E0,0E0,0E0,0E0,0E0,0E0,0E0,0E0,0E0,0E0,0E0,0E0,0E0,0E0,0E0],"parents":[2147483647,0,0,1,1,2,2,3,3,4,4,5,5,6,6,7,7,8,8,9,9,10,10,11,11,12,12,13,13,14,14,15,15,16,16,17,17,18,18,19,19,20,20,21,21,22,22,23,23,24,24,25,25,26,26,27,27,28,28,29,29,30,30],"right_children":[2,4,6,8,10,12,14,16,18,20,22,24,26,28,30,32,34,36,38,40,42,44,46,48,50,52,54,56,58,60,62,-1,-1,-1,-1,-1,-1,-1,-1,-1,-1,-1,-1,-1,-1,-1,-1,-1,-1,-1,-1,-1,-1,-1,-1,-1,-1,-1,-1,-1,-1,-1,-1],"split_conditions":[-1.7604265E1,-1.0757499E2,8.6728745E1,-2.0858212E2,-1.51E2,3.8E1,2.3167787E2,-2.4213466E2,3.9E1,8.7608764E-4,2.45E2,5.3E0,4.59E2,-3.7E2,3.2000934E2,-1.24E1,4.59E2,-4.62E2,-5.6E0,-3.96E2,1.1E1,-2.1E0,7.887129E-1,-3.1E2,7.7440896E0,1.0181E2,3.076923E-3,1.0239025E1,4.4E0,-6.9108667E0,1.6391998E1,-1.0021868E-2,-4.205527E-2,-2.8926412E-2,-5.270487E-2,2.6914144E-2,-1.4944817E-2,-1.5288427E-2,-2.59883E-2,2.909382E-2,7.979703E-3,-3.6737256E-2,4.087534E-2,-1.1067757E-3,-1.1529887E-2,-3.3897493E-2,-1.5192288E-2,3.1114662E-2,9.581708E-3,-5.006581E-3,1.9094339E-2,-6.188505E-3,1.691862E-2,-3.4530655E-2,6.610726E-3,3.40725E-2,5.4623604E-2,2.0182291E-2,9.2447605E-3,1.6143983E-2,3.4496464E-2,-2.1040352E-2,4.5659166E-2],"split_indices":[12,4,4,4,1,1,4,12,1,5,1,0,1,1,4,0,1,1,0,1,59,0,23,1,29,12,8,24,0,28,12,0,0,0,0,0,0,0,0,0,0,0,0,0,0,0,0,0,0,0,0,0,0,0,0,0,0,0,0,0,0,0,0],"split_type":[0,0,0,0,0,0,0,0,0,0,0,0,0,0,0,0,0,0,0,0,0,0,0,0,0,0,0,0,0,0,0,0,0,0,0,0,0,0,0,0,0,0,0,0,0,0,0,0,0,0,0,0,0,0,0,0,0,0,0,0,0,0,0],"sum_hessian":[2.727581E4,1.167248E4,1.5603331E4,4.9659897E3,6.70649E3,9.18487E3,6.418461E3,1.6781177E3,3.287872E3,5.656722E2,6.140818E3,6.3189424E3,2.8659282E3,5.1031904E3,1.3152701E3,6.997772E2,9.7834045E2,1.0935468E3,2.1943254E3,5.1598413E2,4.968801E1,5.6681543E3,4.726636E2,5.0432363E3,1.2757057E3,2.6107898E3,2.5513838E2,3.2761404E2,4.7755767E3,8.7616425E2,4.3910596E2,2.4118847E1,6.756584E2,9.1309375E2,6.52467E1,2.448913E1,1.0690576E3,4.982437E2,1.6960817E3,1.6675337E2,3.4923077E2,4.4965527E1,4.722484E0,2.194213E3,3.4739414E3,2.8757864E2,1.8508493E2,3.0301352E2,4.740223E3,1.1379883E3,1.3771742E2,2.4278857E3,1.8290399E2,2.3269609E2,2.2442295E1,2.5919434E2,6.841971E1,3.5214055E3,1.2541711E3,1.0549719E2,7.7066705E2,3.9298792E0,4.351761E2],"tree_param":{"num_deleted":"0","num_feature":"66","num_nodes":"63","size_leaf_vector":"1"}},{"base_weights":[-4.5493846E-3,-2.684318E-1,2.3164326E-1,-5.374233E-1,-1.527378E-1,1.1871931E-1,4.8276436E-1,-7.3996985E-1,-4.607136E-1,-4.4179503E-2,-2.8087413E-1,1.6571115E-1,-2.2038978E-1,3.9583382E-1,7.113883E-1,-6.7167026E-1,-9.8441756E-1,-2.4599509E-1,-4.9836403E-1,6.085358E-1,-6.7401715E-2,-2.4986666E-1,-5.930138E-1,4.6644688E-1,1.2718864E-1,-1.29395E-1,-5.3398466E-1,4.773706E-1,2.582957E-1,6.4169216E-1,1.0003178E0,-3.2333013E-2,-6.126852E-2,-4.9743243E-2,2.18494E-2,-2.7552277E-2,-6.7001395E-3,-2.8195834E-2,-2.0844543E-2,-5.1079124E-2,3.476876E-2,-4.9619763E-3,8.451308E-3,-2.1085257E-2,-1.0231326E-2,-3.7305146E-2,-8.799345E-3,2.064632E-2,4.7220953E-2,2.7568138E-3,1.098145E-2,3.3313308E-3,-1.0603641E-2,-3.1978387E-2,-9.529402E-3,3.8249973E-2,2.2108452E-2,8.978715E-3,2.046909E-2,3.265237E-2,-1.2554902E-2,3.6252523E-4,5.1897116E-2],"categories":[],"categories_nodes":[],"categories_segments":[],"categories_sizes":[],"default_left":[0,0,0,0,0,0,0,0,0,0,0,0,0,0,0,0,0,0,0,0,0,0,0,0,0,0,0,0,0,0,0,0,0,0,0,0,0,0,0,0,0,0,0,0,0,0,0,0,0,0,0,0,0,0,0,0,0,0,0,0,0,0,0],"id":19,"left_children":[1,3,5,7,9,11,13,15,17,19,21,23,25,27,29,31,33,35,37,39,41,43,45,47,49,51,53,55,57,59,61,-1,-1,-1,-1,-1,-1,-1,-1,-1,-1,-1,-1,-1,-1,-1,-1,-1,-1,-1,-1,-1,-1,-1,-1,-1,-1,-1,-1,-1,-1,-1,-1],"loss_changes":[1.6941964E3,3.9940076E2,4.0663007E2,5.952234E1,1.2485777E2,1.5772527E2,8.802185E1,1.6845093E1,2.2464111E1,7.369098E1,3.9620667E1,1.0058226E2,3.423794E1,3.5977234E1,2.3841248E1,1.05251465E1,3.8864746E0,1.4225521E1,1.2396912E1,2.4319073E1,3.5362297E1,2.898465E1,2.3465637E1,2.4705948E1,5.1292915E1,1.5185637E1,9.597191E0,2.0028778E1,1.4178001E1,1.0232117E1,8.698257E0,0E0,0E0,0E0,0E0,0E0,0E0,0E0,0E0,0E0,0E0,0E0,0E0,0E0,0E0,0E0,0E0,0E0,0E0,0E0,0E0,0E0,0E0,0E0,0E0,0E0,0E0,0E0,0E0,0E0,0E0,0E0,0E0],"parents":[2147483647,0,0,1,1,2,2,3,3,4,4,5,5,6,6,7,7,8,8,9,9,10,10,11,11,12,12,13,13,14,14,15,15,16,16,17,17,18,18,19,19,20,20,21,21,22,22,23,23,24,24,25,25,26,26,27,27,28,28,29,29,30,30],"right_children":[2,4,6,8,10,12,14,16,18,20,22,24,26,28,30,32,34,36,38,40,42,44,46,48,50,52,54,56,58,60,62,-1,-1,-1,-1,-1,-1,-1,-1,-1,-1,-1,-1,-1,-1,-1,-1,-1,-1,-1,-1,-1,-1,-1,-1,-1,-1,-1,-1,-1,-1,-1,-1],"split_conditions":[-6.446904E0,-1.24224686E2,1.2269863E2,-2.3752893E2,3.6E1,1.18E2,2.0764626E2,1.28E2,-8E0,-5.06E2,3.9E2,-1.91E2,4.22E2,-5.6E1,3.6732324E2,5.54E2,1.25525875E1,-3.6986952E0,-1.6016533E2,-2E-1,9.927129E0,-1.3092839E2,5.89806E-17,1.1785502E1,5.5918232E1,-6.060606E-3,1.0134903E-17,-3.96E2,3.3248181E0,2.04E2,-8.4457445E0,-3.2333013E-2,-6.126852E-2,-4.9743243E-2,2.18494E-2,-2.7552277E-2,-6.7001395E-3,-2.8195834E-2,-2.0844543E-2,-5.1079124E-2,3.476876E-2,-4.9619763E-3,8.451308E-3,-2.1085257E-2,-1.0231326E-2,-3.7305146E-2,-8.799345E-3,2.064632E-2,4.7220953E-2,2.7568138E-3,1.098145E-2,3.3313308E-3,-1.0603641E-2,-3.1978387E-2,-9.529402E-3,3.8249973E-2,2.2108452E-2,8.978715E-3,2.046909E-2,3.265237E-2,-1.2554902E-2,3.6252523E-4,5.1897116E-2],"split_indices":[12,12,4,4,1,1,12,3,1,1,1,1,1,1,4,1,30,20,12,11,28,4,6,26,12,6,11,1,42,1,30,0,0,0,0,0,0,0,0,0,0,0,0,0,0,0,0,0,0,0,0,0,0,0,0,0,0,0,0,0,0,0,0],"split_type":[0,0,0,0,0,0,0,0,0,0,0,0,0,0,0,0,0,0,0,0,0,0,0,0,0,0,0,0,0,0,0,0,0,0,0,0,0,0,0,0,0,0,0,0,0,0,0,0,0,0,0,0,0,0,0,0,0,0,0,0,0,0,0],"sum_hessian":[2.7180291E4,1.2837777E4,1.4342514E4,3.8596003E3,8.978177E3,9.894867E3,4.4476455E3,1.0574717E3,2.8021287E3,4.861551E3,4.116626E3,8.691284E3,1.2035834E3,3.2246814E3,1.2229642E3,8.297838E2,2.2768793E2,4.1956445E2,2.3825642E3,1.6600743E2,4.6955435E3,3.7465684E3,3.700573E2,9.853326E2,7.7059517E3,9.342319E2,2.693515E2,2.02249E3,1.2021913E3,9.881645E2,2.3479974E2,7.9617017E2,3.3613636E1,2.2639438E2,1.2935493E0,1.11376915E2,3.0818753E2,1.3163171E3,1.0662471E3,7.7935743E0,1.5821385E2,4.1391597E3,5.563835E2,7.7860645E2,2.967962E3,2.699359E2,1.0012139E2,8.879755E2,9.7357086E1,4.3320366E3,3.373915E3,2.7684415E2,6.5738776E2,2.051278E2,6.422369E1,2.1796257E2,1.8045275E3,7.922503E2,4.0994104E2,9.761299E2,1.2034641E1,8.711703E0,2.2608804E2],"tree_param":{"num_deleted":"0","num_feature":"66","num_nodes":"63","size_leaf_vector":"1"}},{"base_weights":[-2.3829131E-4,2.2074857E-1,-2.1805215E-1,1.4125435E-1,4.011028E-1,-3.818101E-1,-1.3944356E-1,6.658192E-2,2.346631E-1,7.0735997E-1,3.4874073E-1,-3.1597817E-1,-5.9295994E-1,-1.0593708E-1,-3.0729815E-1,2.759978E-1,3.497732E-2,3.1071877E-1,9.447843E-2,5.487556E-1,8.821149E-1,3.0088133E-1,6.016893E-1,-7.5209516E-1,-2.833668E-1,-6.456227E-1,-2.9617628E-1,-4.0743995E-1,-8.44503E-2,-3.7479958E-1,-1.2002589E-1,8.744267E-3,3.1867526E-2,6.5356924E-4,1.5078554E-2,1.4074447E-2,2.6140112E-2,1.1210421E-3,1.174678E-2,1.0886363E-2,3.1982843E-2,4.5559775E-2,3.7890577E-3,1.43905645E-2,4.3665394E-2,1.2241238E-2,3.3924453E-2,-3.8504004E-2,3.052014E-2,-2.7645698E-2,-1.2413729E-2,-2.8425986E-2,-3.928508E-2,-1.8677738E-2,2.6899368E-2,-2.2863545E-2,-0E0,-9.078368E-3,-2.1337855E-3,-1.0148671E-2,-2.185007E-2,-2.3094528E-4,-1.9079592E-2],"categories":[],"categories_nodes":[],"categories_segments":[],"categories_sizes":[],"default_left":[0,0,0,0,0,0,0,0,0,0,0,0,0,0,0,0,0,0,0,0,0,0,0,0,0,0,0,0,0,0,0,0,0,0,0,0,0,0,0,0,0,0,0,0,0,0,0,0,0,0,0,0,0,0,0,0,0,0,0,0,0,0,0],"id":20,"left_children":[1,3,5,7,9,11,13,15,17,19,21,23,25,27,29,31,33,35,37,39,41,43,45,47,49,51,53,55,57,59,61,-1,-1,-1,-1,-1,-1,-1,-1,-1,-1,-1,-1,-1,-1,-1,-1,-1,-1,-1,-1,-1,-1,-1,-1,-1,-1,-1,-1,-1,-1,-1,-1],"loss_changes":[1.3057162E3,1.9293903E2,1.7575812E2,6.5154816E1,6.569098E1,6.1300537E1,5.185257E1,3.4354492E1,4.419644E1,1.6005005E1,4.233316E1,4.7749237E1,1.61474E1,4.9788902E1,1.931337E1,2.4685211E1,2.6343447E1,1.6452332E1,1.47677145E1,9.329414E0,6.4812317E0,2.1790924E1,1.5051086E1,6.227768E0,2.954329E1,9.049988E0,1.05496025E1,1.0416618E1,2.9130936E1,1.1899597E1,1.2294851E1,0E0,0E0,0E0,0E0,0E0,0E0,0E0,0E0,0E0,0E0,0E0,0E0,0E0,0E0,0E0,0E0,0E0,0E0,0E0,0E0,0E0,0E0,0E0,0E0,0E0,0E0,0E0,0E0,0E0,0E0,0E0,0E0],"parents":[2147483647,0,0,1,1,2,2,3,3,4,4,5,5,6,6,7,7,8,8,9,9,10,10,11,11,12,12,13,13,14,14,15,15,16,16,17,17,18,18,19,19,20,20,21,21,22,22,23,23,24,24,25,25,26,26,27,27,28,28,29,29,30,30],"right_children":[2,4,6,8,10,12,14,16,18,20,22,24,26,28,30,32,34,36,38,40,42,44,46,48,50,52,54,56,58,60,62,-1,-1,-1,-1,-1,-1,-1,-1,-1,-1,-1,-1,-1,-1,-1,-1,-1,-1,-1,-1,-1,-1,-1,-1,-1,-1,-1,-1,-1,-1,-1,-1],"split_conditions":[-1E0,2.9119995E0,-2.6891098E0,1.214919E0,-3.27E2,2.11E2,1.79E2,-2.11E2,-4.1E1,7.289002E0,9.6E1,-1.3E1,1E0,-1.5E1,1E0,5.3808184E0,1.3E1,9.6E1,2.946919E0,-4.4956303E0,6.6638536E0,4.6E1,0E0,1.091182E1,-1.7E1,4.98E2,1.1318088E1,7.529573E0,-2.9553163E0,-5.0674517E-17,9.125148E-1,8.744267E-3,3.1867526E-2,6.5356924E-4,1.5078554E-2,1.4074447E-2,2.6140112E-2,1.1210421E-3,1.174678E-2,1.0886363E-2,3.1982843E-2,4.5559775E-2,3.7890577E-3,1.43905645E-2,4.3665394E-2,1.2241238E-2,3.3924453E-2,-3.8504004E-2,3.052014E-2,-2.7645698E-2,-1.2413729E-2,-2.8425986E-2,-3.928508E-2,-1.8677738E-2,2.6899368E-2,-2.2863545E-2,-0E0,-9.078368E-3,-2.1337855E-3,-1.0148671E-2,-2.185007E-2,-2.3094528E-4,-1.9079592E-2],"split_indices":[1,31,31,30,1,1,1,1,1,30,3,64,65,61,60,19,61,3,47,21,58,61,60,30,61,1,30,30,37,11,58,0,0,0,0,0,0,0,0,0,0,0,0,0,0,0,0,0,0,0,0,0,0,0,0,0,0,0,0,0,0,0,0],"split_type":[0,0,0,0,0,0,0,0,0,0,0,0,0,0,0,0,0,0,0,0,0,0,0,0,0,0,0,0,0,0,0,0,0,0,0,0,0,0,0,0,0,0,0,0,0,0,0,0,0,0,0,0,0,0,0,0,0,0,0,0,0,0,0],"sum_hessian":[2.7124697E4,1.3464043E4,1.3660653E4,9.346674E3,4.117369E3,4.4290005E3,9.231653E3,5.195829E3,4.1508447E3,5.99073E2,3.5182961E3,3.378597E3,1.0504033E3,7.697363E3,1.5342904E3,6.7989124E2,4.515938E3,2.6896658E3,1.4611788E3,3.1651877E2,2.8255426E2,2.960699E3,5.575972E2,2.3331462E2,3.1452822E3,8.908197E2,1.5958366E2,5.1056003E2,7.1868027E3,1.1266569E3,4.076336E2,5.3261694E2,1.4727434E2,4.1743564E3,3.4158157E2,2.3663308E3,3.233348E2,9.669725E2,4.9420636E2,6.915986E1,2.4735892E2,2.7247336E2,1.0080891E1,2.8962473E3,6.445172E1,9.971989E1,4.5787735E2,2.3077658E2,2.5380447E0,3.6028534E2,2.784997E3,5.782881E2,3.1253162E2,1.4665202E2,1.2931632E1,4.549581E2,5.560191E1,2.159856E3,5.026947E3,3.010121E2,8.256447E2,2.8381152E2,1.23822105E2],"tree_param":{"num_deleted":"0","num_feature":"66","num_nodes":"63","size_leaf_vector":"1"}},{"base_weights":[1.764343E-3,-1.9129118E-1,2.737364E-1,-4.9158207E-1,-9.292136E-2,2.0035426E-1,5.8632445E-1,-7.341163E-1,-4.2663795E-1,2.1573309E-2,-2.0280318E-1,3.348102E-1,1.0660497E-1,4.9818927E-1,7.9480857E-1,-6.591059E-1,-1.0438774E0,-3.212939E-1,-5.2736497E-1,4.678071E-1,-1.2785073E-2,-1.7846702E-1,-5.208289E-1,6.8240714E-1,3.0421668E-1,1.4654367E-1,-2.0722368E-1,7.553772E-1,4.5569295E-1,7.214288E-1,1.0622443E0,-5.3064782E-2,-3.1065393E-2,1.844158E-2,-5.2878495E-2,-7.898457E-3,-2.0284308E-2,-3.054027E-2,-1.9504843E-2,1.601754E-2,3.517742E-2,-6.1367033E-3,1.8586675E-3,-1.0433136E-2,-8.9475577E-4,-3.8482334E-2,-1.8296305E-2,2.527072E-2,4.638963E-2,1.4401796E-2,3.145945E-2,5.03847E-3,1.1597122E-2,-1.4583701E-2,1.2140761E-2,2.1915577E-2,4.4595443E-2,2.0605007E-2,3.7648086E-2,3.83345E-2,1.7619615E-2,-4.205465E-3,5.3933747E-2],"categories":[],"categories_nodes":[],"categories_segments":[],"categories_sizes":[],"default_left":[0,0,0,0,0,0,0,0,0,0,0,0,0,0,0,0,0,0,0,0,0,0,0,0,0,0,0,0,0,0,0,0,0,0,0,0,0,0,0,0,0,0,0,0,0,0,0,0,0,0,0,0,0,0,0,0,0,0,0,0,0,0,0],"id":21,"left_children":[1,3,5,7,9,11,13,15,17,19,21,23,25,27,29,31,33,35,37,39,41,43,45,47,49,51,53,55,57,59,61,-1,-1,-1,-1,-1,-1,-1,-1,-1,-1,-1,-1,-1,-1,-1,-1,-1,-1,-1,-1,-1,-1,-1,-1,-1,-1,-1,-1,-1,-1,-1,-1],"loss_changes":[1.4153737E3,4.6559546E2,2.565102E2,6.083667E1,1.4944153E2,1.14188446E2,3.8556335E1,1.8190704E1,3.2329773E1,8.9232544E1,4.6746063E1,3.9286835E1,6.6993225E1,1.5906677E1,1.1417877E1,9.251007E0,3.5123596E0,2.0610168E1,1.7618103E1,1.4135872E1,2.968361E1,2.7280518E1,1.6178848E1,1.2422241E1,1.7731812E1,1.8475014E1,2.3005983E1,8.591171E0,1.6269287E1,7.9316406E0,2.6995087E0,0E0,0E0,0E0,0E0,0E0,0E0,0E0,0E0,0E0,0E0,0E0,0E0,0E0,0E0,0E0,0E0,0E0,0E0,0E0,0E0,0E0,0E0,0E0,0E0,0E0,0E0,0E0,0E0,0E0,0E0,0E0,0E0],"parents":[2147483647,0,0,1,1,2,2,3,3,4,4,5,5,6,6,7,7,8,8,9,9,10,10,11,11,12,12,13,13,14,14,15,15,16,16,17,17,18,18,19,19,20,20,21,21,22,22,23,23,24,24,25,25,26,26,27,27,28,28,29,29,30,30],"right_children":[2,4,6,8,10,12,14,16,18,20,22,24,26,28,30,32,34,36,38,40,42,44,46,48,50,52,54,56,58,60,62,-1,-1,-1,-1,-1,-1,-1,-1,-1,-1,-1,-1,-1,-1,-1,-1,-1,-1,-1,-1,-1,-1,-1,-1,-1,-1,-1,-1,-1,-1,-1,-1],"split_conditions":[2.1793121E1,-1.2201392E2,1.7186581E2,-2.4213466E2,1.8E1,-5.6E1,2.626272E2,5E0,6.3E1,-3.47E2,4.22E2,-4.62E2,1.5E2,-2.46E2,5E0,-4.3502167E2,-6.2E1,-2.01E2,-1.5373204E2,5.2393165E0,-5.1170364E1,6.8783083E0,-5.911644E0,5.5743804E0,5E0,9.0689964E1,1.076923E-2,-2.3500674E0,5E0,1.0527103E0,-1.7392935E-3,-5.3064782E-2,-3.1065393E-2,1.844158E-2,-5.2878495E-2,-7.898457E-3,-2.0284308E-2,-3.054027E-2,-1.9504843E-2,1.601754E-2,3.517742E-2,-6.1367033E-3,1.8586675E-3,-1.0433136E-2,-8.9475577E-4,-3.8482334E-2,-1.8296305E-2,2.527072E-2,4.638963E-2,1.4401796E-2,3.145945E-2,5.03847E-3,1.1597122E-2,-1.4583701E-2,1.2140761E-2,2.1915577E-2,4.4595443E-2,2.0605007E-2,3.7648086E-2,3.83345E-2,1.7619615E-2,-4.205465E-3,5.3933747E-2],"split_indices":[12,12,12,12,1,1,12,2,1,1,1,1,1,1,2,12,1,16,12,26,12,37,26,31,2,12,8,23,2,52,7,0,0,0,0,0,0,0,0,0,0,0,0,0,0,0,0,0,0,0,0,0,0,0,0,0,0,0,0,0,0,0,0],"split_type":[0,0,0,0,0,0,0,0,0,0,0,0,0,0,0,0,0,0,0,0,0,0,0,0,0,0,0,0,0,0,0,0,0,0,0,0,0,0,0,0,0,0,0,0,0,0,0,0,0,0,0,0,0,0,0,0,0,0,0,0,0,0,0],"sum_hessian":[2.695441E4,1.5764284E4,1.1190126E4,3.8886118E3,1.1875673E4,9.064204E3,2.1259214E3,8.1883246E2,3.0697793E3,5.815711E3,6.0599614E3,3.7221836E3,5.3420205E3,1.4969608E3,6.289607E2,6.6198065E2,1.5685182E2,1.5030334E3,1.5667457E3,4.150816E2,5.4006294E3,5.630943E3,4.2901883E2,2.991159E2,3.4230676E3,4.7396865E3,6.0233386E2,2.0956206E2,1.2873988E3,4.967363E2,1.3222438E2,5.431535E1,6.076653E2,1.1866024E0,1.5566522E2,5.1343585E2,9.8959766E2,9.7182764E2,5.9491815E2,2.5706833E2,1.5801329E2,1.68744E3,3.7131895E3,4.7388716E3,8.920711E2,1.62839E2,2.661798E2,1.757891E2,1.2332681E2,3.262803E3,1.6026477E2,3.0879028E3,1.6517838E3,5.076473E2,9.468653E1,6.456542E1,1.4499663E2,1.1251277E3,1.6227106E2,4.412677E2,5.5468605E1,1.7241831E0,1.305002E2],"tree_param":{"num_deleted":"0","num_feature":"66","num_nodes":"63","size_leaf_vector":"1"}},{"base_weights":[1.8786415E-3,-3.0173847E-1,1.6776772E-1,-5.9123284E-1,-2.2559276E-1,4.225831E-2,3.5212603E-1,-7.468219E-1,-5.2111256E-1,-1.9051215E-1,-4.2347202E-1,7.415552E-2,-2.9374593E-1,2.6508033E-1,5.791093E-1,-8.184074E-1,-4.0508416E-1,-4.439919E-1,-6.4098424E-1,-7.9200946E-2,-2.66538E-1,-4.826852E-1,-2.5500032E-1,4.226662E-1,4.6695005E-2,-3.2820207E-1,2.3801033E-1,3.6784774E-1,1.986271E-1,4.9340865E-1,8.2660997E-1,-9.708333E-3,-4.1809775E-2,5.2166205E-2,-2.2153962E-2,-2.0649021E-2,-4.544815E-2,-1.87705E-2,-3.437705E-2,1.3911955E-3,-6.9437474E-3,1.6115252E-2,-1.4409782E-2,-2.749343E-2,-1.6782766E-2,-1.5975427E-2,1.1799686E-2,8.218758E-3,2.5772927E-2,4.4953725E-3,-6.5972446E-3,7.2450037E-3,-1.8502217E-2,-1.7203303E-2,2.377592E-2,-1.6354531E-3,1.9559665E-2,1.4037955E-2,3.7613523E-3,2.8015075E-2,1.6405085E-2,4.1987695E-2,-1.6440412E-2],"categories":[],"categories_nodes":[],"categories_segments":[],"categories_sizes":[],"default_left":[0,0,0,0,0,0,0,0,0,0,0,0,0,0,0,0,0,0,0,0,0,0,0,0,0,0,0,0,0,0,0,0,0,0,0,0,0,0,0,0,0,0,0,0,0,0,0,0,0,0,0,0,0,0,0,0,0,0,0,0,0,0,0],"id":22,"left_children":[1,3,5,7,9,11,13,15,17,19,21,23,25,27,29,31,33,35,37,39,41,43,45,47,49,51,53,55,57,59,61,-1,-1,-1,-1,-1,-1,-1,-1,-1,-1,-1,-1,-1,-1,-1,-1,-1,-1,-1,-1,-1,-1,-1,-1,-1,-1,-1,-1,-1,-1,-1,-1],"loss_changes":[1.3551294E3,2.0933783E2,4.0254224E2,2.1072693E1,5.2118103E1,1.1096228E2,1.3899573E2,1.4517731E1,1.225177E1,5.407892E1,1.109996E1,9.043692E1,1.6532562E1,3.4670593E1,4.086792E1,5.339691E0,6.357683E0,1.1548355E1,6.2223663E0,1.6607384E1,4.8550415E1,7.988449E0,9.492773E0,1.6392456E1,6.768742E1,1.677459E1,7.7835903E0,1.8745087E1,3.1335983E1,1.5792816E1,7.9255676E0,0E0,0E0,0E0,0E0,0E0,0E0,0E0,0E0,0E0,0E0,0E0,0E0,0E0,0E0,0E0,0E0,0E0,0E0,0E0,0E0,0E0,0E0,0E0,0E0,0E0,0E0,0E0,0E0,0E0,0E0,0E0,0E0],"parents":[2147483647,0,0,1,1,2,2,3,3,4,4,5,5,6,6,7,7,8,8,9,9,10,10,11,11,12,12,13,13,14,14,15,15,16,16,17,17,18,18,19,19,20,20,21,21,22,22,23,23,24,24,25,25,26,26,27,27,28,28,29,29,30,30],"right_children":[2,4,6,8,10,12,14,16,18,20,22,24,26,28,30,32,34,36,38,40,42,44,46,48,50,52,54,56,58,60,62,-1,-1,-1,-1,-1,-1,-1,-1,-1,-1,-1,-1,-1,-1,-1,-1,-1,-1,-1,-1,-1,-1,-1,-1,-1,-1,-1,-1,-1,-1,-1,-1],"split_conditions":[-4.4973526E1,-1.9513698E2,8.026297E1,-2.8976108E2,1.91E2,1.74E2,1.9665025E2,2.7565413E0,9E-1,-1.5E0,3.076923E-3,-2.46E2,1E0,-8.6E1,3.0417572E2,-1.3E1,-1.5183202E1,4.59E2,-7.295005E0,-6.2E0,-2.46E2,1.8181818E-2,9.970998E0,-4.041992E0,4.9E0,-6.722689E-4,-3.3635247E0,-7.484353E0,1.6E0,4.1E0,7.7E1,-9.708333E-3,-4.1809775E-2,5.2166205E-2,-2.2153962E-2,-2.0649021E-2,-4.544815E-2,-1.87705E-2,-3.437705E-2,1.3911955E-3,-6.9437474E-3,1.6115252E-2,-1.4409782E-2,-2.749343E-2,-1.6782766E-2,-1.5975427E-2,1.1799686E-2,8.218758E-3,2.5772927E-2,4.4953725E-3,-6.5972446E-3,7.2450037E-3,-1.8502217E-2,-1.7203303E-2,2.377592E-2,-1.6354531E-3,1.9559665E-2,1.4037955E-2,3.7613523E-3,2.8015075E-2,1.6405085E-2,4.1987695E-2,-1.6440412E-2],"split_indices":[4,4,4,4,1,1,4,37,0,0,8,1,13,1,4,0,23,1,42,0,1,6,21,21,0,10,23,32,0,0,1,0,0,0,0,0,0,0,0,0,0,0,0,0,0,0,0,0,0,0,0,0,0,0,0,0,0,0,0,0,0,0,0],"split_type":[0,0,0,0,0,0,0,0,0,0,0,0,0,0,0,0,0,0,0,0,0,0,0,0,0,0,0,0,0,0,0,0,0,0,0,0,0,0,0,0,0,0,0,0,0,0,0,0,0,0,0,0,0,0,0,0,0,0,0,0,0,0,0],"sum_hessian":[2.6903494E4,9.505222E3,1.7398273E4,1.9778102E3,7.527411E3,1.0352298E4,7.045976E3,6.109975E2,1.3668127E3,6.395981E3,1.1314299E3,9.455732E3,8.965648E2,5.0947876E3,1.9511885E3,5.0378058E2,1.07216934E2,8.3508826E2,5.317245E2,2.5970042E3,3.798977E3,8.353639E2,2.960661E2,6.8931885E2,8.766414E3,8.425416E2,5.4023186E1,1.9983599E3,3.0964275E3,1.451859E3,4.9932953E2,1.4443645E1,4.8933694E2,1.9970243E0,1.0521991E2,7.8484576E2,5.024248E1,8.098304E1,4.5074142E2,9.2925336E2,1.6677506E3,1.3411328E2,3.6648638E3,5.710227E2,2.6434122E2,2.6217386E2,3.3892227E1,1.8320628E2,5.0611258E2,7.0597407E3,1.7066733E3,6.806713E1,7.744745E2,1.5403396E1,3.861979E1,1.0979754E2,1.8885623E3,1.8578221E3,1.2386053E3,1.0314713E3,4.203876E2,4.9406882E2,5.2607174E0],"tree_param":{"num_deleted":"0","num_feature":"66","num_nodes":"63","size_leaf_vector":"1"}},{"base_weights":[-8.979453E-4,-1.1799178E-1,1.6086218E-1,-2.1120939E-1,-1.8354584E-2,3.5213776E-2,2.3904271E-1,-5.651067E-1,-1.8495265E-1,-9.30174E-2,7.7190496E-2,-4.5272443E-4,2.3260462E-1,1.1308377E-1,3.192377E-1,-1.1003976E0,-5.237965E-1,-2.6792607E-1,-7.211962E-2,-2.235609E-2,-3.0358484E-1,3.1865498E-1,-2.9680852E-2,-1.0071691E-1,7.408565E-2,1.6088419E-1,5.454199E-1,2.3825347E-1,-1.16073955E-2,2.5411576E-1,5.7219326E-1,-4.2101224E-3,-5.7301786E-2,-2.0101493E-2,-3.513141E-2,-8.786982E-3,-2.3775721E-2,1.0014324E-3,-1.3640265E-2,-1.1074331E-2,1.1138282E-3,-2.8921202E-2,-1.2037283E-2,1.8820575E-2,3.3361055E-3,-3.8707263E-3,8.262399E-3,-2.420613E-3,-2.3241103E-2,1.03071695E-2,-2.7240075E-3,1.0071161E-2,-1.374837E-2,3.450952E-2,-1.0352499E-2,4.5856517E-2,1.1196545E-2,1.7025613E-3,-2.0612124E-2,2.214138E-2,7.7117006E-3,5.1706176E-2,2.706E-2],"categories":[],"categories_nodes":[],"categories_segments":[],"categories_sizes":[],"default_left":[0,0,0,0,0,0,0,0,0,0,0,0,0,0,0,0,0,0,0,0,0,0,0,0,0,0,0,0,0,0,0,0,0,0,0,0,0,0,0,0,0,0,0,0,0,0,0,0,0,0,0,0,0,0,0,0,0,0,0,0,0,0,0],"id":23,"left_children":[1,3,5,7,9,11,13,15,17,19,21,23,25,27,29,31,33,35,37,39,41,43,45,47,49,51,53,55,57,59,61,-1,-1,-1,-1,-1,-1,-1,-1,-1,-1,-1,-1,-1,-1,-1,-1,-1,-1,-1,-1,-1,-1,-1,-1,-1,-1,-1,-1,-1,-1,-1,-1],"loss_changes":[5.101123E2,1.4508002E2,1.1105118E2,7.4817566E1,5.3890476E1,3.0572128E1,7.0330505E1,1.1571548E1,7.0305786E1,6.306171E1,8.553766E1,2.7480463E1,1.4749546E1,4.2377388E1,6.9911224E1,1.58004E0,1.0906479E1,8.270969E1,5.8958107E1,2.8259495E1,1.8174599E1,1.47269745E1,2.1379827E1,2.9794674E1,3.582173E1,9.628706E0,1.3618179E1,1.2851883E1,2.4928284E1,6.3736084E1,1.1747253E1,0E0,0E0,0E0,0E0,0E0,0E0,0E0,0E0,0E0,0E0,0E0,0E0,0E0,0E0,0E0,0E0,0E0,0E0,0E0,0E0,0E0,0E0,0E0,0E0,0E0,0E0,0E0,0E0,0E0,0E0,0E0,0E0],"parents":[2147483647,0,0,1,1,2,2,3,3,4,4,5,5,6,6,7,7,8,8,9,9,10,10,11,11,12,12,13,13,14,14,15,15,16,16,17,17,18,18,19,19,20,20,21,21,22,22,23,23,24,24,25,25,26,26,27,27,28,28,29,29,30,30],"right_children":[2,4,6,8,10,12,14,16,18,20,22,24,26,28,30,32,34,36,38,40,42,44,46,48,50,52,54,56,58,60,62,-1,-1,-1,-1,-1,-1,-1,-1,-1,-1,-1,-1,-1,-1,-1,-1,-1,-1,-1,-1,-1,-1,-1,-1,-1,-1,-1,-1,-1,-1,-1,-1],"split_conditions":[7.0141464E-1,-1.1106945E0,3.8333964E-2,-1.7E1,4E0,8E0,9E0,-5.7E1,-1E1,-1E-1,1.4E0,2E0,4.2294965E0,-3.5E0,6.1546235E0,-9.651861E-3,4.6153846E-3,-9E-1,5.5E0,-4.2726593E0,-1.54E2,4.9459785E-3,5.3141E0,1.8E0,3.5E0,8.4848486E-2,1.1412121E1,-1.09483795E-2,3.6E0,1.2E0,-3.9E0,-4.2101224E-3,-5.7301786E-2,-2.0101493E-2,-3.513141E-2,-8.786982E-3,-2.3775721E-2,1.0014324E-3,-1.3640265E-2,-1.1074331E-2,1.1138282E-3,-2.8921202E-2,-1.2037283E-2,1.8820575E-2,3.3361055E-3,-3.8707263E-3,8.262399E-3,-2.420613E-3,-2.3241103E-2,1.03071695E-2,-2.7240075E-3,1.0071161E-2,-1.374837E-2,3.450952E-2,-1.0352499E-2,4.5856517E-2,1.1196545E-2,1.7025613E-3,-2.0612124E-2,2.214138E-2,7.7117006E-3,5.1706176E-2,2.706E-2],"split_indices":[31,25,25,61,16,59,16,61,16,0,0,16,47,0,31,10,8,0,0,31,16,10,21,0,0,6,48,10,0,0,0,0,0,0,0,0,0,0,0,0,0,0,0,0,0,0,0,0,0,0,0,0,0,0,0,0,0,0,0,0,0,0,0],"split_type":[0,0,0,0,0,0,0,0,0,0,0,0,0,0,0,0,0,0,0,0,0,0,0,0,0,0,0,0,0,0,0,0,0,0,0,0,0,0,0,0,0,0,0,0,0,0,0,0,0,0,0,0,0,0,0,0,0,0,0,0,0,0,0],"sum_hessian":[2.6929709E4,1.5622145E4,1.1307565E4,8.069984E3,7.5521606E3,4.3381714E3,6.9693936E3,5.557028E2,7.5142812E3,4.239958E3,3.3122026E3,3.6746848E3,6.634867E2,2.7125544E3,4.2568394E3,3.7802715E1,5.179001E2,4.328785E3,3.1854963E3,3.1758135E3,1.0641445E3,1.01588104E3,2.2963215E3,1.5673617E3,2.107323E3,5.412305E2,1.2225616E2,1.3536254E3,1.358929E3,3.387219E3,8.696202E2,1.841232E0,3.5961483E1,3.1037366E2,2.0752641E2,2.9992139E3,1.3295712E3,2.1833677E3,1.00212866E3,5.8117114E2,2.5946423E3,1.9620566E2,8.6793884E2,8.256962E2,1.9018481E2,1.845513E3,4.5080865E2,1.3717184E3,1.9564331E2,1.0396301E3,1.0676929E3,4.9587585E2,4.5354668E1,1.02710884E2,1.954527E1,2.6521338E1,1.327104E3,1.2204995E3,1.3842955E2,1.170776E3,2.2164429E3,5.2440685E1,8.171795E2],"tree_param":{"num_deleted":"0","num_feature":"66","num_nodes":"63","size_leaf_vector":"1"}},{"base_weights":[-5.399432E-4,-1.64489E-1,2.5138482E-1,-4.0885347E-1,-7.611639E-2,1.899017E-1,5.2353346E-1,-6.0370594E-1,-3.3809036E-1,2.0388868E-1,-1.03988625E-1,3.954126E-1,1.5036389E-1,4.6681467E-1,8.038564E-1,-5.441068E-1,-8.58685E-1,-2.8772104E-1,-4.7511476E-1,6.8263435E-1,1.4679295E-1,-5.0147187E-2,-2.1541433E-1,3.3308777E-1,6.781249E-1,1.9821271E-1,1.0586777E-2,5.3833115E-1,3.2763284E-1,4.3807378E-1,8.8120663E-1,-4.1089203E-2,-2.5460625E-2,-4.3639835E-2,3.1383656E-2,-4.5331027E-3,-1.7644573E-2,-2.807118E-2,-1.6616428E-2,3.599504E-2,-5.54582E-2,2.5774222E-3,1.7255332E-2,-1.470215E-3,-2.4332613E-2,-1.6224986E-2,-7.4418234E-3,2.9596483E-2,1.4890328E-2,3.737865E-2,4.5626867E-3,1.0813903E-2,-1.0987005E-2,1.0098367E-2,-2.5126971E-3,2.4571745E-2,4.0577102E-2,1.7640447E-2,-4.087066E-2,-6.252871E-3,3.2593127E-2,4.566081E-2,6.2333453E-3],"categories":[],"categories_nodes":[],"categories_segments":[],"categories_sizes":[],"default_left":[0,0,0,0,0,0,0,0,0,0,0,0,0,0,0,0,0,0,0,0,0,0,0,0,0,0,0,0,0,0,0,0,0,0,0,0,0,0,0,0,0,0,0,0,0,0,0,0,0,0,0,0,0,0,0,0,0,0,0,0,0,0,0],"id":24,"left_children":[1,3,5,7,9,11,13,15,17,19,21,23,25,27,29,31,33,35,37,39,41,43,45,47,49,51,53,55,57,59,61,-1,-1,-1,-1,-1,-1,-1,-1,-1,-1,-1,-1,-1,-1,-1,-1,-1,-1,-1,-1,-1,-1,-1,-1,-1,-1,-1,-1,-1,-1,-1,-1],"loss_changes":[1.1097852E3,3.5142734E2,1.7706946E2,5.9302795E1,9.33169E1,7.010904E1,3.0520508E1,1.6867554E1,2.1690857E1,2.9402306E1,6.520056E1,2.422461E1,4.8466064E1,1.5916931E1,8.724625E0,8.509094E0,5.099045E0,2.9765106E1,1.0211121E1,8.429752E0,1.8235613E1,6.633415E1,2.5626892E1,1.0181686E1,1.0054977E1,4.0823273E1,2.1571981E1,1.3202515E1,1.6234623E1,7.265626E0,6.2828674E0,0E0,0E0,0E0,0E0,0E0,0E0,0E0,0E0,0E0,0E0,0E0,0E0,0E0,0E0,0E0,0E0,0E0,0E0,0E0,0E0,0E0,0E0,0E0,0E0,0E0,0E0,0E0,0E0,0E0,0E0,0E0,0E0],