{"learner":{"attributes":{"scikit_learn":"{\"_estimator_type\": \"classifier\"}"},"feature_names":[],"feature_types":[],"gradient_booster":{"model":{"gbtree_model_param":{"num_parallel_tree":"1","num_trees":"25"},"iteration_indptr":[0,1,2,3,4,5,6,7,8,9,10,11,12,13,14,15,16,17,18,19,20,21,22,23,24,25],"tree_info":[0,0,0,0,0,0,0,0,0,0,0,0,0,0,0,0,0,0,0,0,0,0,0,0,0],"trees":[{"base_weights":[1.0138306E-2,-5.725225E-1,5.2197397E-1,-1.0870421E0,-3.330449E-1,2.253719E-1,9.2345077E-1,-1.3897464E0,-9.2439806E-1,1.3667725E-2,-4.5939413E-1,7.1411204E-1,1.2499051E-1,7.356698E-1,1.3080041E0,-1.4218284E0,-4.2651597E-1,-1.318182E0,-8.2498384E-1,-7.2559494E-1,7.935269E-2,-6.331368E-1,-2.6466092E-1,1.2559922E0,5.486028E-1,1.858158E-1,-5.5815905E-1,1.0934857E0,6.504646E-1,1.2008494E0,1.6873673E0,7.7190967E-3,-7.1907885E-2,-5.8154654E-2,9.561223E-3,-7.445302E-2,-3.690612E-2,1.8375745E-2,-4.251311E-2,5.912955E-3,-5.3738832E-2,2.658208E-2,8.927031E-5,-2.6501043E-2,-5.2716475E-2,-1.5755743E-2,3.1560272E-2,-1.2356821E-2,6.762899E-2,1.1477628E-2,3.936539E-2,1.895127E-2,-9.838556E-4,-3.349712E-2,3.09505E-2,-2.899244E-3,5.737981E-2,-3.940445E-2,3.351724E-2,4.881627E-2,7.036417E-2,8.6570136E-2,-0E0],"categories":[],"categories_nodes":[],"categories_segments":[],"categories_sizes":[],"default_left":[0,0,0,0,0,0,0,0,0,0,0,0,0,0,0,0,0,0,0,0,0,0,0,0,0,0,0,0,0,0,0,0,0,0,0,0,0,0,0,0,0,0,0,0,0,0,0,0,0,0,0,0,0,0,0,0,0,0,0,0,0,0,0],"id":0,"left_children":[1,3,5,7,9,11,13,15,17,19,21,23,25,27,29,31,33,35,37,39,41,43,45,47,49,51,53,55,57,59,61,-1,-1,-1,-1,-1,-1,-1,-1,-1,-1,-1,-1,-1,-1,-1,-1,-1,-1,-1,-1,-1,-1,-1,-1,-1,-1,-1,-1,-1,-1,-1,-1],"loss_changes":[1.1225398E3,2.1637616E2,2.382992E2,2.5979187E1,5.2736984E1,5.6439766E1,6.0282593E1,5.172577E0,1.3045166E1,1.5628006E1,2.9573868E1,1.673056E1,3.990324E1,1.6621063E1,8.975098E0,5.1439514E0,3.8458018E0,5.814438E0,9.267975E0,7.9571724E0,1.0356027E1,1.9477478E1,1.9048653E1,6.9777603E0,1.1312206E1,3.503012E1,1.07489395E1,6.951004E0,1.3857193E1,8.595581E0,4.3101654E0,0E0,0E0,0E0,0E0,0E0,0E0,0E0,0E0,0E0,0E0,0E0,0E0,0E0,0E0,0E0,0E0,0E0,0E0,0E0,0E0,0E0,0E0,0E0,0E0,0E0,0E0,0E0,0E0,0E0,0E0,0E0,0E0],"parents":[2147483647,0,0,1,1,2,2,3,3,4,4,5,5,6,6,7,7,8,8,9,9,10,10,11,11,12,12,13,13,14,14,15,15,16,16,17,17,18,18,19,19,20,20,21,21,22,22,23,23,24,24,25,25,26,26,27,27,28,28,29,29,30,30],"right_children":[2,4,6,8,10,12,14,16,18,20,22,24,26,28,30,32,34,36,38,40,42,44,46,48,50,52,54,56,58,60,62,-1,-1,-1,-1,-1,-1,-1,-1,-1,-1,-1,-1,-1,-1,-1,-1,-1,-1,-1,-1,-1,-1,-1,-1,-1,-1,-1,-1,-1,-1,-1,-1],"split_conditions":[-1.1077795E1,-1.516179E2,1.0297285E2,-2.629804E2,2E0,-7.8E1,2.2000082E2,-2.4849407E1,-7.769106E0,-8.2291565E0,-4.781214E1,-2.59E2,1E2,-1.2E2,3.7543408E2,-2E2,1.0082058E-2,2E-1,-8E1,-1.4505051E1,-5.9063626E-3,1E2,1.2695401E1,0E0,3.2966498E-1,2.7E1,5.591731E0,-4.934994E0,-1.4111106E1,2.0687497E0,3.153846E-2,7.7190967E-3,-7.1907885E-2,-5.8154654E-2,9.561223E-3,-7.445302E-2,-3.690612E-2,1.8375745E-2,-4.251311E-2,5.912955E-3,-5.3738832E-2,2.658208E-2,8.927031E-5,-2.6501043E-2,-5.2716475E-2,-1.5755743E-2,3.1560272E-2,-1.2356821E-2,6.762899E-2,1.1477628E-2,3.936539E-2,1.895127E-2,-9.838556E-4,-3.349712E-2,3.09505E-2,-2.899244E-3,5.737981E-2,-3.940445E-2,3.351724E-2,4.881627E-2,7.036417E-2,8.6570136E-2,-0E0],"split_indices":[4,4,4,4,1,1,4,12,32,39,12,1,1,1,4,1,57,11,1,30,10,1,30,60,24,16,43,36,44,41,8,0,0,0,0,0,0,0,0,0,0,0,0,0,0,0,0,0,0,0,0,0,0,0,0,0,0,0,0,0,0,0,0],"split_type":[0,0,0,0,0,0,0,0,0,0,0,0,0,0,0,0,0,0,0,0,0,0,0,0,0,0,0,0,0,0,0,0,0,0,0,0,0,0,0,0,0,0,0,0,0,0,0,0,0,0,0,0,0,0,0,0,0,0,0,0,0,0,0],"sum_hessian":[3.762065E3,1.7591635E3,2.0029015E3,5.574726E2,1.2016909E3,1.1529434E3,8.499582E2,1.9199055E2,3.6548203E2,3.2098422E2,8.8070667E2,1.952404E2,9.577029E2,5.732218E2,2.767364E2,1.8524089E2,6.749668E0,7.0996506E1,2.944855E2,2.5248758E1,2.9573544E2,4.6397717E2,4.167295E2,4.3997837E1,1.5124257E2,8.802067E2,7.7496185E1,1.07744705E2,4.654771E2,2.1923921E2,5.7497173E1,1.7499139E0,1.8349098E2,2.7498648E0,3.9998033E0,5.3497368E1,1.749914E1,5.749717E0,2.887358E2,7.4996314E0,1.7749126E1,4.224792E1,2.5348753E2,3.7473157E2,8.924561E1,3.9523056E2,2.1498943E1,2.499877E0,4.149796E1,6.5746765E1,8.54958E1,4.534777E2,4.26729E2,7.12465E1,6.2496924E0,4.7497663E0,1.02994934E2,5.749717E0,4.597274E2,1.0799469E2,1.1124453E2,5.5997246E1,1.4999262E0],"tree_param":{"num_deleted":"0","num_feature":"66","num_nodes":"63","size_leaf_vector":"1"}},{"base_weights":[-5.452429E-3,-5.6587297E-1,4.7424805E-1,-1.0184944E0,-3.526085E-1,1.5241471E-1,8.0902207E-1,-1.3480566E0,-8.4092724E-1,-5.590089E-1,-2.3730467E-1,2.079163E-2,3.6433503E-1,6.9322425E-1,1.3405288E0,-1.4466598E0,-9.1964805E-1,-5.918836E-1,-9.8444325E-1,-1.5823795E-1,-6.469296E-1,-2.749001E-1,3.9726493E-1,-7.1586746E-1,5.3335402E-2,2.1928328E-1,8.5222787E-1,-3.657783E-1,7.119203E-1,1.1952249E0,1.6081359E0,-7.369523E-2,-1.5790321E-2,-5.1381018E-2,3.4234505E-2,-4.5767326E-2,-1.4573783E-2,-5.0988015E-2,1.9923788E-3,-3.2024574E-2,5.5145747E-3,-5.198747E-2,-2.7332813E-2,-3.8177002E-2,-1.1762692E-2,-2.1565233E-4,3.9949995E-2,-5.300655E-2,1.7724177E-2,1.2035862E-2,-2.2269387E-3,1.972938E-2,-3.9336644E-3,-2.6664693E-2,4.494592E-2,-3.2841966E-2,4.7985774E-2,-2.6979936E-2,3.620579E-2,3.5143666E-2,6.4278506E-2,3.613733E-2,8.287736E-2],"categories":[],"categories_nodes":[],"categories_segments":[],"categories_sizes":[],"default_left":[0,0,0,0,0,0,0,0,0,0,0,0,0,0,0,0,0,0,0,0,0,0,0,0,0,0,0,0,0,0,0,0,0,0,0,0,0,0,0,0,0,0,0,0,0,0,0,0,0,0,0,0,0,0,0,0,0,0,0,0,0,0,0],"id":1,"left_children":[1,3,5,7,9,11,13,15,17,19,21,23,25,27,29,31,33,35,37,39,41,43,45,47,49,51,53,55,57,59,61,-1,-1,-1,-1,-1,-1,-1,-1,-1,-1,-1,-1,-1,-1,-1,-1,-1,-1,-1,-1,-1,-1,-1,-1,-1,-1,-1,-1,-1,-1,-1,-1],"loss_changes":[1.01096735E3,1.6692548E2,2.1807492E2,3.1114685E1,2.7885132E1,2.8806995E1,5.996521E1,6.56073E0,1.2248413E1,1.4690475E1,1.8216759E1,1.5301565E1,2.772802E1,1.6477661E1,4.6552734E0,4.114868E0,7.4821815E0,1.2790764E1,8.414902E0,1.0155925E1,1.2887375E1,1.3625824E1,6.9783134E0,1.039278E1,1.12808E1,1.6083725E1,6.3534927E0,6.289517E0,1.2674316E1,4.1657715E0,1.1418457E0,0E0,0E0,0E0,0E0,0E0,0E0,0E0,0E0,0E0,0E0,0E0,0E0,0E0,0E0,0E0,0E0,0E0,0E0,0E0,0E0,0E0,0E0,0E0,0E0,0E0,0E0,0E0,0E0,0E0,0E0,0E0,0E0],"parents":[2147483647,0,0,1,1,2,2,3,3,4,4,5,5,6,6,7,7,8,8,9,9,10,10,11,11,12,12,13,13,14,14,15,15,16,16,17,17,18,18,19,19,20,20,21,21,22,22,23,23,24,24,25,25,26,26,27,27,28,28,29,29,30,30],"right_children":[2,4,6,8,10,12,14,16,18,20,22,24,26,28,30,32,34,36,38,40,42,44,46,48,50,52,54,56,58,60,62,-1,-1,-1,-1,-1,-1,-1,-1,-1,-1,-1,-1,-1,-1,-1,-1,-1,-1,-1,-1,-1,-1,-1,-1,-1,-1,-1,-1,-1,-1,-1,-1],"split_conditions":[-1.3598483E1,-1.516179E2,8.428732E1,-2.629804E2,-2.6938014E0,1.5921491E0,2.6501865E2,1.3615267E-2,0E0,-2.27E2,1.1339297E1,-1.6063517E1,3.2082875E0,-1.1701115E1,3.7543408E2,6.1454363E0,4.642616E-4,-3.4460766E0,1.0348252E1,-3.4618216E0,-8.204019E0,-2.435942E0,-1.7110466E0,3E0,-1.7377739E-16,5.4E1,-1.1077795E1,5.5467243E0,-8.012075E0,-2.1139412E0,-6.259737E0,-7.369523E-2,-1.5790321E-2,-5.1381018E-2,3.4234505E-2,-4.5767326E-2,-1.4573783E-2,-5.0988015E-2,1.9923788E-3,-3.2024574E-2,5.5145747E-3,-5.198747E-2,-2.7332813E-2,-3.8177002E-2,-1.1762692E-2,-2.1565233E-4,3.9949995E-2,-5.300655E-2,1.7724177E-2,1.2035862E-2,-2.2269387E-3,1.972938E-2,-3.9336644E-3,-2.6664693E-2,4.494592E-2,-3.2841966E-2,4.7985774E-2,-2.6979936E-2,3.620579E-2,3.5143666E-2,6.4278506E-2,3.613733E-2,8.287736E-2],"split_indices":[4,4,4,4,34,44,4,25,9,16,30,30,17,25,4,44,7,37,30,21,34,54,21,15,9,16,4,47,36,50,30,0,0,0,0,0,0,0,0,0,0,0,0,0,0,0,0,0,0,0,0,0,0,0,0,0,0,0,0,0,0,0,0],"split_type":[0,0,0,0,0,0,0,0,0,0,0,0,0,0,0,0,0,0,0,0,0,0,0,0,0,0,0,0,0,0,0,0,0,0,0,0,0,0,0,0,0,0,0,0,0,0,0,0,0,0,0,0,0,0,0,0,0,0,0,0,0,0,0],"sum_hessian":[3.758531E3,1.7334358E3,2.0250952E3,5.538111E2,1.1796248E3,1.0333976E3,9.916977E2,1.9140715E2,3.6240393E2,4.2110583E2,7.585189E2,6.384365E2,3.9496103E2,8.1633716E2,1.7536057E2,1.5347327E2,3.7933887E1,1.3461943E2,2.277845E2,7.646966E1,3.4463617E2,7.167774E2,4.1741516E1,2.5992897E1,6.124436E2,3.0572318E2,8.923785E1,1.3747104E1,8.0259E2,1.1743587E2,5.7924698E1,1.4948018E2,3.993085E0,3.5937115E1,1.9967711E0,6.3676327E1,7.09431E1,2.2029103E2,7.4934697E0,2.6988348E1,4.9481308E1,6.797571E1,2.7666046E2,5.2232433E1,6.64545E2,2.124508E1,2.0496437E1,1.9745127E1,6.24777E0,2.099853E2,4.024583E2,1.9248495E2,1.1323822E2,2.4995992E0,8.673825E1,1.1747424E1,1.9996794E0,7.248915E0,7.953411E2,1.9740957E1,9.769491E1,3.9947412E0,5.3929955E1],"tree_param":{"num_deleted":"0","num_feature":"66","num_nodes":"63","size_leaf_vector":"1"}},{"base_weights":[5.524065E-3,-5.85895E-1,3.771469E-1,-9.6571726E-1,-3.8670507E-1,2.0374313E-1,9.1971856E-1,-1.2152491E0,-7.723745E-1,-1.4604253E-1,-5.473963E-1,-9.444039E-2,3.2854307E-1,7.8502893E-1,1.2824017E0,-1.4835582E0,-1.0828203E0,-4.1344985E-1,-9.4242704E-1,-8.7234014E-1,-4.690032E-2,-7.599375E-1,-4.058517E-1,-6.229653E-1,-9.3123065E-3,6.570461E-1,2.0611274E-1,8.504016E-1,-1.5455008E-1,1.3300513E0,2.2199951E-1,4.27962E-3,-7.727683E-2,-1.1421465E-2,-5.5895515E-2,-1.4334209E-2,-5.7616778E-2,-6.0942657E-2,-3.2882016E-2,-5.1753283E-2,-3.8927377E-3,1.5373052E-3,-4.186488E-2,3.024224E-2,-3.914358E-2,-5.9652347E-2,-1.7616944E-2,-1.2361496E-2,-4.6262126E-2,3.840807E-2,-2.1724259E-3,2.7227739E-2,5.0043266E-2,3.2975406E-3,1.9000767E-2,-2.6502684E-2,4.369731E-2,-2.0781688E-2,6.252256E-2,-6.89886E-4,6.7494474E-2,5.514818E-2,-2.3177868E-2],"categories":[],"categories_nodes":[],"categories_segments":[],"categories_sizes":[],"default_left":[0,0,0,0,0,0,0,0,0,0,0,0,0,0,0,0,0,0,0,0,0,0,0,0,0,0,0,0,0,0,0,0,0,0,0,0,0,0,0,0,0,0,0,0,0,0,0,0,0,0,0,0,0,0,0,0,0,0,0,0,0,0,0],"id":2,"left_children":[1,3,5,7,9,11,13,15,17,19,21,23,25,27,29,31,33,35,37,39,41,43,45,47,49,51,53,55,57,59,61,-1,-1,-1,-1,-1,-1,-1,-1,-1,-1,-1,-1,-1,-1,-1,-1,-1,-1,-1,-1,-1,-1,-1,-1,-1,-1,-1,-1,-1,-1,-1,-1],"loss_changes":[8.274022E2,1.093931E2,2.1722742E2,2.2931732E1,3.6772995E1,6.530853E1,2.6119751E1,5.805664E0,1.6812881E1,2.750822E1,1.6779434E1,2.3232927E1,4.9513016E1,2.543303E1,7.115799E0,6.9276276E0,4.0608063E0,8.263754E0,1.4107666E1,5.7458E0,2.0907658E1,7.602005E0,1.3987755E1,7.7937965E0,1.1830699E1,1.2259628E1,2.1929356E1,1.2989044E1,1.0512501E1,3.96492E0,5.2438126E0,0E0,0E0,0E0,0E0,0E0,0E0,0E0,0E0,0E0,0E0,0E0,0E0,0E0,0E0,0E0,0E0,0E0,0E0,0E0,0E0,0E0,0E0,0E0,0E0,0E0,0E0,0E0,0E0,0E0,0E0,0E0,0E0],"parents":[2147483647,0,0,1,1,2,2,3,3,4,4,5,5,6,6,7,7,8,8,9,9,10,10,11,11,12,12,13,13,14,14,15,15,16,16,17,17,18,18,19,19,20,20,21,21,22,22,23,23,24,24,25,25,26,26,27,27,28,28,29,29,30,30],"right_children":[2,4,6,8,10,12,14,16,18,20,22,24,26,28,30,32,34,36,38,40,42,44,46,48,50,52,54,56,58,60,62,-1,-1,-1,-1,-1,-1,-1,-1,-1,-1,-1,-1,-1,-1,-1,-1,-1,-1,-1,-1,-1,-1,-1,-1,-1,-1,-1,-1,-1,-1,-1,-1],"split_conditions":[-2.9481337E1,-1.4586298E2,1.3085194E2,-6E0,-2.3E0,-2.1113548E0,2.6379434E2,-3.0188956E2,-5.5E0,-6.1708107E0,-8.231923E1,-8.3541155E0,-3.4E0,1.13E1,1.43E1,-9.741851E0,-4.2592594E1,7.272727E-2,-3.174526E0,2.4009604E-4,9.090909E-2,-4.810286E0,-1.3405625E1,-1.3E0,-9.4E0,6.3760133E0,2.2118256E0,-1.1701115E1,1.3749674E1,-7.868088E0,2.5303445E0,4.27962E-3,-7.727683E-2,-1.1421465E-2,-5.5895515E-2,-1.4334209E-2,-5.7616778E-2,-6.0942657E-2,-3.2882016E-2,-5.1753283E-2,-3.8927377E-3,1.5373052E-3,-4.186488E-2,3.024224E-2,-3.914358E-2,-5.9652347E-2,-1.7616944E-2,-1.2361496E-2,-4.6262126E-2,3.840807E-2,-2.1724259E-3,2.7227739E-2,5.0043266E-2,3.2975406E-3,1.9000767E-2,-2.6502684E-2,4.369731E-2,-2.0781688E-2,6.252256E-2,-6.89886E-4,6.7494474E-2,5.514818E-2,-2.3177868E-2],"split_indices":[12,12,12,64,0,34,12,12,0,17,12,27,0,0,0,41,49,6,25,10,6,55,37,0,0,25,25,25,45,25,38,0,0,0,0,0,0,0,0,0,0,0,0,0,0,0,0,0,0,0,0,0,0,0,0,0,0,0,0,0,0,0,0],"split_type":[0,0,0,0,0,0,0,0,0,0,0,0,0,0,0,0,0,0,0,0,0,0,0,0,0,0,0,0,0,0,0,0,0,0,0,0,0,0,0,0,0,0,0,0,0,0,0,0,0,0,0,0,0,0,0,0,0,0,0,0,0,0,0],"sum_hessian":[3.7626907E3,1.4516372E3,2.3110535E3,4.978911E2,9.5374615E2,1.752516E3,5.585374E2,2.1482765E2,2.8306345E2,3.8286768E2,5.708785E2,5.169097E2,1.2356063E3,4.0979288E2,1.4874452E2,6.7371315E1,1.4745633E2,9.228971E1,1.9077374E2,4.4927742E1,3.3793994E2,2.2617789E2,3.4470056E2,7.066811E1,4.462416E2,3.3406506E2,9.015412E2,3.833239E2,2.6468985E1,1.4201443E2,6.7300735E0,2.4841425E0,6.488718E1,6.22583E0,1.412305E2,8.0075096E1,1.2214616E1,9.496533E1,9.580842E1,3.693424E1,7.993503E0,3.0847116E2,2.9468767E1,3.24654E0,2.2293134E2,2.046652E1,3.2423404E2,3.2463802E1,3.820431E1,1.7741247E1,4.2850037E2,2.5387617E2,8.01889E1,5.0028003E2,4.0126117E2,5.9962234E0,3.7732767E2,2.2975014E1,3.4939709E0,1.9970428E0,1.400174E2,2.7426646E0,3.9874086E0],"tree_param":{"num_deleted":"0","num_feature":"66","num_nodes":"63","size_leaf_vector":"1"}},{"base_weights":[4.3704733E-3,-5.127087E-1,4.4209996E-1,-9.282231E-1,-3.1377378E-1,2.2242408E-1,8.4820366E-1,-1.4128352E0,-7.938852E-1,-2.3115759E-1,-7.1063155E-1,2.7779472E-1,-5.721303E-1,7.156775E-1,1.2384415E0,1.191548E-1,-1.4469614E0,-8.944137E-1,-5.092027E-1,2.670706E-1,-2.811973E-1,-8.816414E-1,-3.469027E-1,7.596697E-1,2.0924181E-1,-6.6440624E-1,5.594849E-1,8.139081E-1,3.332695E-1,1.0659007E0,1.5000196E0,-2.5833631E-2,3.7354004E-2,1.2763527E-2,-7.341142E-2,-5.6368876E-2,-3.8659886E-2,1.2644125E-3,-3.5917174E-2,-2.4015227E-2,2.147354E-2,-6.0413624E-3,-1.9961698E-2,7.344313E-3,-4.847536E-2,-2.715358E-2,1.689366E-2,-2.4624024E-2,4.1162994E-2,2.0980189E-2,1.880167E-3,-4.2222474E-2,-7.439734E-3,-2.4603184E-2,5.1148124E-2,2.5018845E-2,4.591499E-2,6.753048E-2,9.980946E-3,5.5732377E-2,7.7682845E-3,7.808282E-2,-0E0],"categories":[],"categories_nodes":[],"categories_segments":[],"categories_sizes":[],"default_left":[0,0,0,0,0,0,0,0,0,0,0,0,0,0,0,0,0,0,0,0,0,0,0,0,0,0,0,0,0,0,0,0,0,0,0,0,0,0,0,0,0,0,0,0,0,0,0,0,0,0,0,0,0,0,0,0,0,0,0,0,0,0,0],"id":3,"left_children":[1,3,5,7,9,11,13,15,17,19,21,23,25,27,29,31,33,35,37,39,41,43,45,47,49,51,53,55,57,59,61,-1,-1,-1,-1,-1,-1,-1,-1,-1,-1,-1,-1,-1,-1,-1,-1,-1,-1,-1,-1,-1,-1,-1,-1,-1,-1,-1,-1,-1,-1,-1,-1],"loss_changes":[8.537722E2,1.4252133E2,1.8195267E2,3.5061066E1,3.8135956E1,5.8522324E1,3.597998E1,6.574768E0,1.2003815E1,2.4283348E1,1.2079002E1,4.075853E1,9.433117E0,1.9805298E1,6.2734985E0,1.7957087E0,4.747818E0,8.081482E0,1.3219301E1,1.0997088E1,1.6614494E1,1.2510071E1,9.089079E0,1.2706329E1,3.924056E1,7.264824E0,3.9661977E0,1.3366486E1,1.4770654E1,4.680443E0,6.352371E0,0E0,0E0,0E0,0E0,0E0,0E0,0E0,0E0,0E0,0E0,0E0,0E0,0E0,0E0,0E0,0E0,0E0,0E0,0E0,0E0,0E0,0E0,0E0,0E0,0E0,0E0,0E0,0E0,0E0,0E0,0E0,0E0],"parents":[2147483647,0,0,1,1,2,2,3,3,4,4,5,5,6,6,7,7,8,8,9,9,10,10,11,11,12,12,13,13,14,14,15,15,16,16,17,17,18,18,19,19,20,20,21,21,22,22,23,23,24,24,25,25,26,26,27,27,28,28,29,29,30,30],"right_children":[2,4,6,8,10,12,14,16,18,20,22,24,26,28,30,32,34,36,38,40,42,44,46,48,50,52,54,56,58,60,62,-1,-1,-1,-1,-1,-1,-1,-1,-1,-1,-1,-1,-1,-1,-1,-1,-1,-1,-1,-1,-1,-1,-1,-1,-1,-1,-1,-1,-1,-1,-1,-1],"split_conditions":[-1.3598483E1,-1.516179E2,1.22713455E2,-3.124969E2,9.5E1,9.8E1,2.6501865E2,-2E1,7.586067E-2,-5.5E1,1.2358836E0,-1.17E2,1E0,6.1E0,4.630923E0,-2.4764255E-1,-1.46E2,-2.3047499E2,-4.7503474E-1,-1.682515E0,-1.2E0,-1.08E1,2.5814001E1,-1.2315653E1,-4E-1,2.6618936E0,-9.4116515E-1,-2.0084496E0,-2.87E2,1.05E1,2.0563705E0,-2.5833631E-2,3.7354004E-2,1.2763527E-2,-7.341142E-2,-5.6368876E-2,-3.8659886E-2,1.2644125E-3,-3.5917174E-2,-2.4015227E-2,2.147354E-2,-6.0413624E-3,-1.9961698E-2,7.344313E-3,-4.847536E-2,-2.715358E-2,1.689366E-2,-2.4624024E-2,4.1162994E-2,2.0980189E-2,1.880167E-3,-4.2222474E-2,-7.439734E-3,-2.4603184E-2,5.1148124E-2,2.5018845E-2,4.591499E-2,6.753048E-2,9.980946E-3,5.5732377E-2,7.7682845E-3,7.808282E-2,-0E0],"split_indices":[4,4,4,4,1,1,4,15,25,1,45,1,61,0,33,58,1,4,53,53,0,0,49,30,0,25,53,30,1,0,53,0,0,0,0,0,0,0,0,0,0,0,0,0,0,0,0,0,0,0,0,0,0,0,0,0,0,0,0,0,0,0,0],"split_type":[0,0,0,0,0,0,0,0,0,0,0,0,0,0,0,0,0,0,0,0,0,0,0,0,0,0,0,0,0,0,0,0,0,0,0,0,0,0,0,0,0,0,0,0,0,0,0,0,0,0,0,0,0,0,0,0,0,0,0,0,0,0,0],"sum_hessian":[3.7700945E3,1.7282065E3,2.0418881E3,5.581768E2,1.1700298E3,1.3262605E3,7.156275E2,1.189204E2,4.3925644E2,9.6994507E2,2.0008466E2,1.2405834E3,8.5677124E1,5.365152E2,1.7911226E2,2.473174E0,1.1644723E2,3.2278125E2,1.16475174E2,8.794744E1,8.819976E2,1.349419E2,6.514277E1,1.5307089E2,1.0875126E3,7.96809E1,5.996226E0,4.25759E2,1.1075622E2,1.1121221E2,6.7900055E1,1.237759E0,1.2354152E0,1.2430899E0,1.1520414E2,1.07346855E2,2.154344E2,3.2870518E1,8.360465E1,1.523978E1,7.270766E1,3.751594E2,5.0683826E2,1.0478163E1,1.2446373E2,5.091114E1,1.4231627E1,6.995995E0,1.4607489E2,4.8772464E2,5.997879E2,5.8442146E1,2.1238754E1,1.7494948E0,4.2467313E0,1.08035416E2,3.1772357E2,1.1716581E1,9.903964E1,1.0524384E2,5.9683676E0,6.5173294E1,2.7267575E0],"tree_param":{"num_deleted":"0","num_feature":"66","num_nodes":"63","size_leaf_vector":"1"}},{"base_weights":[-4.258261E-3,-4.9424392E-1,4.2737076E-1,-8.805688E-1,-3.1994691E-1,1.894181E-1,7.459565E-1,-1.2631004E0,-7.712481E-1,-2.3063824E-1,-7.559637E-1,8.533859E-1,1.2919295E-1,5.961595E-1,9.853414E-1,-1.3056086E0,2.4378952E-2,-4.1251698E-1,-8.450868E-1,-4.0110382E-1,-8.2832284E-2,-1.0268645E0,-4.944968E-1,6.044135E-1,1.2319047E0,-2.6029608E-1,2.0417581E-1,6.749484E-1,2.1014245E-1,-4.2133484E-2,1.0009197E0,1.19601E-2,-6.627166E-2,6.352635E-2,-4.5648478E-2,-4.054889E-2,3.682879E-3,-5.3003132E-2,-3.563284E-2,2.9891867E-2,-2.1817587E-2,-6.784033E-3,3.0589594E-2,-2.908487E-3,-5.3542268E-2,1.6620507E-2,-3.031887E-2,5.8076948E-2,1.7032703E-2,6.566325E-2,-1.0314259E-2,-2.2368504E-2,4.1952925E-3,1.3150743E-2,-2.2796031E-2,8.162316E-3,3.647102E-2,-6.693426E-3,2.2250108E-2,4.5617294E-2,6.96143E-2],"categories":[],"categories_nodes":[],"categories_segments":[],"categories_sizes":[],"default_left":[0,0,0,0,0,0,0,0,0,0,0,0,0,0,0,0,0,0,0,0,0,0,0,0,0,0,0,0,0,0,0,0,0,0,0,0,0,0,0,0,0,0,0,0,0,0,0,0,0,0,0,0,0,0,0,0,0,0,0,0,0],"id":4,"left_children":[1,3,5,7,9,11,13,15,17,19,21,23,25,27,29,31,33,35,37,39,41,43,45,47,49,51,53,55,57,-1,59,-1,-1,-1,-1,-1,-1,-1,-1,-1,-1,-1,-1,-1,-1,-1,-1,-1,-1,-1,-1,-1,-1,-1,-1,-1,-1,-1,-1,-1,-1],"loss_changes":[7.912112E2,1.1758261E2,1.50538E2,2.1571991E1,4.681279E1,4.5378574E1,2.9728882E1,6.6804047E0,1.0806046E1,2.5246395E1,1.3856308E1,7.9766464E0,3.0611763E1,1.5752808E1,1.0123352E1,3.9606476E0,6.702486E0,1.4639152E1,9.088074E0,1.6662148E1,1.9858019E1,4.0654907E0,1.0072771E1,8.141861E0,4.6371765E0,1.0967239E1,3.4215885E1,1.1938156E1,7.4226136E0,0E0,9.69873E0,0E0,0E0,0E0,0E0,0E0,0E0,0E0,0E0,0E0,0E0,0E0,0E0,0E0,0E0,0E0,0E0,0E0,0E0,0E0,0E0,0E0,0E0,0E0,0E0,0E0,0E0,0E0,0E0,0E0,0E0],"parents":[2147483647,0,0,1,1,2,2,3,3,4,4,5,5,6,6,7,7,8,8,9,9,10,10,11,11,12,12,13,13,14,14,15,15,16,16,17,17,18,18,19,19,20,20,21,21,22,22,23,23,24,24,25,25,26,26,27,27,28,28,30,30],"right_children":[2,4,6,8,10,12,14,16,18,20,22,24,26,28,30,32,34,36,38,40,42,44,46,48,50,52,54,56,58,-1,60,-1,-1,-1,-1,-1,-1,-1,-1,-1,-1,-1,-1,-1,-1,-1,-1,-1,-1,-1,-1,-1,-1,-1,-1,-1,-1,-1,-1,-1,-1],"split_conditions":[-1.1077795E1,-1.516179E2,1.0297285E2,-3.124969E2,9.5E1,-1.46E2,1.763044E2,-2.4849407E1,-2.0541482E0,-5.6265965E1,-2.533868E0,6.9156847E0,-2.9481337E1,-1.4E1,-1.6807921E-3,-1.69E2,-2.656899E0,-3.0231812E0,-7E0,-3.968451E0,9.578902E0,-2E0,-3.19E2,-2.1206024E0,3E0,1.9921445E0,9.8E1,-2.8214982E0,1.8312348E0,-4.2133484E-2,3.5521265E2,1.19601E-2,-6.627166E-2,6.352635E-2,-4.5648478E-2,-4.054889E-2,3.682879E-3,-5.3003132E-2,-3.563284E-2,2.9891867E-2,-2.1817587E-2,-6.784033E-3,3.0589594E-2,-2.908487E-3,-5.3542268E-2,1.6620507E-2,-3.031887E-2,5.8076948E-2,1.7032703E-2,6.566325E-2,-1.0314259E-2,-2.2368504E-2,4.1952925E-3,1.3150743E-2,-2.2796031E-2,8.162316E-3,3.647102E-2,-6.693426E-3,2.2250108E-2,4.5617294E-2,6.96143E-2],"split_indices":[4,4,4,4,1,1,12,12,56,12,30,35,12,1,7,1,21,30,64,53,25,65,16,22,64,19,1,36,27,0,12,0,0,0,0,0,0,0,0,0,0,0,0,0,0,0,0,0,0,0,0,0,0,0,0,0,0,0,0,0,0],"split_type":[0,0,0,0,0,0,0,0,0,0,0,0,0,0,0,0,0,0,0,0,0,0,0,0,0,0,0,0,0,0,0,0,0,0,0,0,0,0,0,0,0,0,0,0,0,0,0,0,0,0,0,0,0,0,0,0,0,0,0,0,0],"sum_hessian":[3.7390618E3,1.7511929E3,1.987869E3,5.430066E2,1.2081863E3,1.1390315E3,8.488376E2,1.1814136E2,4.2486523E2,1.0042463E3,2.0393996E2,9.349054E1,1.0455409E3,5.24522E2,3.243156E2,1.1442695E2,3.7144053E0,7.387907E1,3.5098618E2,4.6526398E2,5.389823E2,9.853742E1,1.05402534E2,5.8121704E1,3.5368835E1,1.6817453E2,8.773664E2,4.347739E2,8.974807E1,2.2375782E0,3.2207803E2,1.2457174E0,1.1318123E2,1.4877578E0,2.2266476E0,4.0348057E1,3.353101E1,1.308368E2,2.2014935E2,1.5216751E1,4.5004724E2,5.0175632E2,3.722598E1,4.479131E0,9.40583E1,1.2219981E1,9.3182556E1,1.745966E1,4.0662045E1,3.3623127E1,1.745709E0,1.08950584E2,5.9223938E1,8.0625244E2,7.111392E1,4.2391033E1,3.9238287E2,3.641435E1,5.333372E1,2.6556268E2,5.6515335E1],"tree_param":{"num_deleted":"0","num_feature":"66","num_nodes":"61","size_leaf_vector":"1"}},{"base_weights":[1.1009688E-2,-3.4380683E-1,5.426708E-1,-7.8492165E-1,-1.6743165E-1,3.516373E-1,8.559861E-1,-1.2415539E0,-6.836068E-1,-7.901621E-2,-6.658969E-1,3.773056E-1,-1.0492045E0,7.175853E-1,1.1632794E0,-1.2734864E0,-0E0,-4.6730626E-1,-7.977746E-1,7.616311E-1,-1.1223605E-1,-2.032514E-2,-7.227136E-1,-1.5512992E-1,4.3046218E-1,3.731664E-2,-1.2778684E0,6.171323E-1,1.1545779E0,1.2304654E0,4.4016674E-1,-6.525161E-2,-1.20842755E-2,4.0213093E-2,-3.4036946E-2,-5.443104E-3,-3.0936975E-2,-4.8476182E-2,-3.1492222E-2,4.4227894E-2,-2.4047432E-2,-1.2104829E-2,1.7696137E-3,1.7175851E-2,-5.2265555E-2,-3.7112717E-2,3.9512858E-2,4.128968E-3,-3.0207334E-2,3.334051E-2,1.618365E-2,-7.200067E-2,-2.1329144E-2,4.815674E-2,2.5391666E-2,9.854044E-3,6.300857E-2,5.482021E-2,7.468175E-2,-1.7934918E-2,4.360917E-2],"categories":[],"categories_nodes":[],"categories_segments":[],"categories_sizes":[],"default_left":[0,0,0,0,0,0,0,0,0,0,0,0,0,0,0,0,0,0,0,0,0,0,0,0,0,0,0,0,0,0,0,0,0,0,0,0,0,0,0,0,0,0,0,0,0,0,0,0,0,0,0,0,0,0,0,0,0,0,0,0,0],"id":5,"left_children":[1,3,5,7,9,11,13,15,17,19,21,23,25,27,29,31,33,35,37,39,41,43,45,47,49,-1,51,53,55,57,59,-1,-1,-1,-1,-1,-1,-1,-1,-1,-1,-1,-1,-1,-1,-1,-1,-1,-1,-1,-1,-1,-1,-1,-1,-1,-1,-1,-1,-1,-1],"loss_changes":[7.0519934E2,1.7419446E2,8.913916E1,2.8563599E1,7.051816E1,3.382125E1,2.3043549E1,4.4779663E0,1.2493011E1,3.807737E1,8.757477E0,2.6005264E1,7.9680805E0,1.6361359E1,7.739197E0,3.1712036E0,2.6885366E0,9.873394E0,9.111923E0,8.380983E0,2.5180685E1,8.14185E0,7.130432E0,9.032409E0,2.0705353E1,0E0,1.3326931E0,1.1536171E1,6.8974915E0,3.6925507E0,6.0470276E0,0E0,0E0,0E0,0E0,0E0,0E0,0E0,0E0,0E0,0E0,0E0,0E0,0E0,0E0,0E0,0E0,0E0,0E0,0E0,0E0,0E0,0E0,0E0,0E0,0E0,0E0,0E0,0E0,0E0,0E0],"parents":[2147483647,0,0,1,1,2,2,3,3,4,4,5,5,6,6,7,7,8,8,9,9,10,10,11,11,12,12,13,13,14,14,15,15,16,16,17,17,18,18,19,19,20,20,21,21,22,22,23,23,24,24,26,26,27,27,28,28,29,29,30,30],"right_children":[2,4,6,8,10,12,14,16,18,20,22,24,26,28,30,32,34,36,38,40,42,44,46,48,50,-1,52,54,56,58,60,-1,-1,-1,-1,-1,-1,-1,-1,-1,-1,-1,-1,-1,-1,-1,-1,-1,-1,-1,-1,-1,-1,-1,-1,-1,-1,-1,-1,-1,-1],"split_conditions":[3.1979862E1,-1.3639145E2,1.5020221E2,-3.124969E2,9.1E1,2.31E2,2.6501865E2,2.123383E0,-1.7377739E-16,-1.88E2,-3.19E2,-3.5388374E1,-7.5007504E-4,8.258419E0,2.0919719E0,7.301101E0,5.6E1,-2.7E2,-2.6938014E0,4.8484847E-2,-2.1657042E1,6.891953E-1,1.5860418E1,1.7377739E-16,-5.7E1,3.731664E-2,3.4755477E-16,2.1E1,3.1041768E-1,5.452523E0,8.560684E-1,-6.525161E-2,-1.20842755E-2,4.0213093E-2,-3.4036946E-2,-5.443104E-3,-3.0936975E-2,-4.8476182E-2,-3.1492222E-2,4.4227894E-2,-2.4047432E-2,-1.2104829E-2,1.7696137E-3,1.7175851E-2,-5.2265555E-2,-3.7112717E-2,3.9512858E-2,4.128968E-3,-3.0207334E-2,3.334051E-2,1.618365E-2,-7.200067E-2,-2.1329144E-2,4.815674E-2,2.5391666E-2,9.854044E-3,6.300857E-2,5.482021E-2,7.468175E-2,-1.7934918E-2,4.360917E-2],"split_indices":[4,4,4,4,1,1,4,33,9,1,16,12,5,24,53,19,3,16,34,6,12,29,23,9,1,0,9,16,50,33,28,0,0,0,0,0,0,0,0,0,0,0,0,0,0,0,0,0,0,0,0,0,0,0,0,0,0,0,0,0,0],"split_type":[0,0,0,0,0,0,0,0,0,0,0,0,0,0,0,0,0,0,0,0,0,0,0,0,0,0,0,0,0,0,0,0,0,0,0,0,0,0,0,0,0,0,0,0,0,0,0,0,0,0,0,0,0,0,0,0,0,0,0,0,0],"sum_hessian":[3.7361973E3,2.2408672E3,1.4953301E3,6.3891693E2,1.6019502E3,9.3045685E2,5.648732E2,1.1379485E2,5.251221E2,1.3617657E3,2.4018452E2,9.145021E2,1.59548025E1,3.9198776E2,1.7288547E2,1.1087125E2,2.923606E0,1.834775E2,3.416446E2,5.0819206E1,1.3109465E3,1.9680891E1,2.2050363E2,8.266818E1,8.3183386E2,1.4971925E0,1.4457609E1,3.2086945E2,7.111832E1,1.5741937E2,1.5466097E1,1.0723109E2,3.6401618E0,1.2183233E0,1.7052826E0,5.5199314E1,1.2827817E2,1.6624759E2,1.7539699E2,4.657974E1,4.239469E0,6.9746356E2,6.134829E2,1.494361E1,4.7372813E0,2.1826021E2,2.2434325E0,5.4440685E1,2.8227495E1,2.569551E2,5.748788E2,1.1464848E1,2.9927619E0,7.493248E1,2.4593697E2,7.4427466E0,6.367557E1,1.0796636E2,4.9453007E1,5.4066358E0,1.0059462E1],"tree_param":{"num_deleted":"0","num_feature":"66","num_nodes":"61","size_leaf_vector":"1"}},{"base_weights":[-2.1214847E-2,-5.318039E-1,2.6128754E-1,-8.5057455E-1,-3.9241123E-1,1.2893282E-1,8.1288624E-1,-1.0688869E0,-6.141273E-1,-1.6867922E-1,-5.6254596E-1,-2.0084944E-1,2.1280256E-1,8.8028026E-1,1.5827121E-1,-1.2279922E0,-9.342806E-1,4.7030628E-2,-7.038648E-1,-9.3044686E-1,-1.0910264E-1,-4.173043E-1,-7.6721865E-1,-4.5566577E-1,-1.27633205E-2,3.3099014E-1,-5.6932002E-2,7.80672E-1,1.2061535E0,-5.878924E-1,5.503942E-1,7.44324E-5,-6.260255E-2,2.1945199E-2,-4.9289733E-2,4.900973E-2,-2.4928352E-2,-4.541106E-2,-2.2361858E-2,-5.9022862E-2,8.199941E-3,4.9582976E-3,-1.3727064E-2,-2.2732185E-2,3.0952865E-2,-7.6028906E-2,-3.6376636E-2,5.879139E-3,-2.831983E-2,-3.5139155E-2,2.6903867E-3,8.48463E-3,2.600562E-2,-5.713762E-3,4.618245E-2,2.6643008E-2,4.8043817E-2,-3.726336E-2,6.200221E-2,9.506185E-3,-4.7142792E-2,-3.3505403E-3,5.1763732E-2],"categories":[],"categories_nodes":[],"categories_segments":[],"categories_sizes":[],"default_left":[0,0,0,0,0,0,0,0,0,0,0,0,0,0,0,0,0,0,0,0,0,0,0,0,0,0,0,0,0,0,0,0,0,0,0,0,0,0,0,0,0,0,0,0,0,0,0,0,0,0,0,0,0,0,0,0,0,0,0,0,0,0,0],"id":6,"left_children":[1,3,5,7,9,11,13,15,17,19,21,23,25,27,29,31,33,35,37,39,41,43,45,47,49,51,53,55,57,59,61,-1,-1,-1,-1,-1,-1,-1,-1,-1,-1,-1,-1,-1,-1,-1,-1,-1,-1,-1,-1,-1,-1,-1,-1,-1,-1,-1,-1,-1,-1,-1,-1],"loss_changes":[5.424985E2,5.9072052E1,1.7655957E2,2.0160004E1,3.5392105E1,5.40875E1,2.0411957E1,3.1296844E0,1.1830185E1,1.81849E1,1.5316208E1,1.8947811E1,4.973002E1,1.2626801E1,1.3503681E1,2.8668518E0,8.846596E0,1.2977124E1,8.598892E0,8.268152E0,1.3037413E1,1.2356987E1,5.2017517E0,1.0781948E1,1.0637573E1,3.291249E1,2.6757343E1,1.3981873E1,7.4033813E0,4.6505632E0,9.189582E0,0E0,0E0,0E0,0E0,0E0,0E0,0E0,0E0,0E0,0E0,0E0,0E0,0E0,0E0,0E0,0E0,0E0,0E0,0E0,0E0,0E0,0E0,0E0,0E0,0E0,0E0,0E0,0E0,0E0,0E0,0E0,0E0],"parents":[2147483647,0,0,1,1,2,2,3,3,4,4,5,5,6,6,7,7,8,8,9,9,10,10,11,11,12,12,13,13,14,14,15,15,16,16,17,17,18,18,19,19,20,20,21,21,22,22,23,23,24,24,25,25,26,26,27,27,28,28,29,29,30,30],"right_children":[2,4,6,8,10,12,14,16,18,20,22,24,26,28,30,32,34,36,38,40,42,44,46,48,50,52,54,56,58,60,62,-1,-1,-1,-1,-1,-1,-1,-1,-1,-1,-1,-1,-1,-1,-1,-1,-1,-1,-1,-1,-1,-1,-1,-1,-1,-1,-1,-1,-1,-1,-1,-1],"split_conditions":[-3.9136032E1,-1.664199E2,1.4833817E2,-5E0,-2E0,-3.5499039E0,1.05E1,-4.322325E0,-1.11E1,-7.595848E0,9.9301365E-17,-2.9978583E0,3.8E0,5.0983014E0,1.5205206E0,-1.2508946E1,-1.0746144E1,-7.447603E-17,-1.9661453E0,5.4690123E0,-1.179612E-16,1.6409882E1,-1.2112265E1,-1E-1,-6E0,3.686777E1,3.904762E1,6.9165593E-1,-1.0209287E1,-4E0,7.91E2,7.44324E-5,-6.260255E-2,2.1945199E-2,-4.9289733E-2,4.900973E-2,-2.4928352E-2,-4.541106E-2,-2.2361858E-2,-5.9022862E-2,8.199941E-3,4.9582976E-3,-1.3727064E-2,-2.2732185E-2,3.0952865E-2,-7.6028906E-2,-3.6376636E-2,5.879139E-3,-2.831983E-2,-3.5139155E-2,2.6903867E-3,8.48463E-3,2.600562E-2,-5.713762E-3,4.618245E-2,2.6643008E-2,4.8043817E-2,-3.726336E-2,6.200221E-2,9.506185E-3,-4.7142792E-2,-3.3505403E-3,5.1763732E-2],"split_indices":[12,12,12,64,0,34,0,34,0,19,9,27,0,31,33,31,18,9,25,30,6,35,42,11,64,12,49,41,18,15,16,0,0,0,0,0,0,0,0,0,0,0,0,0,0,0,0,0,0,0,0,0,0,0,0,0,0,0,0,0,0,0,0],"split_type":[0,0,0,0,0,0,0,0,0,0,0,0,0,0,0,0,0,0,0,0,0,0,0,0,0,0,0,0,0,0,0,0,0,0,0,0,0,0,0,0,0,0,0,0,0,0,0,0,0,0,0,0,0,0,0,0,0,0,0,0,0,0,0],"sum_hessian":[3.7588625E3,1.3387338E3,2.4201287E3,4.0552896E2,9.3320483E2,1.9529406E3,4.6718814E2,2.0879996E2,1.96729E2,4.0422137E2,5.2898346E2,3.9544266E2,1.5574979E3,4.2312866E2,4.405948E1,9.162863E1,1.17171326E2,2.3434267E1,1.7329474E2,2.8138332E1,3.7608304E2,3.1147745E2,2.1750598E2,1.671016E2,2.2834106E2,1.0830776E3,4.7442032E2,3.2690698E2,9.6221664E1,1.4918003E1,2.9141476E1,1.6968322E0,8.99318E1,3.8945656E0,1.1327676E2,8.419941E0,1.5014327E1,9.484195E1,7.845278E1,2.291623E1,5.222102E0,1.6640016E2,2.0968289E2,3.0128033E2,1.0197127E1,8.891083E0,2.086149E2,2.6896202E1,1.4020538E2,1.9382595E1,2.0895848E2,5.8584845E2,4.9722916E2,4.4914056E2,2.5279772E1,1.395347E2,1.8737228E2,1.2338799E0,9.4987785E1,4.731052E0,1.0186952E1,1.3107314E1,1.6034163E1],"tree_param":{"num_deleted":"0","num_feature":"66","num_nodes":"63","size_leaf_vector":"1"}},{"base_weights":[1.4460076E-3,4.0713826E-1,-3.6761516E-1,3.2780835E-1,8.147148E-1,-8.9717925E-1,-2.9597047E-1,8.452257E-1,2.4598603E-1,6.739621E-1,1.3093085E0,-7.49267E-1,-1.199162E0,-1.895796E-1,-6.240163E-1,-8.1562094E-2,8.877918E-1,-2.2206083E-1,2.8532952E-1,5.75512E-1,1.209026E0,1.3488928E0,-1.6213587E-2,-7.840045E-1,5.423416E-1,-1.2567445E0,3.760086E-2,-2.3167506E-1,4.307026E-1,-6.5239596E-1,8.708206E-1,-3.2931387E-2,3.2235514E-2,4.557354E-2,-3.752909E-3,-2.1816592E-3,-3.535058E-2,2.340296E-2,7.639877E-3,3.1043375E-2,-2.251575E-2,6.509639E-2,-3.91921E-3,3.161996E-2,7.2723866E-2,-1.5334636E-2,-4.4406712E-2,-2.1627422E-2,7.187356E-2,8.274401E-3,-6.451734E-2,-4.6466902E-2,3.9141636E-2,-2.1195011E-2,-6.7354986E-3,4.847346E-2,1.0004457E-2,-2.7543912E-2,-4.920022E-2,-3.1476293E-2,6.215757E-2],"categories":[],"categories_nodes":[],"categories_segments":[],"categories_sizes":[],"default_left":[0,0,0,0,0,0,0,0,0,0,0,0,0,0,0,0,0,0,0,0,0,0,0,0,0,0,0,0,0,0,0,0,0,0,0,0,0,0,0,0,0,0,0,0,0,0,0,0,0,0,0,0,0,0,0,0,0,0,0,0,0],"id":7,"left_children":[1,3,5,7,9,11,13,15,17,19,21,23,25,27,29,31,33,35,37,39,41,43,-1,45,47,49,51,53,55,57,59,-1,-1,-1,-1,-1,-1,-1,-1,-1,-1,-1,-1,-1,-1,-1,-1,-1,-1,-1,-1,-1,-1,-1,-1,-1,-1,-1,-1,-1,-1],"loss_changes":[5.567047E2,5.689023E1,7.347934E1,6.2534958E1,1.8948502E1,9.240051E0,5.970816E1,8.1271515E0,2.3703995E1,1.1040894E1,4.582741E0,7.546097E0,5.451309E0,3.396704E1,1.8350967E1,4.486643E0,4.5624695E0,8.537042E0,2.8553757E1,9.281345E0,4.3010254E0,3.5085373E0,0E0,7.2878113E0,4.787334E0,3.7180557E0,3.734594E0,2.2554672E1,9.961441E0,1.319133E1,5.414717E0,0E0,0E0,0E0,0E0,0E0,0E0,0E0,0E0,0E0,0E0,0E0,0E0,0E0,0E0,0E0,0E0,0E0,0E0,0E0,0E0,0E0,0E0,0E0,0E0,0E0,0E0,0E0,0E0,0E0,0E0],"parents":[2147483647,0,0,1,1,2,2,3,3,4,4,5,5,6,6,7,7,8,8,9,9,10,10,11,11,12,12,13,13,14,14,15,15,16,16,17,17,18,18,19,19,20,20,21,21,23,23,24,24,25,25,26,26,27,27,28,28,29,29,30,30],"right_children":[2,4,6,8,10,12,14,16,18,20,22,24,26,28,30,32,34,36,38,40,42,44,-1,46,48,50,52,54,56,58,60,-1,-1,-1,-1,-1,-1,-1,-1,-1,-1,-1,-1,-1,-1,-1,-1,-1,-1,-1,-1,-1,-1,-1,-1,-1,-1,-1,-1,-1,-1],"split_conditions":[-4E0,8E0,-8E0,-1.62E2,5E0,1.5049303E0,9.5E1,-6.715657E0,-1.0378E1,1.5E1,1.0895458E1,1.30132055E-2,3.564665E0,7.9502816E0,1.0791457E1,-7.1284385E0,1.09963985E-2,6.1130795E0,-9E-1,3.619018E0,9.682002E0,-8.225108E0,-1.6213587E-2,-5.7382646E0,-8.840339E-1,-1.665396E1,1.7564934E0,-2.7705805E0,-2.8E0,2.97E2,-2.8500712E-5,-3.2931387E-2,3.2235514E-2,4.557354E-2,-3.752909E-3,-2.1816592E-3,-3.535058E-2,2.340296E-2,7.639877E-3,3.1043375E-2,-2.251575E-2,6.509639E-2,-3.91921E-3,3.161996E-2,7.2723866E-2,-1.5334636E-2,-4.4406712E-2,-2.1627422E-2,7.187356E-2,8.274401E-3,-6.451734E-2,-4.6466902E-2,3.9141636E-2,-2.1195011E-2,-6.7354986E-3,4.847346E-2,1.0004457E-2,-2.7543912E-2,-4.920022E-2,-3.1476293E-2,6.215757E-2],"split_indices":[1,64,64,1,2,56,1,38,30,64,20,10,47,27,39,27,10,17,0,53,20,35,0,18,19,30,46,32,0,1,7,0,0,0,0,0,0,0,0,0,0,0,0,0,0,0,0,0,0,0,0,0,0,0,0,0,0,0,0,0,0],"split_type":[0,0,0,0,0,0,0,0,0,0,0,0,0,0,0,0,0,0,0,0,0,0,0,0,0,0,0,0,0,0,0,0,0,0,0,0,0,0,0,0,0,0,0,0,0,0,0,0,0,0,0,0,0,0,0,0,0,0,0,0,0],"sum_hessian":[3.7161487E3,1.7703027E3,1.945846E3,1.4835894E3,2.8671332E2,2.3034262E2,1.7155033E3,2.0113377E2,1.2824557E3,2.2519238E2,6.152094E1,1.5717168E2,7.317094E1,1.2968087E3,4.1869455E2,8.688763E0,1.92445E2,9.8885506E1,1.1835702E3,1.9210767E2,3.308473E1,6.029537E1,1.2255698E0,1.535134E2,3.6582847E0,6.9977554E1,3.193388E0,1.2151316E3,8.167718E1,4.115124E2,7.1821585E0,4.970355E0,3.7184072E0,1.8797932E2,4.4656777E0,7.3236E1,2.5649498E1,4.9617633E2,6.873938E2,1.8444493E2,7.6627274E0,3.0919893E1,2.1648335E0,8.763449E0,5.153192E1,2.837109E1,1.251423E2,1.9450171E0,1.7132676E0,1.4558748E0,6.8521675E1,1.2240065E0,1.9693813E0,4.0595557E2,8.0917596E2,2.3391563E1,5.8285618E1,3.1732895E2,9.418345E1,1.2372363E0,5.9449224E0],"tree_param":{"num_deleted":"0","num_feature":"66","num_nodes":"61","size_leaf_vector":"1"}},{"base_weights":[9.714892E-5,3.9022908E-1,-3.614831E-1,5.9170294E-1,2.2556178E-1,-5.982209E-1,-2.203212E-1,4.2487288E-1,7.5257593E-1,4.1029546E-1,5.623994E-2,-4.4952157E-1,-8.3304536E-1,-2.3683013E-1,1.077439E0,-7.8112155E-2,4.920932E-1,5.5526716E-1,9.166784E-1,1.2768966E-1,5.110841E-1,-7.434247E-3,7.2639996E-1,-9.860822E-1,-3.552938E-1,-6.138418E-1,-9.658642E-1,-1.831604E-1,-6.379088E-1,-2.9130175E-3,1.2576501E0,2.2934755E-2,-2.5733052E-2,-2.1363607E-2,2.6157567E-2,-3.828185E-2,2.978203E-2,7.828366E-2,4.297012E-2,3.057408E-3,6.088627E-2,2.2453403E-2,4.7473125E-2,-1.8921016E-2,3.2766764E-3,8.879201E-3,4.8435707E-2,-2.7353344E-2,-6.0448118E-2,-2.7336398E-2,-1.0923381E-2,-1.7547896E-2,-5.239871E-2,-6.5544054E-2,-4.0417E-2,-4.789242E-3,-2.336686E-2,-4.0097546E-2,-1.1798353E-2,1.07111335E-2,7.06024E-2],"categories":[],"categories_nodes":[],"categories_segments":[],"categories_sizes":[],"default_left":[0,0,0,0,0,0,0,0,0,0,0,0,0,0,0,0,0,0,0,0,0,0,0,0,0,0,0,0,0,0,0,0,0,0,0,0,0,0,0,0,0,0,0,0,0,0,0,0,0,0,0,0,0,0,0,0,0,0,0,0,0],"id":8,"left_children":[1,3,5,7,9,11,13,15,17,19,21,23,25,27,29,31,33,35,37,39,41,43,45,47,49,51,53,55,57,-1,59,-1,-1,-1,-1,-1,-1,-1,-1,-1,-1,-1,-1,-1,-1,-1,-1,-1,-1,-1,-1,-1,-1,-1,-1,-1,-1,-1,-1,-1,-1],"loss_changes":[5.2640497E2,5.933908E1,6.450307E1,2.120581E1,3.0886337E1,2.4727203E1,2.6202484E1,1.3553017E1,1.258493E1,1.3339256E1,2.217331E1,2.2005737E1,7.363617E0,2.5646072E1,3.3381786E0,1.1411483E1,1.0278976E1,1.0491535E1,6.643463E0,8.929435E0,8.893333E0,1.28801155E1,5.707878E0,5.5943184E0,9.760193E0,1.1839169E1,8.050522E0,2.6233112E1,9.009098E0,0E0,1.6907978E0,0E0,0E0,0E0,0E0,0E0,0E0,0E0,0E0,0E0,0E0,0E0,0E0,0E0,0E0,0E0,0E0,0E0,0E0,0E0,0E0,0E0,0E0,0E0,0E0,0E0,0E0,0E0,0E0,0E0,0E0],"parents":[2147483647,0,0,1,1,2,2,3,3,4,4,5,5,6,6,7,7,8,8,9,9,10,10,11,11,12,12,13,13,14,14,15,15,16,16,17,17,18,18,19,19,20,20,21,21,22,22,23,23,24,24,25,25,26,26,27,27,28,28,30,30],"right_children":[2,4,6,8,10,12,14,16,18,20,22,24,26,28,30,32,34,36,38,40,42,44,46,48,50,52,54,56,58,-1,60,-1,-1,-1,-1,-1,-1,-1,-1,-1,-1,-1,-1,-1,-1,-1,-1,-1,-1,-1,-1,-1,-1,-1,-1,-1,-1,-1,-1,-1,-1],"split_conditions":[-3E0,-5.4E1,-2.6938014E0,1.8399624E0,-4E-1,7.9E1,2.4E1,-4.1238246E0,3.569851E0,-2.8597984E0,1.7E1,-1.6E1,1.4351739E-1,7.9E0,-4.727859E0,3.4905875E-1,-1.8173925E1,-3.6432245E0,-6.17E2,1.5E1,6.3253736E0,-6.866234E0,2.7835681E0,-3.174014E-2,-1.8374177E0,7E-1,-1.0395382E1,8.2E1,4.77E2,-2.9130175E-3,-1.7692307E-2,2.2934755E-2,-2.5733052E-2,-2.1363607E-2,2.6157567E-2,-3.828185E-2,2.978203E-2,7.828366E-2,4.297012E-2,3.057408E-3,6.088627E-2,2.2453403E-2,4.7473125E-2,-1.8921016E-2,3.2766764E-3,8.879201E-3,4.8435707E-2,-2.7353344E-2,-6.0448118E-2,-2.7336398E-2,-1.0923381E-2,-1.7547896E-2,-5.239871E-2,-6.5544054E-2,-4.0417E-2,-4.789242E-3,-2.336686E-2,-4.0097546E-2,-1.1798353E-2,1.07111335E-2,7.06024E-2],"split_indices":[1,1,34,30,0,1,61,17,45,27,59,59,55,0,28,52,28,28,1,59,18,48,33,58,19,0,46,1,16,0,8,0,0,0,0,0,0,0,0,0,0,0,0,0,0,0,0,0,0,0,0,0,0,0,0,0,0,0,0,0,0],"split_type":[0,0,0,0,0,0,0,0,0,0,0,0,0,0,0,0,0,0,0,0,0,0,0,0,0,0,0,0,0,0,0,0,0,0,0,0,0,0,0,0,0,0,0,0,0,0,0,0,0,0,0,0,0,0,0,0,0,0,0,0,0],"sum_hessian":[3.7296548E3,1.794092E3,1.9355627E3,8.054304E2,9.886616E2,7.215425E2,1.2140203E3,3.9748715E2,4.079433E2,4.7184982E2,5.168118E2,4.4383218E2,2.7771027E2,1.1996539E3,1.4366356E1,4.6664463E1,3.508227E2,1.8749796E2,2.2044534E2,1.24898994E2,3.4695084E2,4.727353E2,4.4076504E1,6.472766E1,3.7910452E2,1.0718581E2,1.7052446E2,1.0595746E3,1.4007938E2,1.984124E0,1.2382232E1,2.0803455E1,2.5861006E1,1.0942158E1,3.3988052E2,4.954661E0,1.8254329E2,1.5600005E1,2.0484534E2,1.1879496E2,6.1040316E0,3.0592508E2,4.1025764E1,7.723549E1,3.9549982E2,1.4157291E1,2.9919214E1,2.311008E1,4.161758E1,1.5646585E2,2.2263867E2,6.802986E1,3.9155945E1,5.0957756E1,1.1956671E2,8.1169305E2,2.4788147E2,9.8596E1,4.1483383E1,1.9872766E0,1.0394955E1],"tree_param":{"num_deleted":"0","num_feature":"66","num_nodes":"61","size_leaf_vector":"1"}},{"base_weights":[-4.723911E-3,3.6551178E-1,-3.2628322E-1,2.9125774E-1,7.083126E-1,-7.005421E-1,-2.583045E-1,1.8517621E-1,4.6899688E-1,2.80875E-1,7.9639685E-1,-8.25429E-1,-4.3417493E-1,-1.4151691E-1,-5.829022E-1,3.4499624E-1,7.5561896E-2,2.6076853E-1,6.3725954E-1,-4.0033448E-1,5.0397027E-1,3.567686E-1,8.8227147E-1,6.5614855E-1,-8.484298E-1,-6.5802294E-1,6.857556E-2,-4.0687773E-1,-6.646681E-2,-6.444562E-1,3.2303125E-2,-6.891583E-3,2.0658702E-2,1.0926708E-3,3.4165893E-2,-2.4939002E-2,1.5826676E-2,-5.4090763E-3,3.364411E-2,3.224725E-2,-5.1089544E-2,4.2317834E-2,-4.838865E-3,5.726626E-4,4.331675E-2,4.7923367E-2,2.0755157E-2,7.223935E-2,-2.2929098E-2,-3.7725564E-2,-5.6237E-2,-2.149072E-2,-5.594749E-2,3.8804293E-2,-1.0708845E-2,-2.5443558E-2,-4.4538234E-3,-8.180202E-3,6.041815E-3,1.0426915E-2,-3.3571556E-2,-4.5081254E-2,1.8883806E-2],"categories":[],"categories_nodes":[],"categories_segments":[],"categories_sizes":[],"default_left":[0,0,0,0,0,0,0,0,0,0,0,0,0,0,0,0,0,0,0,0,0,0,0,0,0,0,0,0,0,0,0,0,0,0,0,0,0,0,0,0,0,0,0,0,0,0,0,0,0,0,0,0,0,0,0,0,0,0,0,0,0,0,0],"id":9,"left_children":[1,3,5,7,9,11,13,15,17,19,21,23,25,27,29,31,33,35,37,39,41,43,45,47,49,51,53,55,57,59,61,-1,-1,-1,-1,-1,-1,-1,-1,-1,-1,-1,-1,-1,-1,-1,-1,-1,-1,-1,-1,-1,-1,-1,-1,-1,-1,-1,-1,-1,-1,-1,-1],"loss_changes":[4.4264993E2,4.3681854E1,5.0352295E1,2.6666428E1,1.1217621E1,9.664566E0,6.375683E1,1.5571575E1,1.8335602E1,8.441577E0,9.135208E0,7.607376E0,1.1329613E1,2.4648323E1,1.6953812E1,1.201886E1,1.7253891E1,1.02673435E1,7.896965E0,9.664851E0,8.660907E0,7.523147E0,6.9856567E0,3.9715052E0,4.249222E0,6.6483707E0,6.523563E0,8.750248E0,1.7657589E1,9.509964E0,1.361861E1,0E0,0E0,0E0,0E0,0E0,0E0,0E0,0E0,0E0,0E0,0E0,0E0,0E0,0E0,0E0,0E0,0E0,0E0,0E0,0E0,0E0,0E0,0E0,0E0,0E0,0E0,0E0,0E0,0E0,0E0,0E0,0E0],"parents":[2147483647,0,0,1,1,2,2,3,3,4,4,5,5,6,6,7,7,8,8,9,9,10,10,11,11,12,12,13,13,14,14,15,15,16,16,17,17,18,18,19,19,20,20,21,21,22,22,23,23,24,24,25,25,26,26,27,27,28,28,29,29,30,30],"right_children":[2,4,6,8,10,12,14,16,18,20,22,24,26,28,30,32,34,36,38,40,42,44,46,48,50,52,54,56,58,60,62,-1,-1,-1,-1,-1,-1,-1,-1,-1,-1,-1,-1,-1,-1,-1,-1,-1,-1,-1,-1,-1,-1,-1,-1,-1,-1,-1,-1,-1,-1,-1,-1],"split_conditions":[-5E0,4.340823E0,-9E0,2.83308E0,-2.5489802E0,5.478246E-1,9.1E1,-5.4E1,-2.0106993E0,-3.089503E-1,-2.6134894E0,-1.9606163E1,-2.7453578E0,-7.449625E0,5.492585E0,-4.1238246E0,1.3E1,-1.0996123E1,-4.35E2,-1.3426234E0,-5.6E1,1E0,7.90577E0,-2.3322834E-2,5E0,-2.178358E0,1.4968905E0,3.869511E0,1.9230665E0,-1.3050326E-4,-6.4749236E0,-6.891583E-3,2.0658702E-2,1.0926708E-3,3.4165893E-2,-2.4939002E-2,1.5826676E-2,-5.4090763E-3,3.364411E-2,3.224725E-2,-5.1089544E-2,4.2317834E-2,-4.838865E-3,5.726626E-4,4.331675E-2,4.7923367E-2,2.0755157E-2,7.223935E-2,-2.2929098E-2,-3.7725564E-2,-5.6237E-2,-2.149072E-2,-5.594749E-2,3.8804293E-2,-1.0708845E-2,-2.5443558E-2,-4.4538234E-3,-8.180202E-3,6.041815E-3,1.0426915E-2,-3.3571556E-2,-4.5081254E-2,1.8883806E-2],"split_indices":[1,33,59,29,20,19,1,1,21,42,27,21,27,35,27,17,61,20,16,27,1,65,43,29,2,42,19,48,45,7,21,0,0,0,0,0,0,0,0,0,0,0,0,0,0,0,0,0,0,0,0,0,0,0,0,0,0,0,0,0,0,0,0],"split_type":[0,0,0,0,0,0,0,0,0,0,0,0,0,0,0,0,0,0,0,0,0,0,0,0,0,0,0,0,0,0,0,0,0,0,0,0,0,0,0,0,0,0,0,0,0,0,0,0,0,0,0,0,0,0,0,0,0,0,0,0,0,0,0],"sum_hessian":[3.7161309E3,1.7271193E3,1.9890116E3,1.4213765E3,3.0574283E2,3.0408517E2,1.6849265E3,8.917502E2,5.296263E2,5.3150196E1,2.5259262E2,2.0533772E2,9.874743E1,1.2403888E3,4.4453763E2,3.615471E2,5.3020306E2,2.3810756E2,2.915187E2,1.2805771E1,4.0344425E1,4.230985E1,2.1028278E2,2.6517582E0,2.0268597E2,6.824959E1,3.0497845E1,2.721989E2,9.681899E2,4.0420966E2,4.0327965E1,4.4427544E1,3.1711957E2,4.8825555E2,4.1947517E1,1.5619811E1,2.2248775E2,1.307461E1,2.7844412E2,4.700649E0,8.105122E0,2.5543781E1,1.4800645E1,2.5945923E1,1.6363924E1,1.7970665E2,3.0576124E1,1.4321654E0,1.2195927E0,1.5432356E2,4.8362404E1,4.7086258E1,2.116333E1,8.310933E0,2.2186913E1,2.0537204E2,6.682687E1,6.3798505E2,3.3020486E2,1.2070832E1,3.9213882E2,1.0374366E1,2.99536E1],"tree_param":{"num_deleted":"0","num_feature":"66","num_nodes":"63","size_leaf_vector":"1"}},{"base_weights":[9.404793E-3,-5.822761E-1,9.840186E-2,-8.531877E-1,-4.6487218E-1,-9.654323E-2,2.7866423E-1,-5.0000435E-1,-1.0140392E0,-4.8191497E-1,8.3028454E-1,-2.9440463E-1,1.9526703E-2,2.0234695E-1,6.921868E-1,-6.71841E-1,8.8875425E-1,-1.0491264E0,1.7132406E-1,-8.479373E-1,-4.1923258E-1,6.1222102E-2,-5.2667903E-3,-6.6738725E-1,-2.1334755E-1,-7.851581E-2,2.7058482E-1,4.643556E-2,3.4726688E-1,5.4966867E-1,1.0496122E0,-3.7326258E-2,2.8788922E-2,7.25595E-2,-4.014E-3,1.8883322E-3,-5.3895246E-2,4.49712E-2,-2.5599131E-2,-5.8112144E-2,-2.2029521E-2,1.9258533E-2,-2.3847476E-2,-3.6045935E-2,3.6571093E-3,6.358082E-3,-1.407473E-2,-6.247451E-3,1.9302767E-2,1.6572115E-3,2.3923175E-2,-6.0915225E-3,7.796538E-3,1.2472744E-2,2.8614355E-2,2.9074257E-2,-5.9133448E-2,-4.1667637E-3,5.8199175E-2],"categories":[],"categories_nodes":[],"categories_segments":[],"categories_sizes":[],"default_left":[0,0,0,0,0,0,0,0,0,0,0,0,0,0,0,0,0,0,0,0,0,0,0,0,0,0,0,0,0,0,0,0,0,0,0,0,0,0,0,0,0,0,0,0,0,0,0,0,0,0,0,0,0,0,0,0,0,0,0],"id":10,"left_children":[1,3,5,7,9,11,13,15,17,19,21,23,25,27,29,31,33,35,37,39,41,-1,-1,43,45,47,49,51,53,55,57,-1,-1,-1,-1,-1,-1,-1,-1,-1,-1,-1,-1,-1,-1,-1,-1,-1,-1,-1,-1,-1,-1,-1,-1,-1,-1,-1,-1],"loss_changes":[1.9490248E2,1.4862915E1,1.1313735E2,7.5706177E0,7.8714523E0,3.555247E1,5.255597E1,1.190942E1,4.35833E0,7.2347717E0,1.9770124E0,1.7069153E1,2.4049435E1,3.1884918E1,1.2506134E1,4.4440536E0,3.3035226E0,3.1397934E0,2.2929823E0,5.469055E0,1.3628315E1,0E0,0E0,4.1396866E0,1.0998005E1,1.5164433E1,1.3479376E1,1.2596542E1,1.5889473E1,1.0998589E1,9.639694E0,0E0,0E0,0E0,0E0,0E0,0E0,0E0,0E0,0E0,0E0,0E0,0E0,0E0,0E0,0E0,0E0,0E0,0E0,0E0,0E0,0E0,0E0,0E0,0E0,0E0,0E0,0E0,0E0],"parents":[2147483647,0,0,1,1,2,2,3,3,4,4,5,5,6,6,7,7,8,8,9,9,10,10,11,11,12,12,13,13,14,14,15,15,16,16,17,17,18,18,19,19,20,20,23,23,24,24,25,25,26,26,27,27,28,28,29,29,30,30],"right_children":[2,4,6,8,10,12,14,16,18,20,22,24,26,28,30,32,34,36,38,40,42,-1,-1,44,46,48,50,52,54,56,58,-1,-1,-1,-1,-1,-1,-1,-1,-1,-1,-1,-1,-1,-1,-1,-1,-1,-1,-1,-1,-1,-1,-1,-1,-1,-1,-1,-1],"split_conditions":[-5E0,-1.6E1,1.899715E-1,-7.8343517E-1,1.6566627E-2,-2.796189E0,8E0,2.405816E0,2.7990334E0,-8.140739E0,-2.2445107E0,-6.943844E0,1.7602382E0,1.0046754E0,5.0983014E0,-8.785478E-1,7.45677E0,-1.3775447E1,5.9542933E0,1.9467629E0,-5.419956E0,6.1222102E-2,-5.2667903E-3,4.0935926E0,-1.9597362E0,1.1820436E1,1.298918E-1,5.855245E-1,2.214279E0,4.183208E0,0E0,-3.7326258E-2,2.8788922E-2,7.25595E-2,-4.014E-3,1.8883322E-3,-5.3895246E-2,4.49712E-2,-2.5599131E-2,-5.8112144E-2,-2.2029521E-2,1.9258533E-2,-2.3847476E-2,-3.6045935E-2,3.6571093E-3,6.358082E-3,-1.407473E-2,-6.247451E-3,1.9302767E-2,1.6572115E-3,2.3923175E-2,-6.0915225E-3,7.796538E-3,1.2472744E-2,2.8614355E-2,2.9074257E-2,-5.9133448E-2,-4.1667637E-3,5.8199175E-2],"split_indices":[64,59,36,56,10,27,64,27,47,29,45,36,20,29,31,56,30,27,48,18,38,0,0,50,58,30,52,20,19,58,13,0,0,0,0,0,0,0,0,0,0,0,0,0,0,0,0,0,0,0,0,0,0,0,0,0,0,0,0],"split_type":[0,0,0,0,0,0,0,0,0,0,0,0,0,0,0,0,0,0,0,0,0,0,0,0,0,0,0,0,0,0,0,0,0,0,0,0,0,0,0,0,0,0,0,0,0,0,0,0,0,0,0,0,0,0,0,0,0,0,0],"sum_hessian":[3.7001296E3,4.8291174E2,3.2172178E3,1.4385199E2,3.3905975E2,1.5456171E3,1.6716007E3,4.649425E1,9.735774E1,3.3535202E2,3.7077289E0,5.71212E2,9.744051E2,1.412626E3,2.589748E2,4.189825E1,4.596001E0,9.475233E1,2.6054122E0,4.6968018E1,2.88384E2,2.4667315E0,1.2409973E0,1.00463554E2,4.707484E2,7.009579E2,2.7344717E2,6.81475E2,7.31151E2,1.8716368E2,7.181113E1,3.9986404E1,1.9118453E0,2.658574E0,1.9374269E0,2.3464384E0,9.240589E1,1.179092E0,1.4263201E0,2.532712E1,2.16409E1,1.8810812E1,2.6957318E2,9.384145E1,6.6220994E0,7.811234E1,3.9263608E2,6.381246E2,6.2833324E1,1.2841316E2,1.4503401E2,2.6823724E2,4.1323773E2,5.1140564E2,2.1974532E2,1.8449722E2,2.6664565E0,6.5293393E0,6.5281784E1],"tree_param":{"num_deleted":"0","num_feature":"66","num_nodes":"59","size_leaf_vector":"1"}},{"base_weights":[-2.062043E-3,-2.3817325E-1,5.194253E-1,-6.6388E-1,-9.9322714E-2,4.2695355E-1,9.4028527E-1,-1.0334686E0,-5.534273E-1,-3.2345685E-1,5.334108E-4,-7.057753E-2,4.6428648E-1,6.49256E-1,1.0639518E0,-1.1436207E0,-6.4320755E-1,-4.1981307E-1,-7.8476167E-1,-3.3772913E-1,1.3182547E0,2.7502063E-1,-5.4549094E-2,-8.611408E-1,8.9514896E-2,2.7322575E-1,5.6555223E-1,7.41394E-1,-6.631408E-2,3.068647E-1,1.1091738E0,-6.14008E-2,-1.798434E-2,6.692219E-3,-4.581946E-2,-4.2922385E-2,-1.3921456E-2,3.8415793E-2,-4.079173E-2,2.7423779E-2,-1.7846245E-2,1.0919125E-2,7.913208E-2,-4.197701E-4,2.3386711E-2,-8.6126225E-3,4.148031E-3,6.09415E-3,-5.973379E-2,2.2845311E-2,-1.4717269E-2,2.243514E-3,2.1387763E-2,-3.5946723E-2,2.8850773E-2,-9.226865E-3,4.5095783E-2,-2.8795902E-2,3.9168384E-2,-2.181655E-2,5.634826E-2],"categories":[],"categories_nodes":[],"categories_segments":[],"categories_sizes":[],"default_left":[0,0,0,0,0,0,0,0,0,0,0,0,0,0,0,0,0,0,0,0,0,0,0,0,0,0,0,0,0,0,0,0,0,0,0,0,0,0,0,0,0,0,0,0,0,0,0,0,0,0,0,0,0,0,0,0,0,0,0,0,0],"id":11,"left_children":[1,3,5,7,9,11,13,15,17,19,21,23,25,27,29,31,33,35,37,39,41,43,45,47,49,51,53,55,-1,57,59,-1,-1,-1,-1,-1,-1,-1,-1,-1,-1,-1,-1,-1,-1,-1,-1,-1,-1,-1,-1,-1,-1,-1,-1,-1,-1,-1,-1,-1,-1],"loss_changes":[4.5381372E2,1.4983606E2,4.4162964E1,2.4729431E1,4.2883636E1,1.7601166E1,6.547821E0,5.1961517E0,1.4465225E1,1.4180931E1,2.0073368E1,8.577284E0,1.6752396E1,1.2611277E1,4.4029694E0,6.6353455E0,7.370302E0,1.8766712E1,9.088547E0,1.0148239E1,9.9570847E-1,1.2172682E1,1.7895834E1,3.9928875E0,8.068727E0,1.0748766E1,8.833099E0,9.458168E0,0E0,4.488781E0,4.2489777E0,0E0,0E0,0E0,0E0,0E0,0E0,0E0,0E0,0E0,0E0,0E0,0E0,0E0,0E0,0E0,0E0,0E0,0E0,0E0,0E0,0E0,0E0,0E0,0E0,0E0,0E0,0E0,0E0,0E0,0E0],"parents":[2147483647,0,0,1,1,2,2,3,3,4,4,5,5,6,6,7,7,8,8,9,9,10,10,11,11,12,12,13,13,14,14,15,15,16,16,17,17,18,18,19,19,20,20,21,21,22,22,23,23,24,24,25,25,26,26,27,27,29,29,30,30],"right_children":[2,4,6,8,10,12,14,16,18,20,22,24,26,28,30,32,34,36,38,40,42,44,46,48,50,52,54,56,-1,58,60,-1,-1,-1,-1,-1,-1,-1,-1,-1,-1,-1,-1,-1,-1,-1,-1,-1,-1,-1,-1,-1,-1,-1,-1,-1,-1,-1,-1,-1,-1],"split_conditions":[6.240566E1,-1.3639145E2,2.4328609E2,-2.587777E2,-5.187134E1,-6.967836E0,-8.188562E-1,1.353039E0,8.9864874E-1,1.5499019E1,-1.27E2,-2.4285715E1,1.0297285E2,4.4453173E0,0E0,1.457753E0,1.6802387E0,-7.224146E0,-4.5833332E1,-7.59E2,-6.5550976E0,-2.9067842E1,2.297134E-1,-6.9617925E0,-7.978432E-1,8.602911E-1,-1.4925314E1,-2.061524E0,-6.631408E-2,2.5172017E0,-3.577778E1,-6.14008E-2,-1.798434E-2,6.692219E-3,-4.581946E-2,-4.2922385E-2,-1.3921456E-2,3.8415793E-2,-4.079173E-2,2.7423779E-2,-1.7846245E-2,1.0919125E-2,7.913208E-2,-4.197701E-4,2.3386711E-2,-8.6126225E-3,4.148031E-3,6.09415E-3,-5.973379E-2,2.2845311E-2,-1.4717269E-2,2.243514E-3,2.1387763E-2,-3.5946723E-2,2.8850773E-2,-9.226865E-3,4.5095783E-2,-2.8795902E-2,3.9168384E-2,-2.181655E-2,5.634826E-2],"split_indices":[4,4,4,12,12,32,20,52,56,44,16,49,4,56,13,27,52,26,49,16,23,4,43,19,19,34,23,41,0,21,51,0,0,0,0,0,0,0,0,0,0,0,0,0,0,0,0,0,0,0,0,0,0,0,0,0,0,0,0,0,0],"split_type":[0,0,0,0,0,0,0,0,0,0,0,0,0,0,0,0,0,0,0,0,0,0,0,0,0,0,0,0,0,0,0,0,0,0,0,0,0,0,0,0,0,0,0,0,0,0,0,0,0,0,0,0,0,0,0,0,0,0,0,0,0],"sum_hessian":[3.683901E3,2.5362917E3,1.1476091E3,6.2268335E2,1.9136084E3,9.427249E2,2.0488422E2,1.4114215E2,4.815412E2,5.894063E2,1.3242021E3,6.555203E1,8.7717285E2,6.320357E1,1.4168063E2,1.08368286E2,3.277387E1,3.0729858E2,1.742426E2,5.8517426E2,4.2320323E0,2.2095607E2,1.1032461E3,1.0406855E1,5.5145176E1,3.0548743E2,5.716854E2,6.1032387E1,2.1711853E0,8.549255E0,1.3313138E2,9.720911E1,1.1159183E1,8.562434E0,2.4211432E1,7.3497696E1,2.338009E2,2.8892355E0,1.7135336E2,1.1711485E1,5.7346277E2,1.2473168E0,2.9847155E0,8.9609116E1,1.3134695E2,5.946886E2,5.0855743E2,2.7212625E0,7.6855917E0,2.8212914E1,2.6932262E1,1.24074394E2,1.8141304E2,4.43374E0,5.672517E2,8.903289E0,5.2129097E1,2.8502693E0,5.6989865E0,1.1834385E0,1.3194794E2],"tree_param":{"num_deleted":"0","num_feature":"66","num_nodes":"61","size_leaf_vector":"1"}},{"base_weights":[8.666827E-3,-3.3922988E-1,3.16093E-1,-7.584056E-1,-2.1621151E-1,1.9046117E-1,6.5957165E-1,-1.0705668E0,-6.360498E-1,-1.4460807E-1,-5.5142486E-1,4.5673448E-1,8.81404E-2,5.67311E-1,1.0290813E0,-1.6593412E-1,-1.1686763E0,-9.5849264E-1,-5.316368E-1,1.6621539E-1,-2.152447E-1,7.93697E-2,-6.6499144E-1,5.1957977E-1,-2.4972673E-1,3.9672747E-1,1.5053306E-2,6.044919E-1,-1.706095E-1,6.001788E-1,1.1994509E0,4.299957E-2,-3.7020765E-2,-5.9645336E-2,6.5746526E-3,7.8671565E-3,-5.139446E-2,-9.2478115E-3,-3.1028887E-2,-3.7098926E-2,1.0876922E-2,-2.6296696E-2,-7.381398E-3,1.9088192E-2,-3.2797966E-2,-3.503002E-2,1.3755836E-2,-1.8162583E-4,2.8186789E-2,-2.4910202E-2,1.2894588E-2,-6.0225796E-2,2.2335246E-2,4.3184436E-3,-1.2563854E-2,7.263883E-2,2.854811E-2,-4.228517E-2,1.3062472E-2,-1.1943082E-2,5.0087918E-2,6.289276E-2,1.3815336E-2],"categories":[],"categories_nodes":[],"categories_segments":[],"categories_sizes":[],"default_left":[0,0,0,0,0,0,0,0,0,0,0,0,0,0,0,0,0,0,0,0,0,0,0,0,0,0,0,0,0,0,0,0,0,0,0,0,0,0,0,0,0,0,0,0,0,0,0,0,0,0,0,0,0,0,0,0,0,0,0,0,0,0,0],"id":12,"left_children":[1,3,5,7,9,11,13,15,17,19,21,23,25,27,29,31,33,35,37,39,41,43,45,47,49,51,53,55,57,59,61,-1,-1,-1,-1,-1,-1,-1,-1,-1,-1,-1,-1,-1,-1,-1,-1,-1,-1,-1,-1,-1,-1,-1,-1,-1,-1,-1,-1,-1,-1,-1,-1],"loss_changes":[3.9510657E2,8.909834E1,8.44245E1,1.4143509E1,3.2045425E1,3.9075535E1,1.7142258E1,9.334045E0,8.927795E0,2.4341732E1,1.6980614E1,1.785318E1,2.3411018E1,1.173201E1,6.6541214E0,7.6477566E0,3.348526E0,5.527546E0,6.5132027E0,9.676344E0,1.8816055E1,8.380543E0,6.9236984E0,8.524887E0,4.3282843E0,1.637694E1,1.6002163E1,1.0412308E1,6.3745866E0,1.0948746E1,3.4251099E0,0E0,0E0,0E0,0E0,0E0,0E0,0E0,0E0,0E0,0E0,0E0,0E0,0E0,0E0,0E0,0E0,0E0,0E0,0E0,0E0,0E0,0E0,0E0,0E0,0E0,0E0,0E0,0E0,0E0,0E0,0E0,0E0],"parents":[2147483647,0,0,1,1,2,2,3,3,4,4,5,5,6,6,7,7,8,8,9,9,10,10,11,11,12,12,13,13,14,14,15,15,16,16,17,17,18,18,19,19,20,20,21,21,22,22,23,23,24,24,25,25,26,26,27,27,28,28,29,29,30,30],"right_children":[2,4,6,8,10,12,14,16,18,20,22,24,26,28,30,32,34,36,38,40,42,44,46,48,50,52,54,56,58,60,62,-1,-1,-1,-1,-1,-1,-1,-1,-1,-1,-1,-1,-1,-1,-1,-1,-1,-1,-1,-1,-1,-1,-1,-1,-1,-1,-1,-1,-1,-1,-1,-1],"split_conditions":[-1.1077795E1,-1.8249391E2,1.5247781E2,-3.124969E2,9.3E1,-3E0,3.0427322E2,2.5E1,-7.361741E0,-5.7E0,-2.7E2,7.7E1,-7.8E1,3.912391E-3,-1.726166E0,-4.289385E0,3.5384614E-2,-1.16E1,-5.7E0,-7.787636E0,-9.316559E0,2.97E2,8.49997E0,-6.5130816E0,3.570507E1,-1.2977476E1,7E0,-4.22E2,1.0677993E0,3.0931058E0,2.8305542E0,4.299957E-2,-3.7020765E-2,-5.9645336E-2,6.5746526E-3,7.8671565E-3,-5.139446E-2,-9.2478115E-3,-3.1028887E-2,-3.7098926E-2,1.0876922E-2,-2.6296696E-2,-7.381398E-3,1.9088192E-2,-3.2797966E-2,-3.503002E-2,1.3755836E-2,-1.8162583E-4,2.8186789E-2,-2.4910202E-2,1.2894588E-2,-6.0225796E-2,2.2335246E-2,4.3184436E-3,-1.2563854E-2,7.263883E-2,2.854811E-2,-4.228517E-2,1.3062472E-2,-1.1943082E-2,5.0087918E-2,6.289276E-2,1.3815336E-2],"split_indices":[4,4,4,4,1,0,4,1,32,0,16,1,1,5,42,21,8,0,0,19,35,1,44,44,4,30,0,1,21,33,53,0,0,0,0,0,0,0,0,0,0,0,0,0,0,0,0,0,0,0,0,0,0,0,0,0,0,0,0,0,0,0,0],"split_type":[0,0,0,0,0,0,0,0,0,0,0,0,0,0,0,0,0,0,0,0,0,0,0,0,0,0,0,0,0,0,0,0,0,0,0,0,0,0,0,0,0,0,0,0,0,0,0,0,0,0,0,0,0,0,0,0,0,0,0,0,0,0,0],"sum_hessian":[3.6922422E3,1.7319097E3,1.9603324E3,3.915965E2,1.3403132E3,1.43669E3,5.236425E2,1.0785747E2,2.8373904E2,1.1058312E3,2.3448198E2,3.975886E2,1.0391013E3,4.2126526E2,1.0237727E2,1.0915953E1,9.694151E1,6.717018E1,2.1656885E2,2.0425888E2,9.015723E2,3.5686325E1,1.9879565E2,3.6548218E2,3.2106438E1,1.9786838E2,8.412329E2,4.013587E2,1.9906532E1,3.0557924E1,7.181935E1,3.6775022E0,7.2384505E0,9.532442E1,1.617095E0,3.7743042E0,6.3395878E1,4.5075253E1,1.714936E2,1.010147E1,1.9415741E2,1.5966722E2,7.419051E2,2.5724352E1,9.961974E0,1.9188853E2,6.907122E0,2.8339182E1,3.3714297E2,2.1699942E1,1.0406494E1,5.229114E0,1.9263927E2,6.643819E2,1.7685103E2,1.3538186E1,3.8782053E2,7.482676E0,1.2423856E1,9.941929E0,2.0615995E1,6.7103065E1,4.7162857E0],"tree_param":{"num_deleted":"0","num_feature":"66","num_nodes":"63","size_leaf_vector":"1"}},{"base_weights":[-1.4138338E-2,-5.054046E-1,2.0039828E-1,-9.6207356E-1,-4.1919583E-1,5.5929376E-3,5.3371346E-1,-6.148242E-2,-9.9567664E-1,-2.9540125E-1,-6.0130537E-1,8.096516E-2,-3.3532366E-1,3.7412953E-1,7.4500984E-1,9.085041E-1,-5.8364827E-2,-1.0183985E0,-6.753628E-2,-6.673886E-1,-2.2131895E-1,7.742398E-2,-6.624967E-1,1.8882494E-1,-1.0820728E-1,4.3779117E-1,-3.9749336E-1,4.740851E-1,9.135826E-2,5.8795285E-1,9.3644595E-1,6.2362966E-3,7.545637E-2,-5.156953E-2,1.8351061E-2,3.749768E-2,-3.7279505E-2,-1.7604042E-2,-5.0959583E-2,3.583625E-4,-1.615206E-2,-2.08622E-2,3.0223519E-2,-4.5505386E-2,-2.573475E-2,-6.7932517E-3,1.3711996E-2,1.0550675E-2,-9.058349E-3,3.8846448E-2,-1.3332078E-2,-2.6524736E-2,-7.256654E-3,2.4719242E-2,-2.9283065E-2,1.0891253E-2,-1.9289048E-2,2.238569E-2,4.446176E-2,9.646317E-3,5.0938167E-2],"categories":[],"categories_nodes":[],"categories_segments":[],"categories_sizes":[],"default_left":[0,0,0,0,0,0,0,0,0,0,0,0,0,0,0,0,0,0,0,0,0,0,0,0,0,0,0,0,0,0,0,0,0,0,0,0,0,0,0,0,0,0,0,0,0,0,0,0,0,0,0,0,0,0,0,0,0,0,0,0,0],"id":13,"left_children":[1,3,5,7,9,11,13,15,17,19,21,23,25,27,29,31,-1,33,35,37,39,41,43,45,47,49,51,53,55,57,59,-1,-1,-1,-1,-1,-1,-1,-1,-1,-1,-1,-1,-1,-1,-1,-1,-1,-1,-1,-1,-1,-1,-1,-1,-1,-1,-1,-1,-1,-1],"loss_changes":[3.886865E2,4.3592163E1,1.665989E2,5.191452E0,2.1036163E1,4.165676E1,3.1526367E1,9.175917E0,3.4187622E0,1.5329262E1,1.5938644E1,2.7137955E1,1.4275204E1,1.5206512E1,1.1504059E1,1.7817647E0,0E0,3.4377441E0,3.4693494E0,9.829952E0,1.1021803E1,8.686444E0,1.2192352E1,2.3537712E1,1.1278775E1,5.561431E0,8.993881E0,8.876976E0,8.692084E0,9.017151E0,1.0760437E1,0E0,0E0,0E0,0E0,0E0,0E0,0E0,0E0,0E0,0E0,0E0,0E0,0E0,0E0,0E0,0E0,0E0,0E0,0E0,0E0,0E0,0E0,0E0,0E0,0E0,0E0,0E0,0E0,0E0,0E0],"parents":[2147483647,0,0,1,1,2,2,3,3,4,4,5,5,6,6,7,7,8,8,9,9,10,10,11,11,12,12,13,13,14,14,15,15,17,17,18,18,19,19,20,20,21,21,22,22,23,23,24,24,25,25,26,26,27,27,28,28,29,29,30,30],"right_children":[2,4,6,8,10,12,14,16,18,20,22,24,26,28,30,32,-1,34,36,38,40,42,44,46,48,50,52,54,56,58,60,-1,-1,-1,-1,-1,-1,-1,-1,-1,-1,-1,-1,-1,-1,-1,-1,-1,-1,-1,-1,-1,-1,-1,-1,-1,-1,-1,-1,-1,-1],"split_conditions":[-5.6265965E1,-2.5440965E2,8.229046E1,8E0,7.447603E-17,7E1,1.4833817E2,-4.015361E0,5.3033223E0,-7.361741E0,-3.9E1,5.4E1,-2.83E2,-2E1,1.8178356E0,4.1792575E-1,-5.8364827E-2,1.0903372E1,-3.9383368E0,1.0766715E0,-1.2190983E0,7.4265605E-1,-1.4002837E2,-5.584972E1,-5.5E1,2.01E2,9.7144515E-17,5.980505E0,1.6901432E1,7.724964E0,1.3498212E2,6.2362966E-3,7.545637E-2,-5.156953E-2,1.8351061E-2,3.749768E-2,-3.7279505E-2,-1.7604042E-2,-5.0959583E-2,3.583625E-4,-1.615206E-2,-2.08622E-2,3.0223519E-2,-4.5505386E-2,-2.573475E-2,-6.7932517E-3,1.3711996E-2,1.0550675E-2,-9.058349E-3,3.8846448E-2,-1.3332078E-2,-2.6524736E-2,-7.256654E-3,2.4719242E-2,-2.9283065E-2,1.0891253E-2,-1.9289048E-2,2.238569E-2,4.446176E-2,9.646317E-3,5.0938167E-2],"split_indices":[12,4,4,1,9,1,12,31,58,32,1,16,16,1,20,58,0,25,26,56,58,21,12,4,1,1,11,58,51,25,4,0,0,0,0,0,0,0,0,0,0,0,0,0,0,0,0,0,0,0,0,0,0,0,0,0,0,0,0,0,0],"split_type":[0,0,0,0,0,0,0,0,0,0,0,0,0,0,0,0,0,0,0,0,0,0,0,0,0,0,0,0,0,0,0,0,0,0,0,0,0,0,0,0,0,0,0,0,0,0,0,0,0,0,0,0,0,0,0,0,0,0,0,0,0],"sum_hessian":[3.6856663E3,1.1200288E3,2.5656375E3,1.7606248E2,9.439663E2,1.6200939E3,9.4554364E2,6.541821E0,1.6952066E2,5.638459E2,3.8012045E2,1.3276283E3,2.9246548E2,5.4053925E2,4.0500436E2,3.531817E0,3.010004E0,1.6526968E2,4.250977E0,9.208809E1,4.717578E2,3.1278831E1,3.488416E2,8.4587134E2,4.81757E2,2.1198605E1,2.7126688E2,3.9860715E2,1.419321E2,2.250026E2,1.8000177E2,2.128458E0,1.4033587E0,1.6405891E2,1.2107694E0,1.8123786E0,2.4385986E0,4.976797E1,4.2320114E1,1.4531071E2,3.2644708E2,1.6144629E1,1.5134204E1,1.2821306E2,2.2062856E2,1.758078E2,6.7006354E2,8.901716E1,3.9273984E2,1.4335873E1,6.862731E0,1.7666226E2,9.460464E1,3.917313E2,6.875866E0,1.1278994E2,2.9142162E1,1.5545863E2,6.954397E1,1.8396503E1,1.6160526E2],"tree_param":{"num_deleted":"0","num_feature":"66","num_nodes":"61","size_leaf_vector":"1"}},{"base_weights":[-1.4723961E-2,-3.8170773E-1,2.355558E-1,-8.046952E-1,-2.7637747E-1,7.707483E-2,4.8663276E-1,-1.0141637E0,-6.782864E-1,1.5927222E-2,-3.5876498E-1,1.6166079E-1,-1.9139749E-1,4.0023103E-1,8.0857193E-1,-1.0683933E0,-3.2658947E-1,-4.4658092E-1,-7.9409504E-1,-6.5978694E-1,8.52993E-2,-3.678702E-1,1.1774157E0,1.20013304E-1,5.6118923E-1,8.7869495E-2,-3.4552988E-1,6.025829E-1,2.6423556E-1,6.962023E-1,1.0858306E0,-5.4532982E-2,1.3494963E-2,4.8879586E-2,-3.15545E-2,-3.9226998E-2,-4.6130206E-4,-1.4713834E-2,-4.6843655E-2,1.5276203E-2,-4.378524E-2,-3.703967E-2,6.4996863E-3,-3.5423893E-2,-1.6347017E-2,7.1659066E-2,4.960255E-3,-1.074436E-3,1.094562E-2,-0E0,3.8578533E-2,-6.3847624E-2,7.742844E-3,1.1688209E-2,-2.106261E-2,1.7818196E-2,3.9283235E-2,9.178479E-3,2.926952E-2,-3.677525E-2,3.61545E-2,1.7059295E-2,5.9062082E-2],"categories":[],"categories_nodes":[],"categories_segments":[],"categories_sizes":[],"default_left":[0,0,0,0,0,0,0,0,0,0,0,0,0,0,0,0,0,0,0,0,0,0,0,0,0,0,0,0,0,0,0,0,0,0,0,0,0,0,0,0,0,0,0,0,0,0,0,0,0,0,0,0,0,0,0,0,0,0,0,0,0,0,0],"id":14,"left_children":[1,3,5,7,9,11,13,15,17,19,21,23,25,27,29,31,33,35,37,39,41,43,45,47,49,51,53,55,57,59,61,-1,-1,-1,-1,-1,-1,-1,-1,-1,-1,-1,-1,-1,-1,-1,-1,-1,-1,-1,-1,-1,-1,-1,-1,-1,-1,-1,-1,-1,-1,-1,-1],"loss_changes":[3.3866968E2,6.628316E1,8.712697E1,7.0169067E0,2.890908E1,3.0576355E1,2.313707E1,3.5982285E0,4.586731E0,1.2386987E1,1.3437195E1,1.689907E1,1.3936183E1,1.8208618E1,4.6163635E0,3.3865051E0,4.389691E0,9.592015E0,8.471001E0,5.448983E0,8.921936E0,1.2641251E1,1.2724743E0,1.3019745E1,1.1372925E1,1.0621942E1,9.250719E0,1.1707924E1,1.0259548E1,5.5280113E0,2.9500008E0,0E0,0E0,0E0,0E0,0E0,0E0,0E0,0E0,0E0,0E0,0E0,0E0,0E0,0E0,0E0,0E0,0E0,0E0,0E0,0E0,0E0,0E0,0E0,0E0,0E0,0E0,0E0,0E0,0E0,0E0,0E0,0E0],"parents":[2147483647,0,0,1,1,2,2,3,3,4,4,5,5,6,6,7,7,8,8,9,9,10,10,11,11,12,12,13,13,14,14,15,15,16,16,17,17,18,18,19,19,20,20,21,21,22,22,23,23,24,24,25,25,26,26,27,27,28,28,29,29,30,30],"right_children":[2,4,6,8,10,12,14,16,18,20,22,24,26,28,30,32,34,36,38,40,42,44,46,48,50,52,54,56,58,60,62,-1,-1,-1,-1,-1,-1,-1,-1,-1,-1,-1,-1,-1,-1,-1,-1,-1,-1,-1,-1,-1,-1,-1,-1,-1,-1,-1,-1,-1,-1,-1,-1],"split_conditions":[-3.1933449E1,-2.089365E2,9.9164825E1,-3.124969E2,-5.4E0,4.8E0,2.574774E2,4.389959E-1,-8.0307776E-1,-7.595848E0,1.427348E1,8.107943E0,-2.7198625E0,-7E-1,5E0,1.30132055E-2,-1.3496104E1,-3.799887E0,-6.8835506E0,-1.7377739E-16,-2.4615385E-2,-6.9345555E0,6.3E0,-7.4610764E-1,3.0104067E0,-1.665396E1,-3.299652E0,1.9886769E0,2.1296297E1,-5.33E2,-9.090909E-2,-5.4532982E-2,1.3494963E-2,4.8879586E-2,-3.15545E-2,-3.9226998E-2,-4.6130206E-4,-1.4713834E-2,-4.6843655E-2,1.5276203E-2,-4.378524E-2,-3.703967E-2,6.4996863E-3,-3.5423893E-2,-1.6347017E-2,7.1659066E-2,4.960255E-3,-1.074436E-3,1.094562E-2,-0E0,3.8578533E-2,-6.3847624E-2,7.742844E-3,1.1688209E-2,-2.106261E-2,1.7818196E-2,3.9283235E-2,9.178479E-3,2.926952E-2,-3.677525E-2,3.61545E-2,1.7059295E-2,5.9062082E-2],"split_indices":[4,4,4,4,0,0,4,31,56,19,19,27,48,0,2,10,48,25,47,9,8,41,0,18,50,30,56,25,49,16,6,0,0,0,0,0,0,0,0,0,0,0,0,0,0,0,0,0,0,0,0,0,0,0,0,0,0,0,0,0,0,0,0],"split_type":[0,0,0,0,0,0,0,0,0,0,0,0,0,0,0,0,0,0,0,0,0,0,0,0,0,0,0,0,0,0,0,0,0,0,0,0,0,0,0,0,0,0,0,0,0,0,0,0,0,0,0,0,0,0,0,0,0,0,0,0,0,0,0],"sum_hessian":[3.6851216E3,1.494143E3,2.1909785E3,2.9637292E2,1.19777E3,1.3442113E3,8.467673E2,1.0860035E2,1.8777258E2,2.6327673E2,9.344932E2,1.02275E3,3.2146136E2,6.6961145E2,1.7715584E2,1.0001293E2,8.5874195E0,6.448109E1,1.232915E2,2.3586048E1,2.3969069E2,9.298077E2,4.6855235E0,9.276056E2,9.514441E1,1.14245384E2,2.0721599E2,2.6746936E2,4.021421E2,1.2881879E2,4.833706E1,9.8631676E1,1.3812569E0,1.1449015E0,7.4425178E0,3.5797028E1,2.8684061E1,2.8229803E1,9.506169E1,4.1507983E0,1.9435251E1,1.1388243E1,2.2830244E2,9.773448E1,8.3207324E2,3.4460964E0,1.2394272E0,3.815155E2,5.4609E2,2.6178806E1,6.896561E1,4.430083E0,1.098153E2,2.356099E1,1.83655E2,1.15555855E2,1.5191351E2,3.229166E2,7.92255E1,1.8202624E0,1.2699852E2,6.1287403E0,4.220832E1],"tree_param":{"num_deleted":"0","num_feature":"66","num_nodes":"63","size_leaf_vector":"1"}},{"base_weights":[-2.2920799E-3,-3.054333E-1,2.5110942E-1,-6.21569E-1,-1.6288675E-1,1.3025185E-1,5.710304E-1,-8.586189E-1,-4.93839E-1,-1.037831E-1,-4.526854E-1,5.002334E-1,6.222325E-2,4.8933136E-1,8.8560045E-1,-8.94709E-1,-6.486369E-2,-4.3243918E-1,-8.767005E-1,-3.0431926E-1,-2.2075057E-3,-6.102276E-1,-2.0232646E-1,1.3107541E0,4.4404042E-1,1.05257936E-1,-4.7465366E-1,8.5190225E-1,3.9967412E-1,-3.980462E-2,9.215846E-1,-4.55229E-2,1.1458083E-2,-3.6413208E-2,3.914969E-2,-3.1320155E-2,-1.5957775E-2,1.824613E-2,-4.6081226E-2,-8.457744E-3,-2.9836942E-2,-3.5806295E-2,1.6685037E-3,-8.824582E-3,-3.7520062E-2,-1.3382666E-2,4.7518834E-2,1.6115112E-2,8.0062464E-2,-5.6705873E-2,2.352503E-2,1.3866245E-2,2.5354495E-4,3.628968E-2,-2.8285727E-2,-2.7387181E-2,4.615118E-2,6.0864057E-2,1.7665451E-2,3.0740941E-2,5.5357855E-2],"categories":[],"categories_nodes":[],"categories_segments":[],"categories_sizes":[],"default_left":[0,0,0,0,0,0,0,0,0,0,0,0,0,0,0,0,0,0,0,0,0,0,0,0,0,0,0,0,0,0,0,0,0,0,0,0,0,0,0,0,0,0,0,0,0,0,0,0,0,0,0,0,0,0,0,0,0,0,0,0,0],"id":15,"left_children":[1,3,5,7,9,11,13,15,17,19,21,23,25,27,29,31,33,35,37,39,41,43,45,47,49,51,53,55,57,-1,59,-1,-1,-1,-1,-1,-1,-1,-1,-1,-1,-1,-1,-1,-1,-1,-1,-1,-1,-1,-1,-1,-1,-1,-1,-1,-1,-1,-1,-1,-1],"loss_changes":[2.779908E2,7.408032E1,7.6062035E1,1.4929504E1,1.9377792E1,3.5956512E1,1.3304489E1,4.930588E0,7.366234E0,1.9243477E1,7.371273E0,9.355717E0,2.799258E1,1.3547249E1,7.39209E0,3.2782135E0,5.580766E0,6.0984154E0,2.9080467E0,1.2383816E1,1.6079731E1,6.897503E0,5.903599E0,3.2450714E0,9.206329E0,1.9314663E1,1.021937E1,8.940495E0,1.2594151E1,0E0,5.29776E0,0E0,0E0,0E0,0E0,0E0,0E0,0E0,0E0,0E0,0E0,0E0,0E0,0E0,0E0,0E0,0E0,0E0,0E0,0E0,0E0,0E0,0E0,0E0,0E0,0E0,0E0,0E0,0E0,0E0,0E0],"parents":[2147483647,0,0,1,1,2,2,3,3,4,4,5,5,6,6,7,7,8,8,9,9,10,10,11,11,12,12,13,13,14,14,15,15,16,16,17,17,18,18,19,19,20,20,21,21,22,22,23,23,24,24,25,25,26,26,27,27,28,28,30,30],"right_children":[2,4,6,8,10,12,14,16,18,20,22,24,26,28,30,32,34,36,38,40,42,44,46,48,50,52,54,56,58,-1,60,-1,-1,-1,-1,-1,-1,-1,-1,-1,-1,-1,-1,-1,-1,-1,-1,-1,-1,-1,-1,-1,-1,-1,-1,-1,-1,-1,-1,-1,-1],"split_conditions":[-1.49094515E1,-1.516179E2,1.23874374E2,-2.5440965E2,9.1E1,-1.06E2,2.83979E2,-3.5388374E1,2.6194549E0,-8.231923E1,-4.822622E-1,-1.2897647E1,9.8E1,1.7E1,-4.47E2,6.6838164E0,-1E1,-2.1074219E0,-7.27E2,-3.2E1,-8.204019E0,-2.18314E0,8.323468E0,-2.8938429E1,-1.0637329E1,-1.7377739E-16,-7.5007504E-4,-7.7296295E0,-2.87E2,-3.980462E-2,3.5799553E0,-4.55229E-2,1.1458083E-2,-3.6413208E-2,3.914969E-2,-3.1320155E-2,-1.5957775E-2,1.824613E-2,-4.6081226E-2,-8.457744E-3,-2.9836942E-2,-3.5806295E-2,1.6685037E-3,-8.824582E-3,-3.7520062E-2,-1.3382666E-2,4.7518834E-2,1.6115112E-2,8.0062464E-2,-5.6705873E-2,2.352503E-2,1.3866245E-2,2.5354495E-4,3.628968E-2,-2.8285727E-2,-2.7387181E-2,4.615118E-2,6.0864057E-2,1.7665451E-2,3.0740941E-2,5.5357855E-2],"split_indices":[4,4,12,4,1,1,4,12,58,12,48,48,1,16,16,34,64,17,16,16,34,58,33,50,45,9,5,50,1,0,31,0,0,0,0,0,0,0,0,0,0,0,0,0,0,0,0,0,0,0,0,0,0,0,0,0,0,0,0,0,0],"split_type":[0,0,0,0,0,0,0,0,0,0,0,0,0,0,0,0,0,0,0,0,0,0,0,0,0,0,0,0,0,0,0,0,0,0,0,0,0,0,0,0,0,0,0,0,0,0,0,0,0,0,0,0,0,0,0,0,0,0,0,0,0],"sum_hessian":[3.6168281E3,1.6468774E3,1.9699507E3,5.105444E2,1.1363331E3,1.4310557E3,5.388949E2,1.7649258E2,3.3405182E2,9.452542E2,1.910789E2,2.210463E2,1.2100094E3,4.3007172E2,1.0882319E2,1.6857474E2,7.9178457E0,2.8994394E2,4.4107864E1,3.1680997E2,6.284442E2,1.1615177E2,7.4927124E1,1.2768565E1,2.0827773E2,1.1211326E3,8.887692E1,8.335795E1,3.4671378E2,1.7790346E0,1.0704415E2,1.6652014E2,2.0546062E0,4.5874352E0,3.3304102E0,1.0490823E2,1.8503572E2,1.2137159E0,4.2894146E1,2.1797592E2,9.8834045E1,2.905683E1,5.993874E2,2.9095325E1,8.705645E1,7.171726E1,3.2098577E0,3.4575353E0,9.311029E0,2.6818886E0,2.0559584E2,4.115488E2,7.0958374E2,5.697584E0,8.317934E1,3.638853E0,7.971909E1,1.7135399E1,3.2957837E2,4.2175953E1,6.48682E1],"tree_param":{"num_deleted":"0","num_feature":"66","num_nodes":"61","size_leaf_vector":"1"}},{"base_weights":[-1.300587E-3,-2.2114837E-1,3.409869E-1,-5.7724494E-1,-1.16813E-1,2.5370246E-1,7.4439275E-1,-9.6825933E-1,-4.7825477E-1,-5.480727E-2,-4.6404508E-1,5.0500643E-1,1.5502355E-1,6.2836504E-1,1.0692548E0,-1.0089705E0,-2.2283223E-1,-2.8293896E-1,-6.50893E-1,8.312096E-2,-1.598148E-1,1.6207933E-1,-5.28049E-1,-1.4675292E-1,5.401858E-1,4.3091476E-1,5.3854425E-2,6.9043624E-1,-3.199434E-1,4.837051E-1,1.1732911E0,-5.2468907E-2,-1.2997654E-2,1.7670238E-2,-4.020516E-2,8.457938E-3,-1.9338425E-2,4.23989E-4,-3.462784E-2,1.9273616E-2,5.059319E-4,5.2337494E-2,-8.656188E-3,3.0561933E-2,-2.8555667E-2,-3.1202922E-2,-1.06596425E-2,9.95556E-3,-5.128166E-2,2.1302951E-2,3.757016E-2,-1.7848562E-2,2.437074E-2,7.1476037E-3,-9.69975E-3,2.9613022E-2,5.753922E-2,-6.144901E-2,7.5260005E-3,5.7411343E-2,-0E0,6.4550675E-2,3.3045124E-2],"categories":[],"categories_nodes":[],"categories_segments":[],"categories_sizes":[],"default_left":[0,0,0,0,0,0,0,0,0,0,0,0,0,0,0,0,0,0,0,0,0,0,0,0,0,0,0,0,0,0,0,0,0,0,0,0,0,0,0,0,0,0,0,0,0,0,0,0,0,0,0,0,0,0,0,0,0,0,0,0,0,0,0],"id":16,"left_children":[1,3,5,7,9,11,13,15,17,19,21,23,25,27,29,31,33,35,37,39,41,43,45,47,49,51,53,55,57,59,61,-1,-1,-1,-1,-1,-1,-1,-1,-1,-1,-1,-1,-1,-1,-1,-1,-1,-1,-1,-1,-1,-1,-1,-1,-1,-1,-1,-1,-1,-1,-1,-1],"loss_changes":[2.7388214E2,8.2211205E1,4.98273E1,1.8814423E1,3.6861275E1,2.891558E1,8.674225E0,2.6924286E0,1.3297394E1,2.11246E1,1.052425E1,7.6776047E0,2.3462526E1,1.1363602E1,3.2134705E0,2.4591446E0,2.5395958E0,9.049638E0,5.916504E0,1.3863467E1,1.3390306E1,8.485068E0,6.9135437E0,5.6137333E0,7.11084E0,1.0239643E1,1.3677417E1,7.1660767E0,5.499735E0,3.7348275E0,2.2188416E0,0E0,0E0,0E0,0E0,0E0,0E0,0E0,0E0,0E0,0E0,0E0,0E0,0E0,0E0,0E0,0E0,0E0,0E0,0E0,0E0,0E0,0E0,0E0,0E0,0E0,0E0,0E0,0E0,0E0,0E0,0E0,0E0],"parents":[2147483647,0,0,1,1,2,2,3,3,4,4,5,5,6,6,7,7,8,8,9,9,10,10,11,11,12,12,13,13,14,14,15,15,16,16,17,17,18,18,19,19,20,20,21,21,22,22,23,23,24,24,25,25,26,26,27,27,28,28,29,29,30,30],"right_children":[2,4,6,8,10,12,14,16,18,20,22,24,26,28,30,32,34,36,38,40,42,44,46,48,50,52,54,56,58,60,62,-1,-1,-1,-1,-1,-1,-1,-1,-1,-1,-1,-1,-1,-1,-1,-1,-1,-1,-1,-1,-1,-1,-1,-1,-1,-1,-1,-1,-1,-1,-1,-1],"split_conditions":[3.1979862E1,-1.5457524E2,2.2000082E2,-3.124969E2,9.5E1,-2.8E0,3.5482245E2,9.658596E-1,6.898677E-2,-1.1E0,-9.4E0,-7.8655996E0,-7.5E1,1.13E1,-4.5580263E0,3.075077E-4,0E0,-1E-1,-9.411764E-3,-3.8E1,-5.05E2,4E0,5.1849375E0,-6.1466618E0,-1.6E1,3E0,5.9E0,5.452523E0,7.09E2,2.17E2,3.8415366E-3,-5.2468907E-2,-1.2997654E-2,1.7670238E-2,-4.020516E-2,8.457938E-3,-1.9338425E-2,4.23989E-4,-3.462784E-2,1.9273616E-2,5.059319E-4,5.2337494E-2,-8.656188E-3,3.0561933E-2,-2.8555667E-2,-3.1202922E-2,-1.06596425E-2,9.95556E-3,-5.128166E-2,2.1302951E-2,3.757016E-2,-1.7848562E-2,2.437074E-2,7.1476037E-3,-9.69975E-3,2.9613022E-2,5.753922E-2,-6.144901E-2,7.5260005E-3,5.7411343E-2,-0E0,6.4550675E-2,3.3045124E-2],"split_indices":[4,4,4,4,1,0,4,33,58,0,0,29,1,0,23,7,65,11,10,1,1,15,21,30,16,16,0,33,16,16,10,0,0,0,0,0,0,0,0,0,0,0,0,0,0,0,0,0,0,0,0,0,0,0,0,0,0,0,0,0,0,0,0],"split_type":[0,0,0,0,0,0,0,0,0,0,0,0,0,0,0,0,0,0,0,0,0,0,0,0,0,0,0,0,0,0,0,0,0,0,0,0,0,0,0,0,0,0,0,0,0,0,0,0,0,0,0,0,0,0,0,0,0,0,0,0,0,0,0],"sum_hessian":[3.6377314E3,2.2154294E3,1.4223018E3,5.0077924E2,1.7146503E3,1.1708444E3,2.5145743E2,9.918879E1,4.0159045E2,1.4560815E3,2.5856873E2,3.2867703E2,8.4216736E2,1.8767094E2,6.378648E1,9.358974E1,5.599055E0,1.8992978E2,2.1166068E2,6.2906104E2,8.2702057E2,2.3693188E1,2.3487553E2,1.6524134E1,3.1215292E2,2.2482231E2,6.1734503E2,1.7649586E2,1.117509E1,1.0620662E1,5.316582E1,8.829207E1,5.297665E0,2.9221692E0,2.6768856E0,3.517545E1,1.5475433E2,1.2484059E1,1.991766E2,1.21246826E2,5.0781418E2,8.093742E0,8.189268E2,1.4880194E1,8.812995E0,1.7899481E2,5.588072E1,1.2331147E1,4.1929855E0,2.0491962E2,1.0723329E2,1.4569154E1,2.1025316E2,4.547109E2,1.6263414E2,1.4753557E2,2.896029E1,3.3337827E0,7.8413067E0,3.8950236E0,6.725638E0,4.1838562E1,1.1327256E1],"tree_param":{"num_deleted":"0","num_feature":"66","num_nodes":"63","size_leaf_vector":"1"}},{"base_weights":[2.892324E-3,2.887028E-1,-2.6120907E-1,4.4046336E-1,1.6534926E-1,-6.324614E-1,-2.082147E-1,4.055064E-1,1.0157813E0,1.14931904E-1,5.5050117E-1,2.1050979E-1,-6.8716574E-1,-2.9449975E-1,-5.632703E-2,7.405702E-1,3.4779528E-1,1.1031134E0,9.259731E-2,-2.8853852E-1,1.5127343E-1,6.070718E-1,-2.1985564E-1,-9.708892E-1,6.8418455E-1,-6.063967E-1,-1.1442449E0,-2.7538642E-1,-1.0068526E0,1.8431796E-1,-1.3846421E-1,-1.5687926E-2,3.9589595E-2,1.5061965E-3,1.9969607E-2,6.37283E-2,2.865552E-2,3.7504647E-2,-5.8794875E-2,-3.2585174E-2,4.9278773E-3,3.0009462E-3,1.4732738E-2,-3.888124E-2,3.1777643E-2,2.5080679E-2,-4.0159605E-2,-6.277774E-2,-2.6488132E-3,4.7080513E-2,-2.962854E-2,-3.1705566E-2,2.7005885E-2,-6.176607E-2,7.105314E-3,-1.8075546E-2,-6.48456E-3,-5.5739947E-2,3.3043604E-2,1.2492687E-2,-4.2275604E-2,-3.0329704E-2,-4.0978496E-3],"categories":[],"categories_nodes":[],"categories_segments":[],"categories_sizes":[],"default_left":[0,0,0,0,0,0,0,0,0,0,0,0,0,0,0,0,0,0,0,0,0,0,0,0,0,0,0,0,0,0,0,0,0,0,0,0,0,0,0,0,0,0,0,0,0,0,0,0,0,0,0,0,0,0,0,0,0,0,0,0,0,0,0],"id":17,"left_children":[1,3,5,7,9,11,13,15,17,19,21,23,25,27,29,31,33,35,37,39,41,43,45,47,49,51,53,55,57,59,61,-1,-1,-1,-1,-1,-1,-1,-1,-1,-1,-1,-1,-1,-1,-1,-1,-1,-1,-1,-1,-1,-1,-1,-1,-1,-1,-1,-1,-1,-1,-1,-1],"loss_changes":[2.7514517E2,3.2641464E1,3.7053635E1,1.52139435E1,1.8662106E1,1.1070686E1,2.169609E1,1.3961342E1,3.3323097E0,1.2599076E1,5.0323143E0,9.046298E0,7.3220596E0,1.3994057E1,1.1936413E1,6.114109E0,1.0340462E1,2.7269783E0,5.0098357E0,1.0093424E1,1.0247633E1,4.592579E0,3.902007E0,1.0188317E0,4.3316317E0,6.4166946E0,4.0344734E0,1.2846779E1,5.66473E0,1.05128E1,1.1793377E1,0E0,0E0,0E0,0E0,0E0,0E0,0E0,0E0,0E0,0E0,0E0,0E0,0E0,0E0,0E0,0E0,0E0,0E0,0E0,0E0,0E0,0E0,0E0,0E0,0E0,0E0,0E0,0E0,0E0,0E0,0E0,0E0],"parents":[2147483647,0,0,1,1,2,2,3,3,4,4,5,5,6,6,7,7,8,8,9,9,10,10,11,11,12,12,13,13,14,14,15,15,16,16,17,17,18,18,19,19,20,20,21,21,22,22,23,23,24,24,25,25,26,26,27,27,28,28,29,29,30,30],"right_children":[2,4,6,8,10,12,14,16,18,20,22,24,26,28,30,32,34,36,38,40,42,44,46,48,50,52,54,56,58,60,62,-1,-1,-1,-1,-1,-1,-1,-1,-1,-1,-1,-1,-1,-1,-1,-1,-1,-1,-1,-1,-1,-1,-1,-1,-1,-1,-1,-1,-1,-1,-1,-1],"split_conditions":[-3E0,-5.3E1,-5.563526E0,1.3E1,1.4E1,7E0,8.1826866E-1,-2.59E2,9.355911E0,-1.2245822E1,1.0281513E1,2E0,2.1128452E-3,3.73E2,-8.378213E-1,0E0,-2.9591057E0,9.6831363E-1,2E0,0E0,2E0,-3E0,8.120021E0,8.79022E-1,-3.7668128E0,1.1044418E-3,2E0,2.5140483E0,1E0,7.842013E0,-6E0,-1.5687926E-2,3.9589595E-2,1.5061965E-3,1.9969607E-2,6.37283E-2,2.865552E-2,3.7504647E-2,-5.8794875E-2,-3.2585174E-2,4.9278773E-3,3.0009462E-3,1.4732738E-2,-3.888124E-2,3.1777643E-2,2.5080679E-2,-4.0159605E-2,-6.277774E-2,-2.6488132E-3,4.7080513E-2,-2.962854E-2,-3.1705566E-2,2.7005885E-2,-6.176607E-2,7.105314E-3,-1.8075546E-2,-6.48456E-3,-5.5739947E-2,3.3043604E-2,1.2492687E-2,-4.2275604E-2,-3.0329704E-2,-4.0978496E-3],"split_indices":[1,1,31,64,61,1,27,1,36,28,18,1,10,1,53,14,36,58,13,60,62,64,17,18,34,10,62,18,64,36,64,0,0,0,0,0,0,0,0,0,0,0,0,0,0,0,0,0,0,0,0,0,0,0,0,0,0,0,0,0,0,0,0],"split_type":[0,0,0,0,0,0,0,0,0,0,0,0,0,0,0,0,0,0,0,0,0,0,0,0,0,0,0,0,0,0,0,0,0,0,0,0,0,0,0,0,0,0,0,0,0,0,0,0,0,0,0,0,0,0,0,0,0,0,0,0,0,0,0],"sum_hessian":[3.6430957E3,1.749775E3,1.8933207E3,7.8303436E2,9.667407E2,2.3490067E2,1.65842E3,7.399527E2,4.3081696E1,8.562177E2,1.10522995E2,1.4029875E1,2.2087079E2,1.0565901E3,6.018299E2,1.0672945E2,6.332232E2,3.9081413E1,4.000282E0,6.994821E1,7.862695E2,1.0328043E2,7.2425585E0,3.6544492E0,1.0375425E1,1.8986568E2,3.1005114E1,1.0304683E3,2.6121792E1,1.5251906E2,4.4931082E2,4.6170025E0,1.0211244E2,8.8970695E1,5.4425256E2,2.8324965E1,1.0756449E1,2.955746E0,1.0445356E0,3.5870277E1,3.4077938E1,4.8176685E2,3.0450266E2,1.4806257E0,1.0179981E2,3.2239065E0,4.018652E0,2.4254751E0,1.2289742E0,8.918129E0,1.457296E0,1.8590593E2,3.959753E0,2.9064682E1,1.940433E0,6.462716E2,3.8419672E2,2.4901506E1,1.2202853E0,1.441972E2,8.32186E0,4.7154926E1,4.021559E2],"tree_param":{"num_deleted":"0","num_feature":"66","num_nodes":"63","size_leaf_vector":"1"}},{"base_weights":[8.459719E-3,-1.6806957E-1,3.95465E-1,-4.3633696E-1,-3.3206288E-2,3.3528194E-1,7.577072E-1,-6.653175E-1,-3.290129E-1,3.7074838E-2,-4.0252778E-1,9.0979785E-1,2.9282784E-1,6.189988E-1,1.0739906E0,-1.9691668E-1,-7.2521555E-1,-1.0028353E-1,-4.6599597E-1,-2.9834969E-2,3.538896E-1,4.459474E-1,-4.35267E-1,9.5223856E-1,-2.204778E-2,5.0016916E-1,2.0785914E-1,8.324528E-1,3.9009166E-1,1.108179E0,-8.524488E-3,-2.1891916E-2,4.605688E-2,-5.109399E-2,-3.1600725E-2,-2.3252296E-3,-4.9398582E-2,1.1541432E-2,-2.4646075E-2,-4.2773937E-3,1.5651664E-2,2.7751356E-2,4.2666118E-3,5.181594E-2,-2.4117263E-2,-2.6973207E-2,-8.656513E-3,-1.8248613E-3,5.098338E-2,-1.8501274E-2,2.6297182E-2,7.442213E-3,2.537853E-2,-2.116393E-3,4.7605563E-2,-7.089939E-3,3.0821094E-2,-1.102622E-3,5.7127036E-2],"categories":[],"categories_nodes":[],"categories_segments":[],"categories_sizes":[],"default_left":[0,0,0,0,0,0,0,0,0,0,0,0,0,0,0,0,0,0,0,0,0,0,0,0,0,0,0,0,0,0,0,0,0,0,0,0,0,0,0,0,0,0,0,0,0,0,0,0,0,0,0,0,0,0,0,0,0,0,0],"id":18,"left_children":[1,3,5,7,9,11,13,15,17,19,21,23,25,27,29,31,33,35,37,39,41,43,45,47,-1,49,51,53,55,57,-1,-1,-1,-1,-1,-1,-1,-1,-1,-1,-1,-1,-1,-1,-1,-1,-1,-1,-1,-1,-1,-1,-1,-1,-1,-1,-1,-1,-1],"loss_changes":[2.4953082E2,9.0675476E1,2.4581757E1,2.0292465E1,4.3405933E1,2.3595055E1,6.272499E0,7.2383957E0,1.785973E1,2.9803652E1,7.6195297E0,4.313099E0,1.5984352E1,5.1810684E0,2.3165703E0,8.910786E0,5.703224E0,1.0176099E1,6.8573456E0,2.2158657E1,1.3130432E1,6.207204E0,6.883259E0,4.493538E0,0E0,6.166481E0,1.140259E1,6.2543716E0,7.0795555E0,1.9523468E0,0E0,0E0,0E0,0E0,0E0,0E0,0E0,0E0,0E0,0E0,0E0,0E0,0E0,0E0,0E0,0E0,0E0,0E0,0E0,0E0,0E0,0E0,0E0,0E0,0E0,0E0,0E0,0E0,0E0],"parents":[2147483647,0,0,1,1,2,2,3,3,4,4,5,5,6,6,7,7,8,8,9,9,10,10,11,11,12,12,13,13,14,14,15,15,16,16,17,17,18,18,19,19,20,20,21,21,22,22,23,23,25,25,26,26,27,27,28,28,29,29],"right_children":[2,4,6,8,10,12,14,16,18,20,22,24,26,28,30,32,34,36,38,40,42,44,46,48,-1,50,52,54,56,58,-1,-1,-1,-1,-1,-1,-1,-1,-1,-1,-1,-1,-1,-1,-1,-1,-1,-1,-1,-1,-1,-1,-1,-1,-1,-1,-1,-1,-1],"split_conditions":[6.240566E1,-8.231923E1,2.3866039E2,-2.045132E2,6.8E0,-2.4E2,3.5521265E2,-1E1,-3.3E0,4.9353924E1,-2.3704197E1,4.1344133E-3,-3E0,-2.657158E-1,3.5384614E-2,5.908005E0,-5.6181045E0,5E0,-3.8354418E0,7.0019674E0,1.1E0,6.5730155E-1,2.6362627E0,-9.005307E0,-2.204778E-2,-8.638459E0,7.561213E0,-2.8789542E0,-2.3162713E0,-3E-1,-8.524488E-3,-2.1891916E-2,4.605688E-2,-5.109399E-2,-3.1600725E-2,-2.3252296E-3,-4.9398582E-2,1.1541432E-2,-2.4646075E-2,-4.2773937E-3,1.5651664E-2,2.7751356E-2,4.2666118E-3,5.181594E-2,-2.4117263E-2,-2.6973207E-2,-8.656513E-3,-1.8248613E-3,5.098338E-2,-1.8501274E-2,2.6297182E-2,7.442213E-3,2.537853E-2,-2.116393E-3,4.7605563E-2,-7.089939E-3,3.0821094E-2,-1.102622E-3,5.7127036E-2],"split_indices":[4,12,12,4,0,1,12,0,0,12,46,5,0,53,8,44,33,64,53,18,0,57,20,37,0,24,29,57,20,11,0,0,0,0,0,0,0,0,0,0,0,0,0,0,0,0,0,0,0,0,0,0,0,0,0,0,0,0,0],"split_type":[0,0,0,0,0,0,0,0,0,0,0,0,0,0,0,0,0,0,0,0,0,0,0,0,0,0,0,0,0,0,0,0,0,0,0,0,0,0,0,0,0,0,0,0,0,0,0,0,0,0,0,0,0,0,0,0,0,0,0],"sum_hessian":[3.650197E3,2.5069705E3,1.1432268E3,8.376856E2,1.6692848E3,9.822389E2,1.6098784E2,2.6537207E2,5.7231354E2,1.4029374E3,2.6634732E2,6.6020584E1,9.162183E2,1.1418464E2,4.68032E1,3.076305E1,2.3460901E2,2.1529082E2,3.5702274E2,1.1587954E3,2.4414203E2,9.31306E0,2.5703424E2,6.436723E1,1.653356E0,2.6456396E2,6.5165436E2,5.7496323E1,5.6688316E1,4.5736607E1,1.0665959E0,2.5883442E1,4.8796067E0,5.3446987E1,1.8116203E2,2.0409137E2,1.1199456E1,1.2862349E1,3.4416037E2,9.977177E2,1.6107771E2,1.3877023E2,1.0537179E2,5.6873794E0,3.6256802E0,1.8289545E2,7.4138794E1,4.044023E0,6.0323208E1,7.11492E0,2.5744907E2,5.459784E2,1.0567595E2,6.895601E0,5.0600723E1,1.6901163E1,3.978715E1,1.2741786E0,4.4462425E1],"tree_param":{"num_deleted":"0","num_feature":"66","num_nodes":"59","size_leaf_vector":"1"}},{"base_weights":[-4.486455E-3,-2.9249135E-1,2.2961843E-1,-6.3666964E-1,-2.0743465E-1,1.4981316E-1,5.31689E-1,2.370584E-2,-7.0316225E-1,-1.6362227E-1,-8.0256224E-1,4.2387715E-1,9.379384E-2,4.7578964E-1,9.7481215E-1,-2.9737318E-1,8.2015854E-1,-7.171101E-1,4.477072E-2,-6.1873263E-1,-1.3446623E-1,-9.56848E-1,3.9306868E-2,9.404076E-2,5.720135E-1,2.4708447E-1,-1.4983962E-3,4.1769207E-1,9.532546E-1,4.138488E-1,1.0903165E0,-5.1746972E-2,2.3698825E-3,-1.7684415E-2,6.585125E-2,4.383319E-3,-3.740064E-2,-3.6395296E-2,2.5204761E-2,-2.9568062E-3,-1.740051E-2,-5.3322118E-2,-1.1542494E-3,3.3554554E-2,-1.1203156E-2,9.651543E-3,-4.848733E-2,-3.434364E-2,2.9757593E-2,6.681087E-3,2.3053234E-2,-1.7117618E-2,2.5288162E-3,3.1876378E-2,1.3796911E-2,5.316952E-2,-7.303851E-3,-3.1435914E-2,4.007953E-2,-0E0,5.7968255E-2],"categories":[],"categories_nodes":[],"categories_segments":[],"categories_sizes":[],"default_left":[0,0,0,0,0,0,0,0,0,0,0,0,0,0,0,0,0,0,0,0,0,0,0,0,0,0,0,0,0,0,0,0,0,0,0,0,0,0,0,0,0,0,0,0,0,0,0,0,0,0,0,0,0,0,0,0,0,0,0,0,0],"id":19,"left_children":[1,3,5,7,9,11,13,15,17,19,21,23,25,27,29,31,33,35,-1,37,39,41,43,45,47,49,51,53,55,57,59,-1,-1,-1,-1,-1,-1,-1,-1,-1,-1,-1,-1,-1,-1,-1,-1,-1,-1,-1,-1,-1,-1,-1,-1,-1,-1,-1,-1,-1,-1],"loss_changes":[2.448423E2,4.7454575E1,4.813624E1,1.4222214E1,3.3862206E1,2.425814E1,9.743156E0,8.040209E0,7.1501465E0,1.6019321E1,1.17204895E1,1.3002487E1,1.9283669E1,9.8188095E0,2.356884E0,5.7998433E0,5.844104E0,7.3629913E0,0E0,9.32803E0,1.8394201E1,7.5986176E0,2.6379898E0,9.023022E0,5.786419E0,1.2159496E1,1.4487927E1,1.0163948E1,5.0325165E0,4.384244E0,2.8849907E0,0E0,0E0,0E0,0E0,0E0,0E0,0E0,0E0,0E0,0E0,0E0,0E0,0E0,0E0,0E0,0E0,0E0,0E0,0E0,0E0,0E0,0E0,0E0,0E0,0E0,0E0,0E0,0E0,0E0,0E0],"parents":[2147483647,0,0,1,1,2,2,3,3,4,4,5,5,6,6,7,7,8,8,9,9,10,10,11,11,12,12,13,13,14,14,15,15,16,16,17,17,19,19,20,20,21,21,22,22,23,23,24,24,25,25,26,26,27,27,28,28,29,29,30,30],"right_children":[2,4,6,8,10,12,14,16,18,20,22,24,26,28,30,32,34,36,-1,38,40,42,44,46,48,50,52,54,56,58,60,-1,-1,-1,-1,-1,-1,-1,-1,-1,-1,-1,-1,-1,-1,-1,-1,-1,-1,-1,-1,-1,-1,-1,-1,-1,-1,-1,-1,-1,-1],"split_conditions":[-1.7245281E1,-1.7842714E2,1.4833817E2,4E0,2.16E2,-1E2,3.7543408E2,1.830183E-3,1.6566627E-2,-7.13357E0,-4.2906273E1,9.781696E0,0E0,1.1454409E1,-3.4618216E0,-5.720697E0,-1.2175448E0,-1.484979E1,4.477072E-2,7.839027E0,4.8484847E-2,1.1827754E1,-1.1802664E1,2.3162316E-3,-1.40508585E1,3E0,-3.6524326E1,-1.7377739E-16,1.4550068E1,9.5476574E-1,-8.835535E-3,-5.1746972E-2,2.3698825E-3,-1.7684415E-2,6.585125E-2,4.383319E-3,-3.740064E-2,-3.6395296E-2,2.5204761E-2,-2.9568062E-3,-1.740051E-2,-5.3322118E-2,-1.1542494E-3,3.3554554E-2,-1.1203156E-2,9.651543E-3,-4.848733E-2,-3.434364E-2,2.9757593E-2,6.681087E-3,2.3053234E-2,-1.7117618E-2,2.5288162E-3,3.1876378E-2,1.3796911E-2,5.316952E-2,-7.303851E-3,-3.1435914E-2,4.007953E-2,-0E0,5.7968255E-2],"split_indices":[4,12,12,1,1,1,4,5,10,36,4,12,9,25,21,32,17,21,0,30,6,12,26,5,25,64,12,9,40,32,10,0,0,0,0,0,0,0,0,0,0,0,0,0,0,0,0,0,0,0,0,0,0,0,0,0,0,0,0,0,0],"split_type":[0,0,0,0,0,0,0,0,0,0,0,0,0,0,0,0,0,0,0,0,0,0,0,0,0,0,0,0,0,0,0,0,0,0,0,0,0,0,0,0,0,0,0,0,0,0,0,0,0,0,0,0,0,0,0,0,0,0,0,0,0],"sum_hessian":[3.6293274E3,1.6274066E3,2.0019208E3,3.2096683E2,1.3064398E3,1.585E3,4.1692075E2,2.9282763E1,2.9168405E2,1.2182007E3,8.823911E1,2.675772E2,1.3174229E3,3.7226007E2,4.466068E1,2.1226614E1,8.056149E0,2.8976974E2,1.9143258E0,7.1919785E1,1.1462809E3,7.455749E1,1.3681629E1,8.364512E1,1.8393208E2,5.0481503E2,8.126077E2,3.3373563E2,3.8524445E1,8.555999E0,3.6104683E1,6.2163157E0,1.5010299E1,2.421725E0,5.6344237E0,1.0527835E1,2.7924188E2,6.5948364E1,5.971422E0,8.4865375E2,2.9762717E2,6.6502945E1,8.054536E0,3.6816106E0,1.0000018E1,7.735907E1,6.2860537E0,2.7239304E0,1.8120815E2,3.312578E2,1.7355724E2,1.072104E2,7.0539734E2,1.291867E2,2.045489E2,3.5128754E1,3.395691E0,2.0810485E0,6.474951E0,2.141723E0,3.396296E1],"tree_param":{"num_deleted":"0","num_feature":"66","num_nodes":"61","size_leaf_vector":"1"}},{"base_weights":[-1.2820647E-2,2.4291115E-1,-2.3959681E-1,7.558142E-1,2.0589755E-1,-1.4864595E-1,-4.3154365E-1,8.83232E-1,3.656801E-1,1.4109841E-1,4.2349106E-1,-2.0209186E-1,2.2522844E-1,-4.8608938E-1,-2.8008958E-3,-2.1408834E-1,9.4768494E-1,-4.0481344E-2,4.665972E-1,2.9728374E-1,7.625806E-2,-9.242476E-1,4.4616094E-1,-2.5262082E-1,1.2665956E-1,5.074173E-1,5.883254E-3,-7.6857394E-1,-4.2368203E-1,-2.7247745E-1,3.8414386E-1,-3.7041206E-2,3.3881657E-2,-2.2917895E-3,5.0186932E-2,4.001481E-2,-1.4244328E-4,-1.3283143E-2,1.8545443E-2,8.160326E-3,-4.3178503E-3,-7.4002504E-2,1.2601773E-2,6.9403276E-3,2.6611557E-2,-8.174171E-3,-2.055447E-2,5.2231915E-2,2.4787828E-3,5.2308984E-2,1.761838E-2,-1.9629745E-2,1.4631921E-2,-2.3520045E-2,-4.9947474E-2,-1.7816735E-2,-3.6241252E-2,-3.1178981E-2,1.1167202E-2,5.6211676E-2,6.958735E-3],"categories":[],"categories_nodes":[],"categories_segments":[],"categories_sizes":[],"default_left":[0,0,0,0,0,0,0,0,0,0,0,0,0,0,0,0,0,0,0,0,0,0,0,0,0,0,0,0,0,0,0,0,0,0,0,0,0,0,0,0,0,0,0,0,0,0,0,0,0,0,0,0,0,0,0,0,0,0,0,0,0],"id":20,"left_children":[1,3,5,7,9,11,13,15,17,19,21,23,25,27,29,31,33,-1,35,37,39,41,43,45,47,49,51,53,55,57,59,-1,-1,-1,-1,-1,-1,-1,-1,-1,-1,-1,-1,-1,-1,-1,-1,-1,-1,-1,-1,-1,-1,-1,-1,-1,-1,-1,-1,-1,-1],"loss_changes":[2.0880579E2,3.1870293E1,3.3195145E1,5.185768E0,2.2157303E1,2.5955349E1,1.4278023E1,6.2546234E0,3.8781056E0,1.2285589E1,1.1413498E1,1.890429E1,9.999514E0,9.133423E0,7.435828E0,3.053718E0,4.6031647E0,0E0,4.492942E0,1.4898556E1,1.2227192E1,4.572055E0,9.287132E0,1.3784489E1,1.0570201E1,5.4080296E0,1.0686122E1,6.032139E0,8.709991E0,7.525941E0,5.0040216E0,0E0,0E0,0E0,0E0,0E0,0E0,0E0,0E0,0E0,0E0,0E0,0E0,0E0,0E0,0E0,0E0,0E0,0E0,0E0,0E0,0E0,0E0,0E0,0E0,0E0,0E0,0E0,0E0,0E0,0E0],"parents":[2147483647,0,0,1,1,2,2,3,3,4,4,5,5,6,6,7,7,8,8,9,9,10,10,11,11,12,12,13,13,14,14,15,15,16,16,18,18,19,19,20,20,21,21,22,22,23,23,24,24,25,25,26,26,27,27,28,28,29,29,30,30],"right_children":[2,4,6,8,10,12,14,16,18,20,22,24,26,28,30,32,34,-1,36,38,40,42,44,46,48,50,52,54,56,58,60,-1,-1,-1,-1,-1,-1,-1,-1,-1,-1,-1,-1,-1,-1,-1,-1,-1,-1,-1,-1,-1,-1,-1,-1,-1,-1,-1,-1,-1,-1],"split_conditions":[-4E0,-2.59E2,7.2E1,7E0,6E0,7.839027E0,8.369719E0,-6.715657E0,-2.6666666E1,-7.5E1,-1.4040946E1,8.677339E0,3.9031278E-17,-6.559498E0,1.2000961E0,1.8108875E0,-4.3286896E0,-4.0481344E-2,5.6E1,-5.2133336E0,1.7377739E-16,3.5060909E0,-1.4389942E0,1.0182382E0,-2E-1,-6.155514E0,-4.3715024E0,-1.7541533E-2,2.31E2,2.3076923E-3,2.2140744E0,-3.7041206E-2,3.3881657E-2,-2.2917895E-3,5.0186932E-2,4.001481E-2,-1.4244328E-4,-1.3283143E-2,1.8545443E-2,8.160326E-3,-4.3178503E-3,-7.4002504E-2,1.2601773E-2,6.9403276E-3,2.6611557E-2,-8.174171E-3,-2.055447E-2,5.2231915E-2,2.4787828E-3,5.2308984E-2,1.761838E-2,-1.9629745E-2,1.4631921E-2,-2.3520045E-2,-4.9947474E-2,-1.7816735E-2,-3.6241252E-2,-3.1178981E-2,1.1167202E-2,5.6211676E-2,6.958735E-3],"split_indices":[1,1,1,15,64,30,37,38,49,1,30,21,6,31,22,21,57,0,3,44,9,31,57,56,11,22,21,57,1,8,22,0,0,0,0,0,0,0,0,0,0,0,0,0,0,0,0,0,0,0,0,0,0,0,0,0,0,0,0,0,0],"split_type":[0,0,0,0,0,0,0,0,0,0,0,0,0,0,0,0,0,0,0,0,0,0,0,0,0,0,0,0,0,0,0,0,0,0,0,0,0,0,0,0,0,0,0,0,0,0,0,0,0,0,0,0,0,0,0,0,0,0,0,0,0],"sum_hessian":[3.598482E3,1.6910266E3,1.9074553E3,1.1233007E2,1.5786965E3,1.295771E3,6.116844E2,8.35292E1,2.8800875E1,1.2180658E3,3.6063083E2,1.134342E3,1.6142896E2,5.423219E2,6.936252E1,4.4191685E0,7.911003E1,1.6437478E0,2.7157127E1,3.558291E2,8.6223663E2,5.234852E0,3.5539597E2,9.836857E2,1.5065631E2,6.982694E1,9.1602005E1,9.5794334E1,4.4652756E2,4.1201725E1,2.8160795E1,2.9550166E0,1.4641519E0,4.1394143E0,7.497061E1,1.5586171E1,1.1570956E1,4.0696E1,3.1513312E2,5.622299E2,3.000067E2,3.4374173E0,1.7974346E0,7.857636E1,2.768196E2,6.31266E2,3.5241974E2,1.0597948E1,1.4005836E2,1.4176057E1,5.5650887E1,3.8033047E1,5.3568962E1,4.326839E1,5.252594E1,3.6697333E2,7.955422E1,2.4088291E1,1.7113436E1,6.0090446E0,2.215175E1],"tree_param":{"num_deleted":"0","num_feature":"66","num_nodes":"61","size_leaf_vector":"1"}},{"base_weights":[1.1437189E-2,-2.9383126E-1,2.0311728E-1,-5.111412E-1,-1.8891813E-1,3.5003895E-1,-5.054351E-2,-6.2668717E-1,-2.5617224E-1,-1.2408042E-1,-5.17915E-1,8.4009653E-1,3.1557006E-1,-2.0976363E-1,7.770892E-2,-4.7288388E-1,-7.5193125E-1,-4.0413633E-1,2.624124E-1,-5.5945378E-2,-3.742156E-1,-7.157118E-1,-2.2736992E-1,1.15790896E-1,9.341557E-1,2.6508346E-1,6.4620835E-1,-3.489623E-1,6.4305393E-3,1.6096753E-1,-3.072366E-1,-2.5657604E-2,3.0410824E-2,-1.1893469E-2,-4.096505E-2,1.0777059E-2,-2.5851775E-2,2.3495046E-2,-3.5606723E-2,1.5153644E-2,-5.733635E-3,-2.236717E-2,5.210974E-3,1.3888121E-2,-3.8306125E-2,8.479717E-3,-2.9285306E-2,-3.4770574E-2,3.7432242E-2,5.595159E-2,2.9554784E-2,1.0025802E-2,2.2825388E-2,-1.9801E-2,3.5958853E-2,1.5783578E-2,-2.0373983E-2,5.23537E-3,-3.952097E-2,1.1473082E-2,-7.3596793E-3,-2.0161198E-2,3.9955687E-2],"categories":[],"categories_nodes":[],"categories_segments":[],"categories_sizes":[],"default_left":[0,0,0,0,0,0,0,0,0,0,0,0,0,0,0,0,0,0,0,0,0,0,0,0,0,0,0,0,0,0,0,0,0,0,0,0,0,0,0,0,0,0,0,0,0,0,0,0,0,0,0,0,0,0,0,0,0,0,0,0,0,0,0],"id":21,"left_children":[1,3,5,7,9,11,13,15,17,19,21,23,25,27,29,31,33,35,37,39,41,43,45,47,49,51,53,55,57,59,61,-1,-1,-1,-1,-1,-1,-1,-1,-1,-1,-1,-1,-1,-1,-1,-1,-1,-1,-1,-1,-1,-1,-1,-1,-1,-1,-1,-1,-1,-1,-1,-1],"loss_changes":[2.0891245E2,3.122699E1,8.179372E1,1.2933052E1,1.97215E1,2.308757E1,1.6470268E1,5.4345856E0,1.0977531E1,1.321119E1,8.5144005E0,5.9528503E0,2.1435333E1,1.0864627E1,1.4338913E1,6.432947E0,5.487343E0,7.881401E0,6.7540436E0,1.2954448E1,5.897892E0,4.7759132E0,9.172325E0,6.5150137E0,4.2313232E0,1.3804375E1,1.3338913E1,8.662344E0,1.110548E1,7.805457E0,8.724611E0,0E0,0E0,0E0,0E0,0E0,0E0,0E0,0E0,0E0,0E0,0E0,0E0,0E0,0E0,0E0,0E0,0E0,0E0,0E0,0E0,0E0,0E0,0E0,0E0,0E0,0E0,0E0,0E0,0E0,0E0,0E0,0E0],"parents":[2147483647,0,0,1,1,2,2,3,3,4,4,5,5,6,6,7,7,8,8,9,9,10,10,11,11,12,12,13,13,14,14,15,15,16,16,17,17,18,18,19,19,20,20,21,21,22,22,23,23,24,24,25,25,26,26,27,27,28,28,29,29,30,30],"right_children":[2,4,6,8,10,12,14,16,18,20,22,24,26,28,30,32,34,36,38,40,42,44,46,48,50,52,54,56,58,60,62,-1,-1,-1,-1,-1,-1,-1,-1,-1,-1,-1,-1,-1,-1,-1,-1,-1,-1,-1,-1,-1,-1,-1,-1,-1,-1,-1,-1,-1,-1,-1,-1],"split_conditions":[-2.9481337E1,-1.4586298E2,-3E0,-2.3542312E-1,9.5E1,-2.59E2,-7.225368E-1,-3.7803092E0,2.5712032E0,7.1E1,6.5561396E-1,-1.6E1,5E0,1E0,1E2,2.6441157E0,-2.2523468E0,-2.232327E0,6.216886E0,-2.2523468E0,1E0,-1.3050326E-4,2.1461625E0,-4.4693202E-1,4E0,1.4833817E2,-7.7096066E0,0E0,6.6292334E0,2.4E2,7.2791295E0,-2.5657604E-2,3.0410824E-2,-1.1893469E-2,-4.096505E-2,1.0777059E-2,-2.5851775E-2,2.3495046E-2,-3.5606723E-2,1.5153644E-2,-5.733635E-3,-2.236717E-2,5.210974E-3,1.3888121E-2,-3.8306125E-2,8.479717E-3,-2.9285306E-2,-3.4770574E-2,3.7432242E-2,5.595159E-2,2.9554784E-2,1.0025802E-2,2.2825388E-2,-1.9801E-2,3.5958853E-2,1.5783578E-2,-2.0373983E-2,5.23537E-3,-3.952097E-2,1.1473082E-2,-7.3596793E-3,-2.0161198E-2,3.9955687E-2],"split_indices":[12,12,1,25,1,1,36,44,23,16,21,16,2,46,1,54,58,42,39,58,14,7,17,25,15,12,25,61,43,16,43,0,0,0,0,0,0,0,0,0,0,0,0,0,0,0,0,0,0,0,0,0,0,0,0,0,0,0,0,0,0,0,0],"split_type":[0,0,0,0,0,0,0,0,0,0,0,0,0,0,0,0,0,0,0,0,0,0,0,0,0,0,0,0,0,0,0,0,0,0,0,0,0,0,0,0,0,0,0,0,0,0,0,0,0,0,0,0,0,0,0,0,0,0,0,0,0,0,0],"sum_hessian":[3.5684407E3,1.3759913E3,2.1924495E3,4.4644022E2,9.2955115E2,1.3883335E3,8.0411584E2,3.0594354E2,1.4049667E2,7.779218E2,1.5162936E2,8.9506805E1,1.2988268E3,3.5881094E2,4.4530487E2,1.3981761E2,1.6612593E2,1.0963019E2,3.086648E1,6.126608E2,1.65261E2,8.913838E1,6.2490986E1,1.0666135E1,7.8840675E1,1.1286001E3,1.7022667E2,2.1818129E2,1.4062967E2,3.668103E2,7.849458E1,1.3539244E2,4.4251738E0,1.9945778E1,1.4618016E2,1.6618761E1,9.301143E1,2.5959862E1,4.906617E0,8.530451E1,5.273563E2,1.4358789E2,2.1673113E1,3.991026E0,8.5147354E1,2.9765007E1,3.272598E1,4.561836E0,6.104299E0,4.9572495E1,2.9268177E1,8.45861E2,2.8273904E2,1.0758783E1,1.594679E2,1.7161327E1,2.0101996E2,1.26074745E2,1.4554919E1,3.005809E2,6.6229385E1,7.289602E1,5.598562E0],"tree_param":{"num_deleted":"0","num_feature":"66","num_nodes":"63","size_leaf_vector":"1"}},{"base_weights":[3.76094E-3,-1.4269404E-1,3.2781622E-1,-3.9994633E-1,-3.39044E-2,2.6690271E-1,6.999679E-1,-2.484139E-1,-5.196276E-1,4.023017E-2,-2.7045792E-1,4.4508046E-1,1.3880153E-1,5.683179E-1,1.0092643E0,-6.347959E-1,-1.3277157E-1,2.1576999E-1,-5.6143284E-1,1.0525849E-1,-1.9527063E-1,1.564148E-1,-3.3381578E-1,-1.0221894E-1,4.7562975E-1,5.6236947E-1,4.4023518E-2,6.409535E-1,-3.3440056E-1,1.0634786E0,-1.6117126E-2,2.266945E-3,-3.9867785E-2,-8.513423E-3,3.8970225E-2,-3.0437222E-2,3.2206528E-2,-2.3414558E-2,-3.8012516E-2,-1.4796298E-3,9.775599E-3,2.7167073E-2,-1.4044307E-2,3.289386E-2,-1.107521E-2,8.661759E-3,-1.9028168E-2,4.600352E-2,-1.815113E-2,-2.0056523E-3,2.5728617E-2,2.9940179E-2,-5.9637845E-2,2.0007791E-2,-2.3230396E-3,2.0950237E-2,4.25639E-2,3.4299444E-2,-3.901399E-2,5.6014013E-2,-2.5365292E-3],"categories":[],"categories_nodes":[],"categories_segments":[],"categories_sizes":[],"default_left":[0,0,0,0,0,0,0,0,0,0,0,0,0,0,0,0,0,0,0,0,0,0,0,0,0,0,0,0,0,0,0,0,0,0,0,0,0,0,0,0,0,0,0,0,0,0,0,0,0,0,0,0,0,0,0,0,0,0,0,0,0],"id":22,"left_children":[1,3,5,7,9,11,13,15,17,19,21,23,25,27,29,31,33,35,37,39,41,43,45,47,49,51,53,55,57,59,-1,-1,-1,-1,-1,-1,-1,-1,-1,-1,-1,-1,-1,-1,-1,-1,-1,-1,-1,-1,-1,-1,-1,-1,-1,-1,-1,-1,-1,-1,-1],"loss_changes":[1.7016302E2,6.9039734E1,2.5017906E1,1.3095062E1,3.048695E1,2.1813934E1,5.62661E0,1.440206E1,1.2714096E1,2.0267866E1,1.1288809E1,6.793022E0,2.2429024E1,7.5913887E0,3.672966E0,8.360891E0,8.701829E0,8.365753E0,6.686249E0,1.264941E1,1.8226303E1,1.0439586E1,8.660717E0,6.1059375E0,7.7060165E0,7.194504E0,1.4863017E1,4.377743E0,4.593177E0,2.9259033E0,0E0,0E0,0E0,0E0,0E0,0E0,0E0,0E0,0E0,0E0,0E0,0E0,0E0,0E0,0E0,0E0,0E0,0E0,0E0,0E0,0E0,0E0,0E0,0E0,0E0,0E0,0E0,0E0,0E0,0E0,0E0],"parents":[2147483647,0,0,1,1,2,2,3,3,4,4,5,5,6,6,7,7,8,8,9,9,10,10,11,11,12,12,13,13,14,14,15,15,16,16,17,17,18,18,19,19,20,20,21,21,22,22,23,23,24,24,25,25,26,26,27,27,28,28,29,29],"right_children":[2,4,6,8,10,12,14,16,18,20,22,24,26,28,30,32,34,36,38,40,42,44,46,48,50,52,54,56,58,60,-1,-1,-1,-1,-1,-1,-1,-1,-1,-1,-1,-1,-1,-1,-1,-1,-1,-1,-1,-1,-1,-1,-1,-1,-1,-1,-1,-1,-1,-1,-1],"split_conditions":[6.240566E1,-1.1165587E2,2.574774E2,-1.6E0,4.5E0,-6E-1,3.7543408E2,-2.629804E2,-5E-1,5.4E1,-1.1041104E-3,-8.9210005E0,-1.2E2,1.16E1,2.5936553E0,-6.8008327E0,1.0534351E1,-4.109044E0,1.28E2,0E0,-9.4E0,-1.7812805E0,-1.06E2,-8.2E0,-8.9389105E0,1E1,-2.8331333E-3,1.5440197E0,-1.4889673E0,1.43E1,-1.6117126E-2,2.266945E-3,-3.9867785E-2,-8.513423E-3,3.8970225E-2,-3.0437222E-2,3.2206528E-2,-2.3414558E-2,-3.8012516E-2,-1.4796298E-3,9.775599E-3,2.7167073E-2,-1.4044307E-2,3.289386E-2,-1.107521E-2,8.661759E-3,-1.9028168E-2,4.600352E-2,-1.815113E-2,-2.0056523E-3,2.5728617E-2,2.9940179E-2,-5.9637845E-2,2.0007791E-2,-2.3230396E-3,2.0950237E-2,4.25639E-2,3.4299444E-2,-3.901399E-2,5.6014013E-2,-2.5365292E-3],"split_indices":[4,4,4,0,0,0,4,4,9,1,5,42,1,0,53,41,30,21,3,8,0,42,1,0,23,64,10,42,58,0,0,0,0,0,0,0,0,0,0,0,0,0,0,0,0,0,0,0,0,0,0,0,0,0,0,0,0,0,0,0,0],"split_type":[0,0,0,0,0,0,0,0,0,0,0,0,0,0,0,0,0,0,0,0,0,0,0,0,0,0,0,0,0,0,0,0,0,0,0,0,0,0,0,0,0,0,0,0,0,0,0,0,0,0,0,0,0,0,0,0,0,0,0,0,0],"sum_hessian":[3.5830598E3,2.4679392E3,1.1151205E3,7.324163E2,1.7355231E3,9.599779E2,1.5514253E2,3.249268E2,4.0748953E2,1.3217128E3,4.138103E2,4.0014938E2,5.5982855E2,1.11039894E2,4.410264E1,7.3614235E1,2.5131256E2,2.1566086E1,3.8592343E2,1.0364874E3,2.852253E2,5.3087437E1,3.6072287E2,2.0857721E1,3.7929166E2,1.01267975E2,4.5856058E2,1.0314155E2,7.8983464E0,4.2642956E1,1.4596848E0,1.4220964E1,5.939327E1,2.4227626E2,9.036297E0,7.149697E0,1.4416389E1,2.654325E2,1.20490944E2,4.153948E2,6.210926E2,2.895073E1,2.5627457E2,2.2609978E1,3.0477457E1,3.0040571E1,3.306823E2,3.6478286E0,1.7209892E1,2.6446394E1,3.5284525E2,9.990978E1,1.3581923E0,9.243469E1,3.661259E2,5.1871185E1,5.1270363E1,2.1698608E0,5.728486E0,4.065471E1,1.9882467E0],"tree_param":{"num_deleted":"0","num_feature":"66","num_nodes":"61","size_leaf_vector":"1"}},{"base_weights":[-2.460653E-3,-3.6186957E-1,4.962675E-2,-5.290581E-1,-2.1620268E-1,-7.682267E-2,1.5979333E-1,-5.456444E-1,3.57135E-2,1.1910544E-1,-3.3979735E-1,1.0710252E-1,-1.6997409E-1,5.3150363E-2,3.44079E-1,-8.3315194E-1,-4.6480253E-1,-3.0487078E-1,4.2635822E-1,-4.2509288E-1,5.269951E-2,4.0773623E-2,7.1749485E-1,-3.3253857E-1,-7.061465E-2,-1.9527328E-1,1.2965645E-1,2.4644095E-1,5.461533E-1,-4.54369E-2,1.7930875E-2,-2.4192635E-2,4.432476E-2,-2.0916397E-2,5.34255E-2,4.599152E-2,-4.4250977E-3,2.065596E-2,-2.4134066E-2,1.3343635E-2,-5.201372E-2,1.5306498E-2,-3.4197234E-3,2.4386374E-2,6.2219687E-2,5.645545E-3,-2.1084776E-2,-1.9695298E-3,-2.871815E-2,1.3332407E-2,-1.9308528E-2,4.8949745E-2,5.846548E-3,7.6808813E-3,2.5005594E-2,-2.1696972E-2,3.0380249E-2],"categories":[],"categories_nodes":[],"categories_segments":[],"categories_sizes":[],"default_left":[0,0,0,0,0,0,0,0,0,0,0,0,0,0,0,0,0,0,0,0,0,0,0,0,0,0,0,0,0,0,0,0,0,0,0,0,0,0,0,0,0,0,0,0,0,0,0,0,0,0,0,0,0,0,0,0,0],"id":23,"left_children":[1,3,5,7,9,11,13,15,-1,17,19,21,23,25,27,29,31,33,35,37,39,41,43,45,47,49,51,53,55,-1,-1,-1,-1,-1,-1,-1,-1,-1,-1,-1,-1,-1,-1,-1,-1,-1,-1,-1,-1,-1,-1,-1,-1,-1,-1,-1,-1],"loss_changes":[6.7816826E1,1.0979198E1,4.4073814E1,4.755184E0,1.0301774E1,2.5254776E1,3.3169643E1,4.3721237E0,0E0,8.878625E0,6.119417E0,1.9949535E1,1.5737745E1,2.040271E1,1.20036545E1,4.4015007E0,4.6804543E0,4.8425303E0,1.0184826E1,7.3994064E0,7.923634E0,1.3022467E1,5.0724277E0,1.4791084E1,9.4923E0,2.2390598E1,8.648303E0,9.739319E0,1.2361176E1,0E0,0E0,0E0,0E0,0E0,0E0,0E0,0E0,0E0,0E0,0E0,0E0,0E0,0E0,0E0,0E0,0E0,0E0,0E0,0E0,0E0,0E0,0E0,0E0,0E0,0E0,0E0,0E0],"parents":[2147483647,0,0,1,1,2,2,3,3,4,4,5,5,6,6,7,7,9,9,10,10,11,11,12,12,13,13,14,14,15,15,16,16,17,17,18,18,19,19,20,20,21,21,22,22,23,23,24,24,25,25,26,26,27,27,28,28],"right_children":[2,4,6,8,10,12,14,16,-1,18,20,22,24,26,28,30,32,34,36,38,40,42,44,46,48,50,52,54,56,-1,-1,-1,-1,-1,-1,-1,-1,-1,-1,-1,-1,-1,-1,-1,-1,-1,-1,-1,-1,-1,-1,-1,-1,-1,-1,-1,-1],"split_conditions":[-5E0,-3.175352E0,-1.2643935E-1,1.6595243E1,-1.8181818E-2,-3.4E0,1.1340729E0,-7.596096E0,3.57135E-2,-2.656899E0,3.389136E0,-5E0,-7E0,-2.2592857E0,7.5035486E0,8.086606E0,1.3478029E1,2.5814001E1,-2.5448859E0,-3.7936094E0,1.9477807E0,-9.4E0,3.643445E0,-3.1692677E-3,1.8013136E0,-2.7E0,-4.843311E0,1.99E2,-1E0,-4.54369E-2,1.7930875E-2,-2.4192635E-2,4.432476E-2,-2.0916397E-2,5.34255E-2,4.599152E-2,-4.4250977E-3,2.065596E-2,-2.4134066E-2,1.3343635E-2,-5.201372E-2,1.5306498E-2,-3.4197234E-3,2.4386374E-2,6.2219687E-2,5.645545E-3,-2.1084776E-2,-1.9695298E-3,-2.871815E-2,1.3332407E-2,-1.9308528E-2,4.8949745E-2,5.846548E-3,7.6808813E-3,2.5005594E-2,-2.1696972E-2,3.0380249E-2],"split_indices":[64,37,26,28,6,0,20,34,0,21,20,16,16,36,28,30,44,49,48,58,36,0,34,10,41,0,58,16,64,0,0,0,0,0,0,0,0,0,0,0,0,0,0,0,0,0,0,0,0,0,0,0,0,0,0,0,0],"split_type":[0,0,0,0,0,0,0,0,0,0,0,0,0,0,0,0,0,0,0,0,0,0,0,0,0,0,0,0,0,0,0,0,0,0,0,0,0,0,0,0,0,0,0,0,0,0,0,0,0,0,0,0,0,0,0,0,0],"sum_hessian":[3.6189355E3,4.575768E2,3.1613586E3,2.1150471E2,2.460721E2,1.4716224E3,1.6897362E3,2.0935345E2,2.1512516E0,6.606559E1,1.800065E2,4.94339E2,9.772835E2,1.0715054E3,6.1823083E2,4.3633068E1,1.657204E2,2.7626392E1,3.84392E1,1.480128E2,3.19937E1,4.469963E2,4.7342678E1,3.6945523E2,6.0782825E2,2.5161723E2,8.198881E2,4.1865833E2,1.9957251E2,4.1332985E1,2.3000808E0,1.6412259E2,1.5978081E0,2.622788E1,1.398511E0,1.9324821E1,1.9114378E1,9.006798E0,1.39006E2,2.7460093E1,4.5336075E0,1.3003363E2,3.1696268E2,3.4439793E1,1.29028845E1,6.1382996E1,3.0807224E2,5.7355414E2,3.4274147E1,7.330871E1,1.7830852E2,1.0866037E1,8.090221E2,3.0796683E2,1.10691505E2,1.1321244E1,1.8825127E2],"tree_param":{"num_deleted":"0","num_feature":"66","num_nodes":"57","size_leaf_vector":"1"}},{"base_weights":[-2.68265E-3,-1.4653769E-1,3.080479E-1,-4.2687637E-1,-6.272188E-2,5.2262795E-1,2.2418644E-1,-6.220291E-1,-2.99222E-1,-1.2712638E-2,-2.9765216E-1,-7.285605E-1,5.589739E-1,1.5832858E-1,6.344509E-1,-8.349757E-2,-6.725909E-1,5.2735215E-1,-3.2342616E-1,-8.943964E-2,1.6283217E-1,6.201E-1,-3.3136863E-1,3.3083197E-1,-1.2261816E0,6.16111E-1,2.2742198E-1,7.7930164E-1,1.2778765E-1,6.961238E-1,-3.131166E-1,-4.8518613E-2,1.6189085E-2,-3.9443552E-2,-2.2033205E-2,-1.8707506E-2,5.776296E-2,-1.8702785E-2,2.2723002E-3,-3.61138E-3,-4.046729E-2,-3.1079196E-3,1.6961178E-2,5.673481E-2,-1.0947174E-2,-2.636247E-2,-9.799479E-3,3.718517E-2,-1.1557612E-2,-7.593995E-2,-4.0807845E-3,3.25574E-2,-5.127013E-4,-4.3343008E-3,4.5665752E-2,-2.3329603E-2,4.3406334E-2,7.940597E-3,-2.5230313E-2,3.6418702E-2,-9.228966E-3,-4.7054257E-2,1.8802986E-2],"categories":[],"categories_nodes":[],"categories_segments":[],"categories_sizes":[],"default_left":[0,0,0,0,0,0,0,0,0,0,0,0,0,0,0,0,0,0,0,0,0,0,0,0,0,0,0,0,0,0,0,0,0,0,0,0,0,0,0,0,0,0,0,0,0,0,0,0,0,0,0,0,0,0,0,0,0,0,0,0,0,0,0],"id":24,"left_children":[1,3,5,7,9,11,13,15,17,19,21,23,25,27,29,31,33,35,37,39,41,43,45,47,49,51,53,55,57,59,61,-1,-1,-1,-1,-1,-1,-1,-1,-1,-1,-1,-1,-1,-1,-1,-1,-1,-1,-1,-1,-1,-1,-1,-1,-1,-1,-1,-1,-1,-1,-1,-1],"loss_changes":[1.6031017E2,5.753584E1,2.0229004E1,1.3769524E1,2.2158394E1,1.4842087E1,2.1922337E1,5.906433E0,7.015169E0,2.1003508E1,1.0423159E1,5.4124117E0,5.638008E0,1.320681E1,6.836891E0,7.7274833E0,4.9881287E0,6.184927E0,6.2896996E0,1.3307356E1,1.8863136E1,5.5115123E0,8.31443E0,1.0826743E0,1.9342136E0,5.845436E0,1.0359573E1,4.0711594E0,1.3281784E1,3.203354E0,3.6440744E0,0E0,0E0,0E0,0E0,0E0,0E0,0E0,0E0,0E0,0E0,0E0,0E0,0E0,0E0,0E0,0E0,0E0,0E0,0E0,0E0,0E0,0E0,0E0,0E0,0E0,0E0,0E0,0E0,0E0,0E0,0E0,0E0],"parents":[2147483647,0,0,1,1,2,2,3,3,4,4,5,5,6,6,7,7,8,8,9,9,10,10,11,11,12,12,13,13,14,14,15,15,16,16,17,17,18,18,19,19,20,20,21,21,22,22,23,23,24,24,25,25,26,26,27,27,28,28,29,29,30,30],"right_children":[2,4,6,8,10,12,14,16,18,20,22,24,26,28,30,32,34,36,38,40,42,44,46,48,50,52,54,56,58,60,62,-1,-1,-1,-1,-1,-1,-1,-1,-1,-1,-1,-1,-1,-1,-1,-1,-1,-1,-1,-1,-1,-1,-1,-1,-1,-1,-1,-1,-1,-1,-1,-1],"split_conditions":[6.0537586E1,-1.3639145E2,-2.8E0,-4.322325E0,7E1,-8.608586E0,2.574774E2,-1.03E1,-4.0982566E0,2.798994E0,-1.22E1,8.81209E1,2.2920876E1,-3.25E2,2.1489398E0,-3.544046E2,-3.0769002E0,-1E1,6.107252E0,1.26E1,-1.194964E0,2.97E2,-3.1680784E0,-1.8333334E1,-3.2804844E-1,3.912391E-3,5.450382E0,-5.0503855E0,1.22E1,1.51E1,4.246995E0,-4.8518613E-2,1.6189085E-2,-3.9443552E-2,-2.2033205E-2,-1.8707506E-2,5.776296E-2,-1.8702785E-2,2.2723002E-3,-3.61138E-3,-4.046729E-2,-3.1079196E-3,1.6961178E-2,5.673481E-2,-1.0947174E-2,-2.636247E-2,-9.799479E-3,3.718517E-2,-1.1557612E-2,-7.593995E-2,-4.0807845E-3,3.25574E-2,-5.127013E-4,-4.3343008E-3,4.5665752E-2,-2.3329603E-2,4.3406334E-2,7.940597E-3,-2.5230313E-2,3.6418702E-2,-9.228966E-3,-4.7054257E-2,1.8802986E-2],"split_indices":[4,4,0,34,1,27,4,0,53,20,0,4,49,1,55,4,35,15,18,0,50,1,50,49,55,5,34,58,0,0,40,0,0,0,0,0,0,0,0,0,0,0,0,0,0,0,0,0,0,0,0,0,0,0,0,0,0,0,0,0,0,0,0],"split_type":[0,0,0,0,0,0,0,0,0,0,0,0,0,0,0,0,0,0,0,0,0,0,0,0,0,0,0,0,0,0,0,0,0,0,0,0,0,0,0,0,0,0,0,0,0,0,0,0,0,0,0,0,0,0,0,0,0,0,0,0,0,0,0],"sum_hessian":[3.5846963E3,2.450889E3,1.1338073E3,5.6289343E2,1.8879955E3,3.1679218E2,8.170151E2,2.2075548E2,3.4213797E2,1.5578568E3,3.3013876E2,8.327466E0,3.084647E2,7.0540875E2,1.1160635E2,1.934474E1,2.0141074E2,9.024694E0,3.3311325E2,1.0847814E3,4.7307532E2,1.0977485E1,3.191613E2,2.7043517E0,5.623114E0,2.621312E2,4.6333492E1,3.1764585E1,6.7364417E2,1.0513452E2,6.4718328E0,5.73009E0,