{"learner":{"attributes":{"scikit_learn":"{\"_estimator_type\": \"classifier\"}"},"feature_names":[],"feature_types":[],"gradient_booster":{"model":{"gbtree_model_param":{"num_parallel_tree":"1","num_trees":"264"},"iteration_indptr":[0,1,2,3,4,5,6,7,8,9,10,11,12,13,14,15,16,17,18,19,20,21,22,23,24,25,26,27,28,29,30,31,32,33,34,35,36,37,38,39,40,41,42,43,44,45,46,47,48,49,50,51,52,53,54,55,56,57,58,59,60,61,62,63,64,65,66,67,68,69,70,71,72,73,74,75,76,77,78,79,80,81,82,83,84,85,86,87,88,89,90,91,92,93,94,95,96,97,98,99,100,101,102,103,104,105,106,107,108,109,110,111,112,113,114,115,116,117,118,119,120,121,122,123,124,125,126,127,128,129,130,131,132,133,134,135,136,137,138,139,140,141,142,143,144,145,146,147,148,149,150,151,152,153,154,155,156,157,158,159,160,161,162,163,164,165,166,167,168,169,170,171,172,173,174,175,176,177,178,179,180,181,182,183,184,185,186,187,188,189,190,191,192,193,194,195,196,197,198,199,200,201,202,203,204,205,206,207,208,209,210,211,212,213,214,215,216,217,218,219,220,221,222,223,224,225,226,227,228,229,230,231,232,233,234,235,236,237,238,239,240,241,242,243,244,245,246,247,248,249,250,251,252,253,254,255,256,257,258,259,260,261,262,263,264],"tree_info":[0,0,0,0,0,0,0,0,0,0,0,0,0,0,0,0,0,0,0,0,0,0,0,0,0,0,0,0,0,0,0,0,0,0,0,0,0,0,0,0,0,0,0,0,0,0,0,0,0,0,0,0,0,0,0,0,0,0,0,0,0,0,0,0,0,0,0,0,0,0,0,0,0,0,0,0,0,0,0,0,0,0,0,0,0,0,0,0,0,0,0,0,0,0,0,0,0,0,0,0,0,0,0,0,0,0,0,0,0,0,0,0,0,0,0,0,0,0,0,0,0,0,0,0,0,0,0,0,0,0,0,0,0,0,0,0,0,0,0,0,0,0,0,0,0,0,0,0,0,0,0,0,0,0,0,0,0,0,0,0,0,0,0,0,0,0,0,0,0,0,0,0,0,0,0,0,0,0,0,0,0,0,0,0,0,0,0,0,0,0,0,0,0,0,0,0,0,0,0,0,0,0,0,0,0,0,0,0,0,0,0,0,0,0,0,0,0,0,0,0,0,0,0,0,0,0,0,0,0,0,0,0,0,0,0,0,0,0,0,0,0,0,0,0,0,0,0,0,0,0,0,0,0,0,0,0,0,0,0,0,0,0,0,0],"trees":[{"base_weights":[2.0398411E-3,-6.875524E-1,5.369809E-1,-1.0912598E0,-3.889435E-1,2.0113248E-1,9.440623E-1,-2.8884862E-2,-1.8158933E-2,-2.5597122E-3,-1.0616536E-2,-0E0,8.305858E-3,1.42912865E-2,2.4796445E-2],"categories":[],"categories_nodes":[],"categories_segments":[],"categories_sizes":[],"default_left":[0,0,0,0,0,0,0,0,0,0,0,0,0,0,0],"id":0,"left_children":[1,3,5,7,9,11,13,-1,-1,-1,-1,-1,-1,-1,-1],"loss_changes":[8.41633E3,1.1959902E3,1.7530774E3,2.5395264E2,2.2891089E2,3.203195E2,3.9455762E2,0E0,0E0,0E0,0E0,0E0,0E0,0E0,0E0],"parents":[2147483647,0,0,1,1,2,2,3,3,4,4,5,5,6,6],"right_children":[2,4,6,8,10,12,14,-1,-1,-1,-1,-1,-1,-1,-1],"split_conditions":[-3.0450935E1,-1.5840643E2,1.2942807E2,-3.2594894E2,1.9E1,4.1889297E1,2.3883716E2,-2.8884862E-2,-1.8158933E-2,-2.5597122E-3,-1.0616536E-2,-0E0,8.305858E-3,1.42912865E-2,2.4796445E-2],"split_indices":[9,15,9,9,1,15,15,0,0,0,0,0,0,0,0],"split_type":[0,0,0,0,0,0,0,0,0,0,0,0,0,0,0],"sum_hessian":[2.2815584E4,9.964209E3,1.2851375E4,4.2311265E3,5.7330825E3,7.046794E3,5.8045806E3,1.2049648E3,3.0261616E3,2.1781863E3,3.5548962E3,3.725141E3,3.321653E3,3.559146E3,2.2454343E3],"tree_param":{"num_deleted":"0","num_feature":"86","num_nodes":"15","size_leaf_vector":"1"}},{"base_weights":[-3.0723572E-4,-6.812155E-1,5.133542E-1,-1.0687773E0,-3.870292E-1,1.850263E-1,9.2137957E-1,-2.8312689E-2,-1.7765692E-2,-2.1726775E-3,-1.0114041E-2,-2.0303878E-4,8.068479E-3,1.3846469E-2,2.4384262E-2],"categories":[],"categories_nodes":[],"categories_segments":[],"categories_sizes":[],"default_left":[0,0,0,0,0,0,0,0,0,0,0,0,0,0,0],"id":1,"left_children":[1,3,5,7,9,11,13,-1,-1,-1,-1,-1,-1,-1,-1],"loss_changes":[7.9695645E3,1.112186E3,1.7356003E3,2.4532568E2,2.0174707E2,3.2459497E2,3.9548096E2,0E0,0E0,0E0,0E0,0E0,0E0,0E0,0E0],"parents":[2147483647,0,0,1,1,2,2,3,3,4,4,5,5,6,6],"right_children":[2,4,6,8,10,12,14,-1,-1,-1,-1,-1,-1,-1,-1],"split_conditions":[-3.4077015E1,-1.5840643E2,1.2942807E2,-3.2594894E2,1.4E1,4.360645E1,2.3883716E2,-2.8312689E-2,-1.7765692E-2,-2.1726775E-3,-1.0114041E-2,-2.0303878E-4,8.068479E-3,1.3846469E-2,2.4384262E-2],"split_indices":[9,15,9,9,1,15,15,0,0,0,0,0,0,0,0],"split_type":[0,0,0,0,0,0,0,0,0,0,0,0,0,0,0],"sum_hessian":[2.2783395E4,9.799575E3,1.2983818E4,4.2231104E3,5.5764644E3,7.199586E3,5.784233E3,1.2054014E3,3.0177092E3,1.822969E3,3.7534956E3,3.881636E3,3.3179497E3,3.5516907E3,2.2325425E3],"tree_param":{"num_deleted":"0","num_feature":"86","num_nodes":"15","size_leaf_vector":"1"}},{"base_weights":[8.05439E-4,-6.220226E-1,5.5011624E-1,-1.0316854E0,-3.2942516E-1,2.2067325E-1,9.0928674E-1,-2.6617888E-2,-1.6750548E-2,-1.2300591E-3,-9.208321E-3,5.982705E-4,8.198589E-3,1.3898625E-2,2.3992078E-2],"categories":[],"categories_nodes":[],"categories_segments":[],"categories_sizes":[],"default_left":[0,0,0,0,0,0,0,0,0,0,0,0,0,0,0],"id":2,"left_children":[1,3,5,7,9,11,13,-1,-1,-1,-1,-1,-1,-1,-1],"loss_changes":[7.805093E3,1.2764048E3,1.4308064E3,2.473291E2,2.3713611E2,2.3974463E2,3.5879443E2,0E0,0E0,0E0,0E0,0E0,0E0,0E0,0E0],"parents":[2147483647,0,0,1,1,2,2,3,3,4,4,5,5,6,6],"right_children":[2,4,6,8,10,12,14,-1,-1,-1,-1,-1,-1,-1,-1],"split_conditions":[-1.4682761E1,-1.5245976E2,1.2942807E2,-2.9713666E2,1.3E1,4.547326E1,2.4319807E2,-2.6617888E-2,-1.6750548E-2,-1.2300591E-3,-9.208321E-3,5.982705E-4,8.198589E-3,1.3898625E-2,2.3992078E-2],"split_indices":[9,15,9,9,1,15,15,0,0,0,0,0,0,0,0],"split_type":[0,0,0,0,0,0,0,0,0,0,0,0,0,0,0],"sum_hessian":[2.2813193E4,1.0688228E4,1.2124967E4,4.447872E3,6.2403555E3,6.329581E3,5.7953857E3,1.4898108E3,2.958061E3,2.197707E3,4.0426484E3,3.2611475E3,3.0684333E3,3.6250886E3,2.1702969E3],"tree_param":{"num_deleted":"0","num_feature":"86","num_nodes":"15","size_leaf_vector":"1"}},{"base_weights":[3.5368663E-4,-5.575561E-1,5.853647E-1,-8.863112E-1,-1.738393E-1,3.1475937E-1,9.7789896E-1,-2.4134105E-2,-1.3569904E-2,2.1955557E-3,-6.0761254E-3,1.1676396E-2,3.2225845E-3,1.5658189E-2,2.5894348E-2],"categories":[],"categories_nodes":[],"categories_segments":[],"categories_sizes":[],"default_left":[0,0,0,0,0,0,0,0,0,0,0,0,0,0,0],"id":3,"left_children":[1,3,5,7,9,11,13,-1,-1,-1,-1,-1,-1,-1,-1],"loss_changes":[7.437617E3,1.467333E3,1.1773293E3,4.1263086E2,2.1448169E2,2.7787555E2,2.6930664E2,0E0,0E0,0E0,0E0,0E0,0E0,0E0,0E0],"parents":[2147483647,0,0,1,1,2,2,3,3,4,4,5,5,6,6],"right_children":[2,4,6,8,10,12,14,-1,-1,-1,-1,-1,-1,-1,-1],"split_conditions":[6.4169436E0,-9.6197784E1,1.4948657E2,-2.523553E2,3E0,-4.8E1,2.922086E2,-2.4134105E-2,-1.3569904E-2,2.1955557E-3,-6.0761254E-3,1.1676396E-2,3.2225845E-3,1.5658189E-2,2.5894348E-2],"split_indices":[9,15,15,9,1,1,9,0,0,0,0,0,0,0,0],"split_type":[0,0,0,0,0,0,0,0,0,0,0,0,0,0,0],"sum_hessian":[2.2786676E4,1.1660528E4,1.1126146E4,6.2748794E3,5.3856484E3,6.591618E3,4.534529E3,2.175465E3,4.0994146E3,1.745921E3,3.6397275E3,2.2540576E3,4.3375605E3,3.049917E3,1.4846117E3],"tree_param":{"num_deleted":"0","num_feature":"86","num_nodes":"15","size_leaf_vector":"1"}},{"base_weights":[3.7149E-3,-5.4487187E-1,5.791598E-1,-1.0058485E0,-2.8796393E-1,3.1395954E-1,9.633894E-1,-2.6852274E-2,-1.6618762E-2,6.8512396E-4,-8.016754E-3,1.15879E-2,3.238892E-3,1.5441063E-2,2.5395723E-2],"categories":[],"categories_nodes":[],"categories_segments":[],"categories_sizes":[],"default_left":[0,0,0,0,0,0,0,0,0,0,0,0,0,0,0],"id":4,"left_children":[1,3,5,7,9,11,13,-1,-1,-1,-1,-1,-1,-1,-1],"loss_changes":[7.1954697E3,1.377008E3,1.1293335E3,2.2853711E2,3.0186646E2,2.7104712E2,2.5572314E2,0E0,0E0,0E0,0E0,0E0,0E0,0E0,0E0],"parents":[2147483647,0,0,1,1,2,2,3,3,4,4,5,5,6,6],"right_children":[2,4,6,8,10,12,14,-1,-1,-1,-1,-1,-1,-1,-1],"split_conditions":[6.4169436E0,-1.6402333E2,1.4948657E2,-3.2594894E2,2E0,-4.8E1,2.922086E2,-2.6852274E-2,-1.6618762E-2,6.8512396E-4,-8.016754E-3,1.15879E-2,3.238892E-3,1.5441063E-2,2.5395723E-2],"split_indices":[9,15,15,9,1,1,9,0,0,0,0,0,0,0,0],"split_type":[0,0,0,0,0,0,0,0,0,0,0,0,0,0,0],"sum_hessian":[2.2792064E4,1.1665314E4,1.112675E4,4.169364E3,7.49595E3,6.5888423E3,4.5379077E3,1.1949287E3,2.974435E3,2.0718774E3,5.4240728E3,2.2562407E3,4.3326016E3,3.039862E3,1.4980455E3],"tree_param":{"num_deleted":"0","num_feature":"86","num_nodes":"15","size_leaf_vector":"1"}},{"base_weights":[2.1290607E-5,-5.3680015E-1,5.6369823E-1,-8.53801E-1,-1.6810131E-1,3.2722118E-1,9.729929E-1,-2.2745045E-2,-1.2825279E-2,-1.0898832E-3,-1.0144388E-2,1.2119511E-2,3.7265199E-3,1.4149701E-2,2.3471432E-2],"categories":[],"categories_nodes":[],"categories_segments":[],"categories_sizes":[],"default_left":[0,0,0,0,0,0,0,0,0,0,0,0,0,0,0],"id":5,"left_children":[1,3,5,7,9,11,13,-1,-1,-1,-1,-1,-1,-1,-1],"loss_changes":[6.887311E3,1.3586443E3,1.0703108E3,3.775249E2,2.1159485E2,2.7981012E2,2.258601E2,0E0,0E0,0E0,0E0,0E0,0E0,0E0,0E0],"parents":[2147483647,0,0,1,1,2,2,3,3,4,4,5,5,6,6],"right_children":[2,4,6,8,10,12,14,-1,-1,-1,-1,-1,-1,-1,-1],"split_conditions":[6.4169436E0,-9.6197784E1,1.6691423E2,-2.394032E2,6.3E1,-5.4E1,1.648614E1,-2.2745045E-2,-1.2825279E-2,-1.0898832E-3,-1.0144388E-2,1.2119511E-2,3.7265199E-3,1.4149701E-2,2.3471432E-2],"split_indices":[9,15,15,9,1,1,3,0,0,0,0,0,0,0,0],"split_type":[0,0,0,0,0,0,0,0,0,0,0,0,0,0,0],"sum_hessian":[2.2759588E4,1.1654409E4,1.1105179E4,6.261212E3,5.3931973E3,7.0444004E3,4.0607786E3,2.3825535E3,3.8786584E3,4.1019995E3,1.2911981E3,2.2074265E3,4.836974E3,1.9859647E3,2.074814E3],"tree_param":{"num_deleted":"0","num_feature":"86","num_nodes":"15","size_leaf_vector":"1"}},{"base_weights":[-7.4639276E-4,-6.2218803E-1,4.6853265E-1,-1.011455E0,-3.790902E-1,1.68492E-1,8.414121E-1,-2.7519563E-2,-1.7236436E-2,-7.4075407E-4,-9.13165E-3,-1.8659112E-4,7.2914017E-3,1.3417305E-2,2.3541803E-2],"categories":[],"categories_nodes":[],"categories_segments":[],"categories_sizes":[],"default_left":[0,0,0,0,0,0,0,0,0,0,0,0,0,0,0],"id":6,"left_children":[1,3,5,7,9,11,13,-1,-1,-1,-1,-1,-1,-1,-1],"loss_changes":[6.6451514E3,9.230122E2,1.4484954E3,1.8196802E2,1.8421545E2,2.6561102E2,3.1658154E2,0E0,0E0,0E0,0E0,0E0,0E0,0E0,0E0],"parents":[2147483647,0,0,1,1,2,2,3,3,4,4,5,5,6,6],"right_children":[2,4,6,8,10,12,14,-1,-1,-1,-1,-1,-1,-1,-1],"split_conditions":[-3.4077015E1,-1.761901E2,1.2942807E2,-3.5994247E2,2E0,4.1889297E1,2.922086E2,-2.7519563E-2,-1.7236436E-2,-7.4075407E-4,-9.13165E-3,-1.8659112E-4,7.2914017E-3,1.3417305E-2,2.3541803E-2],"split_indices":[9,15,9,9,1,15,9,0,0,0,0,0,0,0,0],"split_type":[0,0,0,0,0,0,0,0,0,0,0,0,0,0,0],"sum_hessian":[2.2783465E4,9.805567E3,1.2977898E4,3.7635107E3,6.0420566E3,7.1968076E3,5.7810903E3,8.8646936E2,2.8770413E3,1.2723689E3,4.769688E3,3.8535933E3,3.3432146E3,4.102062E3,1.6790286E3],"tree_param":{"num_deleted":"0","num_feature":"86","num_nodes":"15","size_leaf_vector":"1"}},{"base_weights":[2.0128966E-3,-5.2122897E-1,5.349189E-1,-8.844737E-1,-2.2104524E-1,2.8588542E-1,9.05951E-1,-2.416477E-2,-1.4298824E-2,-9.490588E-4,-8.190605E-3,1.0970888E-2,2.7941703E-3,1.4029971E-2,2.363108E-2],"categories":[],"categories_nodes":[],"categories_segments":[],"categories_sizes":[],"default_left":[0,0,0,0,0,0,0,0,0,0,0,0,0,0,0],"id":7,"left_children":[1,3,5,7,9,11,13,-1,-1,-1,-1,-1,-1,-1,-1],"loss_changes":[6.356247E3,1.2499504E3,1.0395999E3,2.7071484E2,2.1541547E2,2.6513025E2,2.5145483E2,0E0,0E0,0E0,0E0,0E0,0E0,0E0,0E0],"parents":[2147483647,0,0,1,1,2,2,3,3,4,4,5,5,6,6],"right_children":[2,4,6,8,10,12,14,-1,-1,-1,-1,-1,-1,-1,-1],"split_conditions":[2.6305163E0,-1.2835083E2,1.4948657E2,-2.9713666E2,2.9E1,-4.8E1,2.0652065E1,-2.416477E-2,-1.4298824E-2,-9.490588E-4,-8.190605E-3,1.0970888E-2,2.7941703E-3,1.4029971E-2,2.363108E-2],"split_indices":[9,15,15,9,1,1,3,0,0,0,0,0,0,0,0],"split_type":[0,0,0,0,0,0,0,0,0,0,0,0,0,0,0],"sum_hessian":[2.279424E4,1.1498185E4,1.1296055E4,5.1970356E3,6.3011484E3,6.765321E3,4.5307344E3,1.5251243E3,3.6719116E3,3.3941626E3,2.9069858E3,2.2817644E3,4.483556E3,2.8413677E3,1.6893667E3],"tree_param":{"num_deleted":"0","num_feature":"86","num_nodes":"15","size_leaf_vector":"1"}},{"base_weights":[-2.9109028E-4,-5.556895E-1,4.88435E-1,-8.8327205E-1,-2.5458854E-1,1.9163983E-1,8.156058E-1,-2.6440315E-2,-1.5151095E-2,5.0209434E-4,-7.0150415E-3,2.560365E-4,7.265915E-3,1.2408849E-2,2.2052364E-2],"categories":[],"categories_nodes":[],"categories_segments":[],"categories_sizes":[],"default_left":[0,0,0,0,0,0,0,0,0,0,0,0,0,0,0],"id":8,"left_children":[1,3,5,7,9,11,13,-1,-1,-1,-1,-1,-1,-1,-1],"loss_changes":[6.18429E3,1.048168E3,1.1729275E3,2.4599438E2,1.6646426E2,2.050069E2,3.1897437E2,0E0,0E0,0E0,0E0,0E0,0E0,0E0,0E0],"parents":[2147483647,0,0,1,1,2,2,3,3,4,4,5,5,6,6],"right_children":[2,4,6,8,10,12,14,-1,-1,-1,-1,-1,-1,-1,-1],"split_conditions":[-1.4682761E1,-1.2835083E2,1.2942807E2,-3.5994247E2,3E0,4.360645E1,2.4783904E2,-2.6440315E-2,-1.5151095E-2,5.0209434E-4,-7.0150415E-3,2.560365E-4,7.265915E-3,1.2408849E-2,2.2052364E-2],"split_indices":[9,15,9,9,1,15,15,0,0,0,0,0,0,0,0],"split_type":[0,0,0,0,0,0,0,0,0,0,0,0,0,0,0],"sum_hessian":[2.2781602E4,1.0666678E4,1.2114925E4,5.102792E3,5.5638853E3,6.358236E3,5.7566885E3,9.126114E2,4.1901807E3,1.517187E3,4.0466985E3,3.2181538E3,3.140082E3,3.6990193E3,2.0576692E3],"tree_param":{"num_deleted":"0","num_feature":"86","num_nodes":"15","size_leaf_vector":"1"}},{"base_weights":[1.4206689E-3,-5.876256E-1,4.459529E-1,-9.321205E-1,-3.4131682E-1,1.9538191E-1,8.5294276E-1,-2.5516063E-2,-1.5812688E-2,-1.0857679E-2,-3.270366E-3,6.7186058E-3,-1.5341622E-3,1.359597E-2,2.342781E-2],"categories":[],"categories_nodes":[],"categories_segments":[],"categories_sizes":[],"default_left":[0,0,0,0,0,0,0,0,0,0,0,0,0,0,0],"id":9,"left_children":[1,3,5,7,9,11,13,-1,-1,-1,-1,-1,-1,-1,-1],"loss_changes":[5.960004E3,8.2592993E2,1.3196448E3,1.7674268E2,2.1197437E2,3.3137756E2,2.604768E2,0E0,0E0,0E0,0E0,0E0,0E0,0E0,0E0],"parents":[2147483647,0,0,1,1,2,2,3,3,4,4,5,5,6,6],"right_children":[2,4,6,8,10,12,14,-1,-1,-1,-1,-1,-1,-1,-1],"split_conditions":[-3.4077015E1,-1.81742E2,1.3860692E2,-3.410718E2,-9.4181526E1,-3E0,2.922086E2,-2.5516063E-2,-1.5812688E-2,-1.0857679E-2,-3.270366E-3,6.7186058E-3,-1.5341622E-3,1.359597E-2,2.342781E-2],"split_indices":[9,9,15,15,15,1,9,0,0,0,0,0,0,0,0],"split_type":[0,0,0,0,0,0,0,0,0,0,0,0,0,0,0],"sum_hessian":[2.2761959E4,9.786331E3,1.2975628E4,4.0736062E3,5.712724E3,8.036769E3,4.9388584E3,9.672977E2,3.1063086E3,2.5285312E3,3.184193E3,5.203952E3,2.8328171E3,3.4399272E3,1.4989312E3],"tree_param":{"num_deleted":"0","num_feature":"86","num_nodes":"15","size_leaf_vector":"1"}},{"base_weights":[1.0182873E-3,-4.881696E-1,5.1378936E-1,-7.8183085E-1,-1.4639921E-1,2.800822E-1,8.774001E-1,-2.0963227E-2,-1.1681187E-2,-8.438055E-3,-5.590063E-4,1.2557465E-3,8.427457E-3,1.5003026E-2,2.5753053E-2],"categories":[],"categories_nodes":[],"categories_segments":[],"categories_sizes":[],"default_left":[0,0,0,0,0,0,0,0,0,0,0,0,0,0,0],"id":10,"left_children":[1,3,5,7,9,11,13,-1,-1,-1,-1,-1,-1,-1,-1],"loss_changes":[5.6982397E3,1.1632166E3,9.3869116E2,3.2895825E2,1.801842E2,2.212987E2,1.9794824E2,0E0,0E0,0E0,0E0,0E0,0E0,0E0,0E0],"parents":[2147483647,0,0,1,1,2,2,3,3,4,4,5,5,6,6],"right_children":[2,4,6,8,10,12,14,-1,-1,-1,-1,-1,-1,-1,-1],"split_conditions":[6.4169436E0,-9.6197784E1,1.7271112E2,-2.394032E2,-1.754445E0,4.547326E1,3.5865784E2,-2.0963227E-2,-1.1681187E-2,-8.438055E-3,-5.590063E-4,1.2557465E-3,8.427457E-3,1.5003026E-2,2.5753053E-2],"split_indices":[9,15,9,9,79,15,15,0,0,0,0,0,0,0,0],"split_type":[0,0,0,0,0,0,0,0,0,0,0,0,0,0,0],"sum_hessian":[2.2715139E4,1.1621503E4,1.1093636E4,6.2449707E3,5.3765317E3,6.7593853E3,4.334251E3,2.3673274E3,3.8776436E3,1.5534575E3,3.8230745E3,2.8163213E3,3.943064E3,3.507644E3,8.2660706E2],"tree_param":{"num_deleted":"0","num_feature":"86","num_nodes":"15","size_leaf_vector":"1"}},{"base_weights":[3.033964E-3,-5.957195E-1,4.0623173E-1,-9.293791E-1,-3.6978185E-1,9.8447286E-2,7.344124E-1,-2.5410164E-2,-1.5770087E-2,-1.2763749E-2,-5.5069397E-3,5.505298E-3,-2.2477855E-3,1.031406E-2,1.9594073E-2],"categories":[],"categories_nodes":[],"categories_segments":[],"categories_sizes":[],"default_left":[0,0,0,0,0,0,0,0,0,0,0,0,0,0,0],"id":11,"left_children":[1,3,5,7,9,11,13,-1,-1,-1,-1,-1,-1,-1,-1],"loss_changes":[5.4807754E3,6.839353E2,1.3679956E3,1.570249E2,1.3209082E2,2.773166E2,3.6006616E2,0E0,0E0,0E0,0E0,0E0,0E0,0E0,0E0],"parents":[2147483647,0,0,1,1,2,2,3,3,4,4,5,5,6,6],"right_children":[2,4,6,8,10,12,14,-1,-1,-1,-1,-1,-1,-1,-1],"split_conditions":[-4.743878E1,-1.761901E2,9.220688E1,-3.5994247E2,-2.1465752E1,-9E0,2.2538185E0,-2.5410164E-2,-1.5770087E-2,-1.2763749E-2,-5.5069397E-3,5.505298E-3,-2.2477855E-3,1.031406E-2,1.9594073E-2],"split_indices":[9,15,15,9,5,1,75,0,0,0,0,0,0,0,0],"split_type":[0,0,0,0,0,0,0,0,0,0,0,0,0,0,0],"sum_hessian":[2.2704271E4,9.132983E3,1.3571288E4,3.6807144E3,5.452269E3,7.008971E3,6.5623174E3,8.748662E2,2.8058481E3,1.2581732E3,4.1940957E3,3.7721404E3,3.2368308E3,3.7592961E3,2.8030212E3],"tree_param":{"num_deleted":"0","num_feature":"86","num_nodes":"15","size_leaf_vector":"1"}},{"base_weights":[7.698011E-4,-5.539048E-1,4.1876495E-1,-8.8501966E-1,-3.085576E-1,1.4219734E-1,7.5583094E-1,-2.4336929E-2,-1.5029428E-2,-1.0246715E-2,-2.816449E-3,-2.5178387E-4,6.3094264E-3,1.154652E-2,2.0600766E-2],"categories":[],"categories_nodes":[],"categories_segments":[],"categories_sizes":[],"default_left":[0,0,0,0,0,0,0,0,0,0,0,0,0,0,0],"id":12,"left_children":[1,3,5,7,9,11,13,-1,-1,-1,-1,-1,-1,-1,-1],"loss_changes":[5.261949E3,7.878999E2,1.2038127E3,1.632334E2,1.9797986E2,2.021291E2,2.8084595E2,0E0,0E0,0E0,0E0,0E0,0E0,0E0,0E0],"parents":[2147483647,0,0,1,1,2,2,3,3,4,4,5,5,6,6],"right_children":[2,4,6,8,10,12,14,-1,-1,-1,-1,-1,-1,-1,-1],"split_conditions":[-3.4077015E1,-1.786148E2,1.2716174E2,-3.410718E2,-9.6197784E1,4.1889297E1,2.691612E2,-2.4336929E-2,-1.5029428E-2,-1.0246715E-2,-2.816449E-3,-2.5178387E-4,6.3094264E-3,1.154652E-2,2.0600766E-2],"split_indices":[9,9,9,15,15,15,9,0,0,0,0,0,0,0,0],"split_type":[0,0,0,0,0,0,0,0,0,0,0,0,0,0,0],"sum_hessian":[2.2696338E4,9.749948E3,1.2946389E4,4.1431826E3,5.606766E3,7.117343E3,5.829046E3,9.665858E2,3.1765967E3,2.3954963E3,3.2112698E3,3.8331646E3,3.2841785E3,3.8033257E3,2.0257202E3],"tree_param":{"num_deleted":"0","num_feature":"86","num_nodes":"15","size_leaf_vector":"1"}},{"base_weights":[3.4972528E-4,-5.248696E-1,4.2866066E-1,-8.718407E-1,-2.7702266E-1,1.5824318E-1,7.811764E-1,-2.4231791E-2,-1.4875574E-2,-3.4385713E-4,-8.317157E-3,4.470284E-3,-6.99123E-3,1.3463108E-2,2.4546018E-2],"categories":[],"categories_nodes":[],"categories_segments":[],"categories_sizes":[],"default_left":[0,0,0,0,0,0,0,0,0,0,0,0,0,0,0],"id":13,"left_children":[1,3,5,7,9,11,13,-1,-1,-1,-1,-1,-1,-1,-1],"loss_changes":[5.0899688E3,8.6971924E2,1.1852014E3,1.621189E2,2.299881E2,2.6095718E2,2.246333E2,0E0,0E0,0E0,0E0,0E0,0E0,0E0,0E0],"parents":[2147483647,0,0,1,1,2,2,3,3,4,4,5,5,6,6],"right_children":[2,4,6,8,10,12,14,-1,-1,-1,-1,-1,-1,-1,-1],"split_conditions":[-2.1919266E1,-1.6386069E2,1.2942807E2,-3.5994247E2,2E0,7E1,3.5865784E2,-2.4231791E-2,-1.4875574E-2,-3.4385713E-4,-8.317157E-3,4.470284E-3,-6.99123E-3,1.3463108E-2,2.4546018E-2],"split_indices":[15,9,9,9,1,1,15,0,0,0,0,0,0,0,0],"split_type":[0,0,0,0,0,0,0,0,0,0,0,0,0,0,0],"sum_hessian":[2.2626832E4,1.0159993E4,1.246684E4,4.2271694E3,5.932823E3,7.0608315E3,5.4060083E3,9.348738E2,3.2922957E3,2.1866282E3,3.746195E3,6.209703E3,8.5112836E2,4.5662563E3,8.39752E2],"tree_param":{"num_deleted":"0","num_feature":"86","num_nodes":"15","size_leaf_vector":"1"}},{"base_weights":[-0E0,-4.4545642E-1,4.8779622E-1,-7.2978413E-1,-1.283797E-1,2.618314E-1,8.085628E-1,-1.9799283E-2,-1.0953494E-2,2.373629E-3,-4.9583428E-3,1.0266362E-2,2.7891812E-3,1.1436719E-2,2.0201609E-2],"categories":[],"categories_nodes":[],"categories_segments":[],"categories_sizes":[],"default_left":[0,0,0,0,0,0,0,0,0,0,0,0,0,0,0],"id":14,"left_children":[1,3,5,7,9,11,13,-1,-1,-1,-1,-1,-1,-1,-1],"loss_changes":[4.92445E3,1.0652793E3,7.800774E2,2.9399536E2,1.7804132E2,1.9771237E2,2.2048145E2,0E0,0E0,0E0,0E0,0E0,0E0,0E0,0E0],"parents":[2147483647,0,0,1,1,2,2,3,3,4,4,5,5,6,6],"right_children":[2,4,6,8,10,12,14,-1,-1,-1,-1,-1,-1,-1,-1],"split_conditions":[1.1680534E1,-9.6197784E1,1.4948657E2,-2.4372443E2,3E0,-5.5E1,1.648614E1,-1.9799283E-2,-1.0953494E-2,2.373629E-3,-4.9583428E-3,1.0266362E-2,2.7891812E-3,1.1436719E-2,2.0201609E-2],"split_indices":[9,15,15,9,1,1,3,0,0,0,0,0,0,0,0],"split_type":[0,0,0,0,0,0,0,0,0,0,0,0,0,0,0],"sum_hessian":[2.2662436E4,1.1848737E4,1.0813697E4,6.240957E3,5.6077803E3,6.35116E3,4.462537E3,2.281476E3,3.959481E3,1.8728433E3,3.734937E3,1.9486285E3,4.4025317E3,2.28416E3,2.1783772E3],"tree_param":{"num_deleted":"0","num_feature":"86","num_nodes":"15","size_leaf_vector":"1"}},{"base_weights":[-2.1784573E-3,-5.6029755E-1,3.7360388E-1,-9.887699E-1,-4.0423635E-1,8.5942455E-2,6.745436E-1,-2.4527289E-2,-1.654067E-2,-1.1948291E-2,-5.5304104E-3,7.833067E-3,-6.5858336E-4,1.0140731E-2,1.9752085E-2],"categories":[],"categories_nodes":[],"categories_segments":[],"categories_sizes":[],"default_left":[0,0,0,0,0,0,0,0,0,0,0,0,0,0,0],"id":15,"left_children":[1,3,5,7,9,11,13,-1,-1,-1,-1,-1,-1,-1,-1],"loss_changes":[4.755868E3,6.053352E2,1.1700544E3,8.3861084E1,1.6548645E2,2.64216E2,3.400066E2,0E0,0E0,0E0,0E0,0E0,0E0,0E0,0E0],"parents":[2147483647,0,0,1,1,2,2,3,3,4,4,5,5,6,6],"right_children":[2,4,6,8,10,12,14,-1,-1,-1,-1,-1,-1,-1,-1],"split_conditions":[-4.743878E1,-2.3479126E2,9.010552E1,-3.5994247E2,-1.6386069E2,-4.5E1,2.5452211E2,-2.4527289E-2,-1.654067E-2,-1.1948291E-2,-5.5304104E-3,7.833067E-3,-6.5858336E-4,1.0140731E-2,1.9752085E-2],"split_indices":[9,15,15,9,9,1,9,0,0,0,0,0,0,0,0],"split_type":[0,0,0,0,0,0,0,0,0,0,0,0,0,0,0],"sum_hessian":[2.2671953E4,9.12627E3,1.3545685E4,2.4300127E3,6.6962563E3,6.931759E3,6.613926E3,8.1105365E2,1.618959E3,2.4248604E3,4.271396E3,1.9100731E3,5.0216855E3,4.5685513E3,2.0453746E3],"tree_param":{"num_deleted":"0","num_feature":"86","num_nodes":"15","size_leaf_vector":"1"}},{"base_weights":[-2.6889741E-3,-3.9567828E-1,5.1245266E-1,-7.608424E-1,-1.3404548E-1,3.0018324E-1,8.360522E-1,-2.1765193E-2,-1.2599231E-2,2.5291052E-3,-5.674637E-3,6.87229E-3,-2.4941936E-3,1.3754759E-2,2.2647258E-2],"categories":[],"categories_nodes":[],"categories_segments":[],"categories_sizes":[],"default_left":[0,0,0,0,0,0,0,0,0,0,0,0,0,0,0],"id":16,"left_children":[1,3,5,7,9,11,13,-1,-1,-1,-1,-1,-1,-1,-1],"loss_changes":[4.5739937E3,1.2218274E3,6.674065E2,2.1032227E2,3.116582E2,1.3503076E2,1.5685254E2,0E0,0E0,0E0,0E0,0E0,0E0,0E0,0E0],"parents":[2147483647,0,0,1,1,2,2,3,3,4,4,5,5,6,6],"right_children":[2,4,6,8,10,12,14,-1,-1,-1,-1,-1,-1,-1,-1],"split_conditions":[2.89926E1,-1.3176196E2,1.7540106E2,-3.2594894E2,-9E0,5.5E1,3.3500067E2,-2.1765193E-2,-1.2599231E-2,2.5291052E-3,-5.674637E-3,6.87229E-3,-2.4941936E-3,1.3754759E-2,2.2647258E-2],"split_indices":[15,9,9,9,1,1,9,0,0,0,0,0,0,0,0],"split_type":[0,0,0,0,0,0,0,0,0,0,0,0,0,0,0],"sum_hessian":[2.2594693E4,1.282077E4,9.773923E3,5.3457036E3,7.475066E3,5.909213E3,3.8647102E3,1.2772205E3,4.068483E3,2.7861226E3,4.688943E3,5.265476E3,6.43737E2,2.7815754E3,1.0831348E3],"tree_param":{"num_deleted":"0","num_feature":"86","num_nodes":"15","size_leaf_vector":"1"}},{"base_weights":[-6.57785E-4,-5.2587974E-1,3.7023416E-1,-8.902611E-1,-3.3232027E-1,1.2082873E-1,7.289569E-1,-2.2932265E-2,-1.5068394E-2,-1.4440428E-3,-8.744971E-3,3.708808E-3,-6.911892E-3,1.1684166E-2,2.0084884E-2],"categories":[],"categories_nodes":[],"categories_segments":[],"categories_sizes":[],"default_left":[0,0,0,0,0,0,0,0,0,0,0,0,0,0,0],"id":17,"left_children":[1,3,5,7,9,11,13,-1,-1,-1,-1,-1,-1,-1,-1],"loss_changes":[4.396081E3,6.5463403E2,1.1799424E3,1.0090039E2,1.8288324E2,2.5880396E2,2.0514062E2,0E0,0E0,0E0,0E0,0E0,0E0,0E0,0E0],"parents":[2147483647,0,0,1,1,2,2,3,3,4,4,5,5,6,6],"right_children":[2,4,6,8,10,12,14,-1,-1,-1,-1,-1,-1,-1,-1],"split_conditions":[-3.800958E1,-2.0109424E2,1.2942807E2,-3.5994247E2,2E0,7E1,2.922086E2,-2.2932265E-2,-1.5068394E-2,-1.4440428E-3,-8.744971E-3,3.708808E-3,-6.911892E-3,1.1684166E-2,2.0084884E-2],"split_indices":[15,9,9,9,1,1,9,0,0,0,0,0,0,0,0],"split_type":[0,0,0,0,0,0,0,0,0,0,0,0,0,0,0],"sum_hessian":[2.2563342E4,9.342442E3,1.3220898E4,3.234312E3,6.1081304E3,7.8047534E3,5.4161455E3,9.1691626E2,2.3173958E3,1.916111E3,4.1920195E3,6.81341E3,9.913432E2,3.813991E3,1.6021544E3],"tree_param":{"num_deleted":"0","num_feature":"86","num_nodes":"15","size_leaf_vector":"1"}},{"base_weights":[1.5776588E-3,-3.807448E-1,5.0277555E-1,-7.305568E-1,-1.3087209E-1,2.2631535E-1,7.4315304E-1,-1.8753283E-2,-1.0900234E-2,1.8891692E-3,-5.8031846E-3,5.257038E-3,-4.5408006E-3,1.2282138E-2,2.1334544E-2],"categories":[],"categories_nodes":[],"categories_segments":[],"categories_sizes":[],"default_left":[0,0,0,0,0,0,0,0,0,0,0,0,0,0,0],"id":18,"left_children":[1,3,5,7,9,11,13,-1,-1,-1,-1,-1,-1,-1,-1],"loss_changes":[4.322569E3,1.1151028E3,6.455005E2,2.0608472E2,2.856737E2,9.190352E1,2.0000879E2,0E0,0E0,0E0,0E0,0E0,0E0,0E0,0E0],"parents":[2147483647,0,0,1,1,2,2,3,3,4,4,5,5,6,6],"right_children":[2,4,6,8,10,12,14,-1,-1,-1,-1,-1,-1,-1,-1],"split_conditions":[2.89926E1,-1.3176196E2,1.24815216E2,-2.3479126E2,-3E0,8.2E1,3.1898706E2,-1.8753283E-2,-1.0900234E-2,1.8891692E-3,-5.8031846E-3,5.257038E-3,-4.5408006E-3,1.2282138E-2,2.1334544E-2],"split_indices":[15,9,9,15,1,1,9,0,0,0,0,0,0,0,0],"split_type":[0,0,0,0,0,0,0,0,0,0,0,0,0,0,0],"sum_hessian":[2.255493E4,1.2791028E4,9.7639E3,5.3235894E3,7.4674385E3,4.5481763E3,5.2157246E3,2.237106E3,3.0864836E3,3.1530857E3,4.314353E3,4.158854E3,3.8932205E2,3.9697134E3,1.246011E3],"tree_param":{"num_deleted":"0","num_feature":"86","num_nodes":"15","size_leaf_vector":"1"}},{"base_weights":[2.209874E-3,-4.2243487E-1,4.351388E-1,-7.826505E-1,-2.0919746E-1,2.4722685E-1,7.744298E-1,-2.2630835E-2,-1.3296169E-2,1.1265613E-3,-6.0585756E-3,9.435203E-3,2.380524E-3,1.074391E-2,1.9258585E-2],"categories":[],"categories_nodes":[],"categories_segments":[],"categories_sizes":[],"default_left":[0,0,0,0,0,0,0,0,0,0,0,0,0,0,0],"id":19,"left_children":[1,3,5,7,9,11,13,-1,-1,-1,-1,-1,-1,-1,-1],"loss_changes":[4.1400654E3,8.6946497E2,7.076262E2,1.52698E2,1.9590427E2,2.112153E2,1.844602E2,0E0,0E0,0E0,0E0,0E0,0E0,0E0,0E0],"parents":[2147483647,0,0,1,1,2,2,3,3,4,4,5,5,6,6],"right_children":[2,4,6,8,10,12,14,-1,-1,-1,-1,-1,-1,-1,-1],"split_conditions":[2.6305163E0,-1.5840643E2,1.6691423E2,-3.5994247E2,2E0,-4.8E1,1.648614E1,-2.2630835E-2,-1.3296169E-2,1.1265613E-3,-6.0585756E-3,9.435203E-3,2.380524E-3,1.074391E-2,1.9258585E-2],"split_indices":[9,15,15,9,1,1,3,0,0,0,0,0,0,0,0],"split_type":[0,0,0,0,0,0,0,0,0,0,0,0,0,0,0],"sum_hessian":[2.2518566E4,1.1364078E4,1.1154488E4,4.2192603E3,7.1448174E3,7.1857056E3,3.9687825E3,8.6485626E2,3.354404E3,1.9679553E3,5.1768623E3,2.46491E3,4.720796E3,1.9620338E3,2.0067487E3],"tree_param":{"num_deleted":"0","num_feature":"86","num_nodes":"15","size_leaf_vector":"1"}},{"base_weights":[-0E0,-5.025524E-1,3.5489032E-1,-7.906883E-1,-2.746389E-1,9.4383724E-2,6.6921264E-1,-2.1236539E-2,-1.3004029E-2,-1.7504756E-3,-7.862063E-3,3.1851304E-3,-6.7643016E-3,1.1117575E-2,2.0985657E-2],"categories":[],"categories_nodes":[],"categories_segments":[],"categories_sizes":[],"default_left":[0,0,0,0,0,0,0,0,0,0,0,0,0,0,0],"id":20,"left_children":[1,3,5,7,9,11,13,-1,-1,-1,-1,-1,-1,-1,-1],"loss_changes":[4.014482E3,6.080796E2,1.077561E3,1.4477856E2,1.2282062E2,2.206401E2,2.332041E2,0E0,0E0,0E0,0E0,0E0,0E0,0E0,0E0],"parents":[2147483647,0,0,1,1,2,2,3,3,4,4,5,5,6,6],"right_children":[2,4,6,8,10,12,14,-1,-1,-1,-1,-1,-1,-1,-1],"split_conditions":[-3.800958E1,-1.6386069E2,1.1271553E2,-3.1526047E2,8E0,7E1,3.2130405E2,-2.1236539E-2,-1.3004029E-2,-1.7504756E-3,-7.862063E-3,3.1851304E-3,-6.7643016E-3,1.1117575E-2,2.0985657E-2],"split_indices":[15,9,9,15,1,1,15,0,0,0,0,0,0,0,0],"split_type":[0,0,0,0,0,0,0,0,0,0,0,0,0,0,0],"sum_hessian":[2.2507549E4,9.316105E3,1.3191443E4,4.107302E3,5.2088037E3,7.2195093E3,5.9719336E3,1.178263E3,2.929039E3,2.1576853E3,3.0511184E3,6.247784E3,9.71725E2,4.827934E3,1.1439995E3],"tree_param":{"num_deleted":"0","num_feature":"86","num_nodes":"15","size_leaf_vector":"1"}},{"base_weights":[-0E0,-4.839152E-1,3.57777E-1,-8.6969E-1,-3.305683E-1,1.6382223E-1,7.181763E-1,-2.2276703E-2,-1.4632968E-2,-4.4209114E-3,-1.090947E-2,8.665274E-3,1.0828614E-3,1.008179E-2,1.8260792E-2],"categories":[],"categories_nodes":[],"categories_segments":[],"categories_sizes":[],"default_left":[0,0,0,0,0,0,0,0,0,0,0,0,0,0,0],"id":21,"left_children":[1,3,5,7,9,11,13,-1,-1,-1,-1,-1,-1,-1,-1],"loss_changes":[3.893702E3,5.6139307E2,9.0051245E2,8.0920166E1,1.6014929E2,2.544125E2,1.9384106E2,0E0,0E0,0E0,0E0,0E0,0E0,0E0,0E0],"parents":[2147483647,0,0,1,1,2,2,3,3,4,4,5,5,6,6],"right_children":[2,4,6,8,10,12,14,-1,-1,-1,-1,-1,-1,-1,-1],"split_conditions":[-3.6224922E1,-2.1846918E2,1.4948657E2,-3.5994247E2,6.4E1,-5.2E1,1.648614E1,-2.2276703E-2,-1.4632968E-2,-4.4209114E-3,-1.090947E-2,8.665274E-3,1.0828614E-3,1.008179E-2,1.8260792E-2],"split_indices":[9,15,15,9,1,1,3,0,0,0,0,0,0,0,0],"split_type":[0,0,0,0,0,0,0,0,0,0,0,0,0,0,0],"sum_hessian":[2.2486996E4,9.560968E3,1.2926029E4,2.7125063E3,6.8484614E3,8.410162E3,4.5158667E3,8.0204083E2,1.9104657E3,4.736992E3,2.1114692E3,2.3251382E3,6.0850244E3,2.3762356E3,2.139631E3],"tree_param":{"num_deleted":"0","num_feature":"86","num_nodes":"15","size_leaf_vector":"1"}},{"base_weights":[3.4186393E-3,-4.7997668E-1,3.4360352E-1,-7.8388566E-1,-2.9236615E-1,1.1238589E-1,6.441919E-1,-2.1336304E-2,-1.31219635E-2,-8.858131E-3,-2.869794E-3,4.7594854E-3,-1.3000732E-3,9.618422E-3,1.7707236E-2],"categories":[],"categories_nodes":[],"categories_segments":[],"categories_sizes":[],"default_left":[0,0,0,0,0,0,0,0,0,0,0,0,0,0,0],"id":22,"left_children":[1,3,5,7,9,11,13,-1,-1,-1,-1,-1,-1,-1,-1],"loss_changes":[3.693538E3,5.2501953E2,9.140381E2,1.1452222E2,1.3343079E2,1.7743484E2,2.231875E2,0E0,0E0,0E0,0E0,0E0,0E0,0E0,0E0],"parents":[2147483647,0,0,1,1,2,2,3,3,4,4,5,5,6,6],"right_children":[2,4,6,8,10,12,14,-1,-1,-1,-1,-1,-1,-1,-1],"split_conditions":[-4.1797977E1,-1.9758257E2,1.2716174E2,-3.410718E2,-9.6197784E1,-3E0,2.6427585E2,-2.1336304E-2,-1.31219635E-2,-8.858131E-3,-2.869794E-3,4.7594854E-3,-1.3000732E-3,9.618422E-3,1.7707236E-2],"split_indices":[9,9,9,15,15,1,9,0,0,0,0,0,0,0,0],"split_type":[0,0,0,0,0,0,0,0,0,0,0,0,0,0,0],"sum_hessian":[2.2462607E4,9.274092E3,1.3188516E4,3.5323206E3,5.7417715E3,7.4612437E3,5.7272715E3,9.0661456E2,2.625706E3,2.6910347E3,3.0507366E3,4.3041167E3,3.157127E3,3.6721436E3,2.0551282E3],"tree_param":{"num_deleted":"0","num_feature":"86","num_nodes":"15","size_leaf_vector":"1"}},{"base_weights":[-9.921893E-4,-3.5345593E-1,4.6151078E-1,-7.3540586E-1,-1.5701853E-1,2.8703356E-1,7.81115E-1,-2.0278865E-2,-1.2074401E-2,1.9140451E-3,-5.659933E-3,1.953843E-3,7.838937E-3,1.2289528E-2,1.9960338E-2],"categories":[],"categories_nodes":[],"categories_segments":[],"categories_sizes":[],"default_left":[0,0,0,0,0,0,0,0,0,0,0,0,0,0,0],"id":23,"left_children":[1,3,5,7,9,11,13,-1,-1,-1,-1,-1,-1,-1,-1],"loss_changes":[3.6590105E3,9.5304895E2,5.3739307E2,1.4629028E2,2.886412E2,1.3415143E2,1.1914136E2,0E0,0E0,0E0,0E0,0E0,0E0,0E0,0E0],"parents":[2147483647,0,0,1,1,2,2,3,3,4,4,5,5,6,6],"right_children":[2,4,6,8,10,12,14,-1,-1,-1,-1,-1,-1,-1,-1],"split_conditions":[2.89926E1,-1.6386069E2,1.9070238E2,-3.1526047E2,-9E0,2.508454E-1,2.3812801E1,-2.0278865E-2,-1.2074401E-2,1.9140451E-3,-5.659933E-3,1.953843E-3,7.838937E-3,1.2289528E-2,1.9960338E-2],"split_indices":[15,9,9,15,1,75,3,0,0,0,0,0,0,0,0],"split_type":[0,0,0,0,0,0,0,0,0,0,0,0,0,0,0],"sum_hessian":[2.2447025E4,1.2743196E4,9.703828E3,4.321596E3,8.421601E3,6.2845967E3,3.4192314E3,1.1676138E3,3.1539827E3,2.887676E3,5.533924E3,2.418876E3,3.865721E3,2.1326091E3,1.2866224E3],"tree_param":{"num_deleted":"0","num_feature":"86","num_nodes":"15","size_leaf_vector":"1"}},{"base_weights":[-2.5712026E-5,-3.4699953E-1,4.5584798E-1,-6.677073E-1,-1.1998943E-1,2.6804778E-1,7.4777675E-1,-1.9645087E-2,-1.1038109E-2,2.1558886E-3,-5.023112E-3,5.9815194E-3,-4.6474873E-3,1.2980892E-2,2.311968E-2],"categories":[],"categories_nodes":[],"categories_segments":[],"categories_sizes":[],"default_left":[0,0,0,0,0,0,0,0,0,0,0,0,0,0,0],"id":24,"left_children":[1,3,5,7,9,11,13,-1,-1,-1,-1,-1,-1,-1,-1],"loss_changes":[3.5459546E3,9.244198E2,5.2742114E2,1.7531885E2,2.3853659E2,1.1807947E2,1.27632324E2,0E0,0E0,0E0,0E0,0E0,0E0,0E0,0E0],"parents":[2147483647,0,0,1,1,2,2,3,3,4,4,5,5,6,6],"right_children":[2,4,6,8,10,12,14,-1,-1,-1,-1,-1,-1,-1,-1],"split_conditions":[2.89926E1,-1.3176196E2,1.7540106E2,-3.1526047E2,-9E0,8.2E1,4.0179068E2,-1.9645087E-2,-1.1038109E-2,2.1558886E-3,-5.023112E-3,5.9815194E-3,-4.6474873E-3,1.2980892E-2,2.311968E-2],"split_indices":[15,9,9,15,1,1,9,0,0,0,0,0,0,0,0],"split_type":[0,0,0,0,0,0,0,0,0,0,0,0,0,0,0],"sum_hessian":[2.2419078E4,1.273434E4,9.684738E3,5.2713086E3,7.4630317E3,5.90114E3,3.7835977E3,1.1875173E3,4.0837913E3,2.7856797E3,4.677352E3,5.4821816E3,4.1895868E2,3.2059358E3,5.776617E2],"tree_param":{"num_deleted":"0","num_feature":"86","num_nodes":"15","size_leaf_vector":"1"}},{"base_weights":[2.622061E-3,-4.246912E-1,3.508147E-1,-7.1675485E-1,-2.2046745E-1,1.0656508E-1,6.2374306E-1,-2.0580754E-2,-1.2096036E-2,-7.4955437E-4,-6.9534634E-3,3.2966905E-3,-6.164803E-3,1.0222925E-2,1.9236647E-2],"categories":[],"categories_nodes":[],"categories_segments":[],"categories_sizes":[],"default_left":[0,0,0,0,0,0,0,0,0,0,0,0,0,0,0],"id":25,"left_children":[1,3,5,7,9,11,13,-1,-1,-1,-1,-1,-1,-1,-1],"loss_changes":[3.330126E3,5.95902E2,8.199573E2,1.27720215E2,1.4609775E2,1.7304701E2,2.0341919E2,0E0,0E0,0E0,0E0,0E0,0E0,0E0,0E0],"parents":[2147483647,0,0,1,1,2,2,3,3,4,4,5,5,6,6],"right_children":[2,4,6,8,10,12,14,-1,-1,-1,-1,-1,-1,-1,-1],"split_conditions":[-2.1919266E1,-1.6386069E2,1.1271553E2,-3.5994247E2,8E0,7E1,3.1898706E2,-2.0580754E-2,-1.2096036E-2,-7.4955437E-4,-6.9534634E-3,3.2966905E-3,-6.164803E-3,1.0222925E-2,1.9236647E-2],"split_indices":[15,9,9,9,1,1,9,0,0,0,0,0,0,0,0],"split_type":[0,0,0,0,0,0,0,0,0,0,0,0,0,0,0],"sum_hessian":[2.238246E4,1.0045004E4,1.2337458E4,4.1261533E3,5.91885E3,6.5177656E3,5.8196924E3,8.905478E2,3.2356057E3,2.5524685E3,3.3663816E3,5.682354E3,8.354115E2,4.5928716E3,1.2268208E3],"tree_param":{"num_deleted":"0","num_feature":"86","num_nodes":"15","size_leaf_vector":"1"}},{"base_weights":[-5.3652836E-4,-4.2413574E-1,3.4412852E-1,-7.109264E-1,-2.2418976E-1,1.04779996E-1,6.0982877E-1,-1.9325059E-2,-1.1693369E-2,-3.9835606E-4,-6.6917036E-3,3.2592118E-3,-6.22433E-3,9.452749E-3,1.7977418E-2],"categories":[],"categories_nodes":[],"categories_segments":[],"categories_sizes":[],"default_left":[0,0,0,0,0,0,0,0,0,0,0,0,0,0,0],"id":26,"left_children":[1,3,5,7,9,11,13,-1,-1,-1,-1,-1,-1,-1,-1],"loss_changes":[3.2566519E3,5.7076685E2,7.793258E2,1.216582E2,1.4281967E2,1.7200197E2,2.2162793E2,0E0,0E0,0E0,0E0,0E0,0E0,0E0,0E0],"parents":[2147483647,0,0,1,1,2,2,3,3,4,4,5,5,6,6],"right_children":[2,4,6,8,10,12,14,-1,-1,-1,-1,-1,-1,-1,-1],"split_conditions":[-2.1919266E1,-1.6386069E2,1.1271553E2,-3.1526047E2,2E0,7E1,2.3310156E1,-1.9325059E-2,-1.1693369E-2,-3.9835606E-4,-6.6917036E-3,3.2592118E-3,-6.22433E-3,9.452749E-3,1.7977418E-2],"split_indices":[15,9,9,15,1,1,3,0,0,0,0,0,0,0,0],"split_type":[0,0,0,0,0,0,0,0,0,0,0,0,0,0,0],"sum_hessian":[2.2302973E4,1.001013E4,1.2292844E4,4.1045107E3,5.9056187E3,6.474245E3,5.818598E3,1.1405195E3,2.9639915E3,2.1969434E3,3.7086753E3,5.648268E3,8.259769E2,4.180632E3,1.6379666E3],"tree_param":{"num_deleted":"0","num_feature":"86","num_nodes":"15","size_leaf_vector":"1"}},{"base_weights":[-1.1792831E-5,-3.079301E-1,4.5346457E-1,-5.915551E-1,-5.761299E-2,3.127843E-1,7.9221964E-1,-1.613656E-2,-8.597308E-3,6.7189234E-5,-8.937591E-3,4.342618E-3,1.0720808E-2,1.1779281E-2,1.9490888E-2],"categories":[],"categories_nodes":[],"categories_segments":[],"categories_sizes":[],"default_left":[0,0,0,0,0,0,0,0,0,0,0,0,0,0,0],"id":27,"left_children":[1,3,5,7,9,11,13,-1,-1,-1,-1,-1,-1,-1,-1],"loss_changes":[3.1154775E3,9.416776E2,4.259718E2,2.1711523E2,1.7498541E2,1.334917E2,9.752466E1,0E0,0E0,0E0,0E0,0E0,0E0,0E0,0E0],"parents":[2147483647,0,0,1,1,2,2,3,3,4,4,5,5,6,6],"right_children":[2,4,6,8,10,12,14,-1,-1,-1,-1,-1,-1,-1,-1],"split_conditions":[4.5718346E1,-9.6197784E1,2.1795793E2,-2.3479126E2,9.5E1,2.2538185E0,2.0652065E1,-1.613656E-2,-8.597308E-3,6.7189234E-5,-8.937591E-3,4.342618E-3,1.0720808E-2,1.1779281E-2,1.9490888E-2],"split_indices":[9,15,15,15,1,75,3,0,0,0,0,0,0,0,0],"split_type":[0,0,0,0,0,0,0,0,0,0,0,0,0,0,0],"sum_hessian":[2.231433E4,1.32946875E4,9.019642E3,6.2259644E3,7.068723E3,6.3808193E3,2.6388225E3,2.3953857E3,3.8305789E3,6.1291006E3,9.396227E2,4.648088E3,1.7327314E3,1.4047208E3,1.2341016E3],"tree_param":{"num_deleted":"0","num_feature":"86","num_nodes":"15","size_leaf_vector":"1"}},{"base_weights":[-1.8313475E-4,-3.220012E-1,4.2194653E-1,-6.2147146E-1,-1.1225459E-1,2.603283E-1,7.211425E-1,-1.8382365E-2,-1.0154128E-2,4.3877633E-3,-3.7916084E-3,1.6600563E-3,7.197552E-3,1.11682825E-2,1.87313E-2],"categories":[],"categories_nodes":[],"categories_segments":[],"categories_sizes":[],"default_left":[0,0,0,0,0,0,0,0,0,0,0,0,0,0,0],"id":28,"left_children":[1,3,5,7,9,11,13,-1,-1,-1,-1,-1,-1,-1,-1],"loss_changes":[3.0232454E3,7.9101526E2,4.6190088E2,1.6208044E2,2.0746112E2,1.1843356E2,1.1417273E2,0E0,0E0,0E0,0E0,0E0,0E0,0E0,0E0],"parents":[2147483647,0,0,1,1,2,2,3,3,4,4,5,5,6,6],"right_children":[2,4,6,8,10,12,14,-1,-1,-1,-1,-1,-1,-1,-1],"split_conditions":[2.89926E1,-1.3176196E2,1.9070238E2,-3.2594894E2,-4.1E1,2.508454E-1,2.3812801E1,-1.8382365E-2,-1.0154128E-2,4.3877633E-3,-3.7916084E-3,1.6600563E-3,7.197552E-3,1.11682825E-2,1.87313E-2],"split_indices":[15,9,9,9,1,75,3,0,0,0,0,0,0,0,0],"split_type":[0,0,0,0,0,0,0,0,0,0,0,0,0,0,0],"sum_hessian":[2.2255955E4,1.2633092E4,9.622863E3,5.1964673E3,7.4366245E3,6.255918E3,3.3669453E3,1.2146272E3,3.9818398E3,1.4532482E3,5.983376E3,2.42141E3,3.834508E3,2.1023225E3,1.2646226E3],"tree_param":{"num_deleted":"0","num_feature":"86","num_nodes":"15","size_leaf_vector":"1"}},{"base_weights":[-2.2908417E-3,-3.203155E-1,4.1552082E-1,-6.186709E-1,-1.11172E-1,2.5100684E-1,7.03386E-1,-1.61246E-2,-9.146653E-3,2.1276826E-3,-4.7255126E-3,9.497568E-3,3.0827518E-3,1.1672204E-2,2.0319715E-2],"categories":[],"categories_nodes":[],"categories_segments":[],"categories_sizes":[],"default_left":[0,0,0,0,0,0,0,0,0,0,0,0,0,0,0],"id":29,"left_children":[1,3,5,7,9,11,13,-1,-1,-1,-1,-1,-1,-1,-1],"loss_changes":[2.9562136E3,7.861167E2,4.5185815E2,1.5771606E2,2.1648181E2,1.3219562E2,1.1713269E2,0E0,0E0,0E0,0E0,0E0,0E0,0E0,0E0],"parents":[2147483647,0,0,1,1,2,2,3,3,4,4,5,5,6,6],"right_children":[2,4,6,8,10,12,14,-1,-1,-1,-1,-1,-1,-1,-1],"split_conditions":[2.89926E1,-1.3176196E2,2.0614488E0,-2.3479126E2,-9E0,-5.2E1,3.3837006E2,-1.61246E-2,-9.146653E-3,2.1276826E-3,-4.7255126E-3,9.497568E-3,3.0827518E-3,1.1672204E-2,2.0319715E-2],"split_indices":[15,9,75,15,1,1,15,0,0,0,0,0,0,0,0],"split_type":[0,0,0,0,0,0,0,0,0,0,0,0,0,0,0],"sum_hessian":[2.2249605E4,1.2638143E4,9.611464E3,5.2011294E3,7.4370127E3,6.1242637E3,3.4871997E3,2.1441118E3,3.0570176E3,2.7711191E3,4.6658936E3,1.7084839E3,4.41578E3,2.6840386E3,8.03161E2],"tree_param":{"num_deleted":"0","num_feature":"86","num_nodes":"15","size_leaf_vector":"1"}},{"base_weights":[-1.5990062E-3,-3.10096E-1,4.0386924E-1,-6.523695E-1,-1.3709763E-1,2.4731965E-1,7.052771E-1,-1.9525183E-2,-1.0871287E-2,6.2893773E-4,-5.733729E-3,1.3800784E-3,6.9611007E-3,1.0782078E-2,1.8209597E-2],"categories":[],"categories_nodes":[],"categories_segments":[],"categories_sizes":[],"default_left":[0,0,0,0,0,0,0,0,0,0,0,0,0,0,0],"id":30,"left_children":[1,3,5,7,9,11,13,-1,-1,-1,-1,-1,-1,-1,-1],"loss_changes":[2.7806765E3,7.45177E2,4.4972437E2,1.3358923E2,2.2511258E2,1.2180728E2,1.0878174E2,0E0,0E0,0E0,0E0,0E0,0E0,0E0,0E0],"parents":[2147483647,0,0,1,1,2,2,3,3,4,4,5,5,6,6],"right_children":[2,4,6,8,10,12,14,-1,-1,-1,-1,-1,-1,-1,-1],"split_conditions":[2.89926E1,-1.6386069E2,1.9347635E2,-3.5994247E2,8E0,2.7221608E-1,2.3310156E1,-1.9525183E-2,-1.0871287E-2,6.2893773E-4,-5.733729E-3,1.3800784E-3,6.9611007E-3,1.0782078E-2,1.8209597E-2],"split_indices":[15,9,9,9,1,75,3,0,0,0,0,0,0,0,0],"split_type":[0,0,0,0,0,0,0,0,0,0,0,0,0,0,0],"sum_hessian":[2.2231707E4,1.263046E4,9.601246E3,4.2334844E3,8.396976E3,6.327181E3,3.2740652E3,8.8245264E2,3.351032E3,4.0363933E3,4.360582E3,2.4486104E3,3.878571E3,1.9879604E3,1.2861049E3],"tree_param":{"num_deleted":"0","num_feature":"86","num_nodes":"15","size_leaf_vector":"1"}},{"base_weights":[1.7527866E-3,3.492252E-1,-3.5474417E-1,1.7570099E-1,6.509238E-1,-6.374152E-1,-1.4474697E-1,1.554133E-2,2.612204E-3,1.0866011E-2,1.9986501E-2,-1.6626226E-2,-9.583658E-3,-6.0391384E-3,3.9129492E-4],"categories":[],"categories_nodes":[],"categories_segments":[],"categories_sizes":[],"default_left":[0,0,0,0,0,0,0,0,0,0,0,0,0,0,0],"id":31,"left_children":[1,3,5,7,9,11,13,-1,-1,-1,-1,-1,-1,-1,-1],"loss_changes":[2.7521978E3,5.864127E2,6.4797864E2,1.8149507E2,1.3703906E2,1.419115E2,1.7294652E2,0E0,0E0,0E0,0E0,0E0,0E0,0E0,0E0],"parents":[2147483647,0,0,1,1,2,2,3,3,4,4,5,5,6,6],"right_children":[2,4,6,8,10,12,14,-1,-1,-1,-1,-1,-1,-1,-1],"split_conditions":[2E0,1.4948657E2,-1.2596967E2,-2.56E2,3.5865784E2,-2.9009752E0,-3.7296328E-1,1.554133E-2,2.612204E-3,1.0866011E-2,1.9986501E-2,-1.6626226E-2,-9.583658E-3,-6.0391384E-3,3.9129492E-4],"split_indices":[1,15,15,1,15,79,76,0,0,0,0,0,0,0,0],"split_type":[0,0,0,0,0,0,0,0,0,0,0,0,0,0,0],"sum_hessian":[2.2217062E4,1.1255786E4,1.0961276E4,7.153502E3,4.102284E3,4.6648237E3,6.2964526E3,4.404348E2,6.7130674E3,3.3014878E3,8.007964E2,1.8563772E3,2.8084463E3,3.1508542E3,3.1455984E3],"tree_param":{"num_deleted":"0","num_feature":"86","num_nodes":"15","size_leaf_vector":"1"}},{"base_weights":[2.0485492E-3,-3.2848057E-1,3.6646348E-1,-5.8332056E-1,-1.1520562E-1,2.0432171E-1,6.486356E-1,-1.5914558E-2,-8.667294E-3,-6.6561396E-3,-3.0975387E-4,2.876183E-4,6.154836E-3,1.0701602E-2,1.9372357E-2],"categories":[],"categories_nodes":[],"categories_segments":[],"categories_sizes":[],"default_left":[0,0,0,0,0,0,0,0,0,0,0,0,0,0,0],"id":32,"left_children":[1,3,5,7,9,11,13,-1,-1,-1,-1,-1,-1,-1,-1],"loss_changes":[2.665998E3,6.2810974E2,4.788656E2,1.6622241E2,1.412271E2,1.4104733E2,1.25704834E2,0E0,0E0,0E0,0E0,0E0,0E0,0E0,0E0],"parents":[2147483647,0,0,1,1,2,2,3,3,4,4,5,5,6,6],"right_children":[2,4,6,8,10,12,14,-1,-1,-1,-1,-1,-1,-1,-1],"split_conditions":[1.1680534E1,-1.18595314E2,2.0614488E0,-2.9009752E0,-1.6910466E0,4.7146523E1,3.293413E2,-1.5914558E-2,-8.667294E-3,-6.6561396E-3,-3.0975387E-4,2.876183E-4,6.154836E-3,1.0701602E-2,1.9372357E-2],"split_indices":[9,15,75,79,79,15,15,0,0,0,0,0,0,0,0],"split_type":[0,0,0,0,0,0,0,0,0,0,0,0,0,0,0],"sum_hessian":[2.2131604E4,1.1600495E4,1.0531108E4,5.2775444E3,6.3229507E3,6.6962617E3,3.8348464E3,1.9431235E3,3.334421E3,1.9138008E3,4.40915E3,2.4988862E3,4.197376E3,2.9949297E3,8.3991693E2],"tree_param":{"num_deleted":"0","num_feature":"86","num_nodes":"15","size_leaf_vector":"1"}},{"base_weights":[-3.2925669E-3,-4.0693107E-1,2.7998728E-1,-7.018609E-1,-2.5614384E-1,8.764896E-2,5.577826E-1,-1.8969249E-2,-1.1590437E-2,-1.1049232E-3,-6.84638E-3,2.847078E-3,-6.0660676E-3,9.411557E-3,1.9208934E-2],"categories":[],"categories_nodes":[],"categories_segments":[],"categories_sizes":[],"default_left":[0,0,0,0,0,0,0,0,0,0,0,0,0,0,0],"id":33,"left_children":[1,3,5,7,9,11,13,-1,-1,-1,-1,-1,-1,-1,-1],"loss_changes":[2.5336628E3,4.0317505E2,6.9308514E2,8.3772095E1,1.14200134E2,1.7986777E2,1.6385925E2,0E0,0E0,0E0,0E0,0E0,0E0,0E0,0E0],"parents":[2147483647,0,0,1,1,2,2,3,3,4,4,5,5,6,6],"right_children":[2,4,6,8,10,12,14,-1,-1,-1,-1,-1,-1,-1,-1],"split_conditions":[-3.800958E1,-2.0109424E2,1.2716174E2,-3.5994247E2,3E0,7E1,3.5865784E2,-1.8969249E-2,-1.1590437E-2,-1.1049232E-3,-6.84638E-3,2.847078E-3,-6.0660676E-3,9.411557E-3,1.9208934E-2],"split_indices":[15,9,9,9,1,1,15,0,0,0,0,0,0,0,0],"split_type":[0,0,0,0,0,0,0,0,0,0,0,0,0,0,0],"sum_hessian":[2.2153713E4,9.140893E3,1.3012819E4,3.0841094E3,6.0567837E3,7.696739E3,5.31608E3,8.5313965E2,2.2309697E3,1.9767865E3,4.079997E3,6.718558E3,9.7818097E2,4.5418574E3,7.7422253E2],"tree_param":{"num_deleted":"0","num_feature":"86","num_nodes":"15","size_leaf_vector":"1"}},{"base_weights":[-1.0524457E-4,-4.3021578E-1,2.6365876E-1,-6.9624424E-1,-2.799761E-1,6.360545E-2,5.328038E-1,-1.9931853E-2,-1.1970104E-2,-6.86296E-3,-1.1020503E-3,-2.0811376E-3,3.908386E-3,8.65124E-3,1.7570253E-2],"categories":[],"categories_nodes":[],"categories_segments":[],"categories_sizes":[],"default_left":[0,0,0,0,0,0,0,0,0,0,0,0,0,0,0],"id":34,"left_children":[1,3,5,7,9,11,13,-1,-1,-1,-1,-1,-1,-1,-1],"loss_changes":[2.5097705E3,3.3280603E2,7.3587994E2,7.4599365E1,8.609769E1,1.8458742E2,1.8570142E2,0E0,0E0,0E0,0E0,0E0,0E0,0E0,0E0],"parents":[2147483647,0,0,1,1,2,2,3,3,4,4,5,5,6,6],"right_children":[2,4,6,8,10,12,14,-1,-1,-1,-1,-1,-1,-1,-1],"split_conditions":[-5.2668404E1,-2.0109424E2,1.1271553E2,-3.857581E2,2.260286E0,-1.5251449E-1,3.2674683E2,-1.9931853E-2,-1.1970104E-2,-6.86296E-3,-1.1020503E-3,-2.0811376E-3,3.908386E-3,8.65124E-3,1.7570253E-2],"split_indices":[15,9,9,15,3,75,9,0,0,0,0,0,0,0,0],"split_type":[0,0,0,0,0,0,0,0,0,0,0,0,0,0,0],"sum_hessian":[2.2116693E4,8.412059E3,1.3704636E4,3.027226E3,5.3848325E3,7.8689824E3,5.835654E3,5.8991705E2,2.437309E3,4.0499507E3,1.3348816E3,3.4978914E3,4.371091E3,4.7216475E3,1.114006E3],"tree_param":{"num_deleted":"0","num_feature":"86","num_nodes":"15","size_leaf_vector":"1"}},{"base_weights":[3.3975958E-3,-2.8306702E-1,3.809344E-1,-5.3204924E-1,-7.882242E-2,2.3814896E-1,6.7545164E-1,-1.53704E-2,-7.823835E-3,2.582465E-3,-4.1339E-3,9.051663E-3,2.9532148E-3,1.109716E-2,1.8961854E-2],"categories":[],"categories_nodes":[],"categories_segments":[],"categories_sizes":[],"default_left":[0,0,0,0,0,0,0,0,0,0,0,0,0,0,0],"id":35,"left_children":[1,3,5,7,9,11,13,-1,-1,-1,-1,-1,-1,-1,-1],"loss_changes":[2.3883586E3,6.360711E2,3.9761365E2,1.8505042E2,1.9542859E2,1.23913605E2,9.202905E1,0E0,0E0,0E0,0E0,0E0,0E0,0E0,0E0],"parents":[2147483647,0,0,1,1,2,2,3,3,4,4,5,5,6,6],"right_children":[2,4,6,8,10,12,14,-1,-1,-1,-1,-1,-1,-1,-1],"split_conditions":[2.89926E1,-1.16174866E2,2.2538185E0,-2.9515612E0,-4E0,-5.4E1,3.293413E2,-1.53704E-2,-7.823835E-3,2.582465E-3,-4.1339E-3,9.051663E-3,2.9532148E-3,1.109716E-2,1.8961854E-2],"split_indices":[15,15,75,79,1,1,15,0,0,0,0,0,0,0,0],"split_type":[0,0,0,0,0,0,0,0,0,0,0,0,0,0,0],"sum_hessian":[2.207947E4,1.2548844E4,9.530626E3,5.647189E3,6.9016553E3,6.4271597E3,3.1034663E3,1.8821399E3,3.765049E3,2.662136E3,4.2395195E3,1.7594563E3,4.667703E3,2.306065E3,7.974014E2],"tree_param":{"num_deleted":"0","num_feature":"86","num_nodes":"15","size_leaf_vector":"1"}},{"base_weights":[9.0140034E-4,3.2194462E-1,-3.2902828E-1,1.6724125E-1,6.352843E-1,-6.270416E-1,-1.5957813E-1,1.8787367E-4,6.4798426E-3,1.06076505E-2,1.905673E-2,-1.8574758E-2,-1.0583453E-2,-9.004042E-3,-1.3946606E-3],"categories":[],"categories_nodes":[],"categories_segments":[],"categories_sizes":[],"default_left":[0,0,0,0,0,0,0,0,0,0,0,0,0,0,0],"id":36,"left_children":[1,3,5,7,9,11,13,-1,-1,-1,-1,-1,-1,-1,-1],"loss_changes":[2.3381855E3,5.398042E2,5.4676685E2,1.9482567E2,1.0901257E2,1.018042E2,1.8324867E2,0E0,0E0,0E0,0E0,0E0,0E0,0E0,0E0],"parents":[2147483647,0,0,1,1,2,2,3,3,4,4,5,5,6,6],"right_children":[2,4,6,8,10,12,14,-1,-1,-1,-1,-1,-1,-1,-1],"split_conditions":[2E0,2.0614488E0,-1.5245976E2,5.8351692E1,3.3837006E2,-3.5994247E2,-1.7300407E1,1.8787367E-4,6.4798426E-3,1.06076505E-2,1.905673E-2,-1.8574758E-2,-1.0583453E-2,-9.004042E-3,-1.3946606E-3],"split_indices":[1,75,15,15,15,9,5,0,0,0,0,0,0,0,0],"split_type":[0,0,0,0,0,0,0,0,0,0,0,0,0,0,0],"sum_hessian":[2.2073875E4,1.1192848E4,1.0881026E4,7.5010566E3,3.6917913E3,3.9364565E3,6.9445703E3,3.8565986E3,3.6444578E3,2.9347703E3,7.5702106E2,7.8699445E2,3.1494622E3,1.5515803E3,5.3929897E3],"tree_param":{"num_deleted":"0","num_feature":"86","num_nodes":"15","size_leaf_vector":"1"}},{"base_weights":[-8.695294E-5,-3.8876745E-1,2.5834355E-1,-7.1860766E-1,-2.7485326E-1,1.0807778E-1,5.6352174E-1,-2.0351522E-2,-1.228128E-2,-9.37799E-3,-3.5821097E-3,9.664683E-3,9.300633E-4,7.7489642E-3,1.4656358E-2],"categories":[],"categories_nodes":[],"categories_segments":[],"categories_sizes":[],"default_left":[0,0,0,0,0,0,0,0,0,0,0,0,0,0,0],"id":37,"left_children":[1,3,5,7,9,11,13,-1,-1,-1,-1,-1,-1,-1,-1],"loss_changes":[2.2127239E3,3.271936E2,6.0407733E2,5.8358643E1,1.2080884E2,2.0589224E2,1.3249512E2,0E0,0E0,0E0,0E0,0E0,0E0,0E0,0E0],"parents":[2147483647,0,0,1,1,2,2,3,3,4,4,5,5,6,6],"right_children":[2,4,6,8,10,12,14,-1,-1,-1,-1,-1,-1,-1,-1],"split_conditions":[-4.743878E1,-2.3479126E2,1.4948657E2,-4.1741742E2,-1.860529E1,-1.01E2,1.648614E1,-2.0351522E-2,-1.228128E-2,-9.37799E-3,-3.5821097E-3,9.664683E-3,9.300633E-4,7.7489642E-3,1.4656358E-2],"split_indices":[9,15,15,15,5,1,3,0,0,0,0,0,0,0,0],"split_type":[0,0,0,0,0,0,0,0,0,0,0,0,0,0,0],"sum_hessian":[2.2023352E4,8.800422E3,1.322293E4,2.2507402E3,6.5496816E3,8.868203E3,4.3547266E3,4.6484955E2,1.7858906E3,1.9831448E3,4.5665366E3,1.1826191E3,7.685584E3,2.3381025E3,2.016624E3],"tree_param":{"num_deleted":"0","num_feature":"86","num_nodes":"15","size_leaf_vector":"1"}},{"base_weights":[-1.2454476E-3,-4.012198E-1,2.4304989E-1,-6.486267E-1,-2.50722E-1,6.6558875E-2,5.2033234E-1,-1.7924389E-2,-1.0520856E-2,-7.981319E-3,-2.8381625E-3,2.2401253E-3,-7.6297903E-3,8.737876E-3,1.8417304E-2],"categories":[],"categories_nodes":[],"categories_segments":[],"categories_sizes":[],"default_left":[0,0,0,0,0,0,0,0,0,0,0,0,0,0,0],"id":38,"left_children":[1,3,5,7,9,11,13,-1,-1,-1,-1,-1,-1,-1,-1],"loss_changes":[2.150775E3,3.0773828E2,6.662942E2,8.739026E1,8.50455E1,1.8519383E2,1.5608032E2,0E0,0E0,0E0,0E0,0E0,0E0,0E0,0E0],"parents":[2147483647,0,0,1,1,2,2,3,3,4,4,5,5,6,6],"right_children":[2,4,6,8,10,12,14,-1,-1,-1,-1,-1,-1,-1,-1],"split_conditions":[-5.2668404E1,-1.5442128E1,1.2716174E2,-3.1526047E2,-1.5840643E2,9.5E1,3.5865784E2,-1.7924389E-2,-1.0520856E-2,-7.981319E-3,-2.8381625E-3,2.2401253E-3,-7.6297903E-3,8.737876E-3,1.8417304E-2],"split_indices":[15,7,9,15,15,1,15,0,0,0,0,0,0,0,0],"split_type":[0,0,0,0,0,0,0,0,0,0,0,0,0,0,0],"sum_hessian":[2.2004865E4,8.349014E3,1.3655852E4,3.1486064E3,5.200407E3,8.352433E3,5.3034185E3,8.8274066E2,2.2658657E3,2.0492798E3,3.1511272E3,7.559698E3,7.927348E2,4.5517305E3,7.516879E2],"tree_param":{"num_deleted":"0","num_feature":"86","num_nodes":"15","size_leaf_vector":"1"}},{"base_weights":[-3.2813293E-3,-2.5824675E-1,3.740556E-1,-4.936528E-1,-4.940995E-2,2.6861444E-1,7.1483904E-1,-1.3866475E-2,-7.061822E-3,-3.2890881E-3,2.250015E-3,3.400012E-3,8.362021E-3,1.1808454E-2,1.9854994E-2],"categories":[],"categories_nodes":[],"categories_segments":[],"categories_sizes":[],"default_left":[0,0,0,0,0,0,0,0,0,0,0,0,0,0,0],"id":39,"left_children":[1,3,5,7,9,11,13,-1,-1,-1,-1,-1,-1,-1,-1],"loss_changes":[2.11216E3,6.426092E2,3.1451306E2,1.7240247E2,1.3752606E2,1.0026059E2,6.28479E1,0E0,0E0,0E0,0E0,0E0,0E0,0E0,0E0],"parents":[2147483647,0,0,1,1,2,2,3,3,4,4,5,5,6,6],"right_children":[2,4,6,8,10,12,14,-1,-1,-1,-1,-1,-1,-1,-1],"split_conditions":[4.5718346E1,-9.4181526E1,2.5452211E2,-1.8452005E1,-6.638582E-2,1.74921E0,3.4529346E1,-1.3866475E-2,-7.061822E-3,-3.2890881E-3,2.250015E-3,3.400012E-3,8.362021E-3,1.1808454E-2,1.9854994E-2],"split_indices":[9,15,9,7,75,75,7,0,0,0,0,0,0,0,0],"split_type":[0,0,0,0,0,0,0,0,0,0,0,0,0,0,0],"sum_hessian":[2.1957213E4,1.310882E4,8.848393E3,6.1544033E3,6.9544175E3,6.765887E3,2.0825059E3,2.2894219E3,3.8649814E3,4.0438872E3,2.9105303E3,4.289649E3,2.4762385E3,1.548389E3,5.3411676E2],"tree_param":{"num_deleted":"0","num_feature":"86","num_nodes":"15","size_leaf_vector":"1"}},{"base_weights":[-1.637533E-3,-2.4989274E-1,3.716323E-1,-5.6481934E-1,-1.05210304E-1,2.5008205E-1,6.501818E-1,-1.6400198E-2,-9.091877E-3,-4.336082E-3,1.5237733E-3,8.513702E-3,3.335703E-3,1.0482982E-2,1.7997622E-2],"categories":[],"categories_nodes":[],"categories_segments":[],"categories_sizes":[],"default_left":[0,0,0,0,0,0,0,0,0,0,0,0,0,0,0],"id":40,"left_children":[1,3,5,7,9,11,13,-1,-1,-1,-1,-1,-1,-1,-1],"loss_changes":[2.0344874E3,5.9884814E2,2.9363696E2,1.0777539E2,1.9587123E2,8.800253E1,7.6013306E1,0E0,0E0,0E0,0E0,0E0,0E0,0E0,0E0],"parents":[2147483647,0,0,1,1,2,2,3,3,4,4,5,5,6,6],"right_children":[2,4,6,8,10,12,14,-1,-1,-1,-1,-1,-1,-1,-1],"split_conditions":[4.360645E1,-1.6386069E2,2.5802858E0,-3.1526047E2,1.2911502E0,-5.2E1,3.2130405E2,-1.6400198E-2,-9.091877E-3,-4.336082E-3,1.5237733E-3,8.513702E-3,3.335703E-3,1.0482982E-2,1.7997622E-2],"split_indices":[15,9,79,15,3,1,15,0,0,0,0,0,0,0,0],"split_type":[0,0,0,0,0,0,0,0,0,0,0,0,0,0,0],"sum_hessian":[2.1958477E4,1.3193208E4,8.765268E3,4.145267E3,9.047941E3,6.111573E3,2.653694E3,1.0662513E3,3.0790159E3,5.524796E3,3.523145E3,1.7924336E3,4.3191396E3,1.8982032E3,7.554908E2],"tree_param":{"num_deleted":"0","num_feature":"86","num_nodes":"15","size_leaf_vector":"1"}},{"base_weights":[-2.5223562E-4,-2.584723E-1,3.5084602E-1,-5.563186E-1,-1.0985733E-1,2.4383341E-1,6.8364847E-1,-1.4789979E-2,-8.198803E-3,9.385786E-4,-5.172863E-3,8.657765E-3,2.9130736E-3,1.1290522E-2,1.9297818E-2],"categories":[],"categories_nodes":[],"categories_segments":[],"categories_sizes":[],"default_left":[0,0,0,0,0,0,0,0,0,0,0,0,0,0,0],"id":41,"left_children":[1,3,5,7,9,11,13,-1,-1,-1,-1,-1,-1,-1,-1],"loss_changes":[1.9882618E3,5.573971E2,3.2760144E2,1.1135535E2,2.09008E2,1.3116876E2,6.609082E1,0E0,0E0,0E0,0E0,0E0,0E0,0E0,0E0],"parents":[2147483647,0,0,1,1,2,2,3,3,4,4,5,5,6,6],"right_children":[2,4,6,8,10,12,14,-1,-1,-1,-1,-1,-1,-1,-1],"split_conditions":[3.247729E1,-1.5840643E2,2.3883716E2,-2.9009752E0,1.3E1,-5.2E1,3.0799782E1,-1.4789979E-2,-8.198803E-3,9.385786E-4,-5.172863E-3,8.657765E-3,2.9130736E-3,1.1290522E-2,1.9297818E-2],"split_indices":[15,15,15,79,1,1,3,0,0,0,0,0,0,0,0],"split_type":[0,0,0,0,0,0,0,0,0,0,0,0,0,0,0],"sum_hessian":[2.1933281E4,1.2643955E4,9.289325E3,4.200732E3,8.443224E3,7.0375327E3,2.2517927E3,1.6621799E3,2.5385522E3,4.18286E3,4.2603633E3,2.2310576E3,4.806475E3,1.695642E3,5.561507E2],"tree_param":{"num_deleted":"0","num_feature":"86","num_nodes":"15","size_leaf_vector":"1"}},{"base_weights":[2.4034032E-3,-3.2384574E-1,2.6730666E-1,-5.896317E-1,-1.8388654E-1,9.267153E-2,4.9902204E-1,-1.5245832E-2,-8.562663E-3,-5.4001226E-4,-5.8009312E-3,6.292552E-3,2.4964727E-4,7.76782E-3,1.4996777E-2],"categories":[],"categories_nodes":[],"categories_segments":[],"categories_sizes":[],"default_left":[0,0,0,0,0,0,0,0,0,0,0,0,0,0,0],"id":42,"left_children":[1,3,5,7,9,11,13,-1,-1,-1,-1,-1,-1,-1,-1],"loss_changes":[1.8901061E3,3.6169153E2,4.866535E2,9.3401E1,1.1351666E2,1.2588632E2,1.3636658E2,0E0,0E0,0E0,0E0,0E0,0E0,0E0,0E0],"parents":[2147483647,0,0,1,1,2,2,3,3,4,4,5,5,6,6],"right_children":[2,4,6,8,10,12,14,-1,-1,-1,-1,-1,-1,-1,-1],"split_conditions":[-2.1919266E1,-1.5442128E1,1.4661738E0,-2.3479126E2,1.3E1,-4.4E1,2.6738403E2,-1.5245832E-2,-8.562663E-3,-5.4001226E-4,-5.8009312E-3,6.292552E-3,2.4964727E-4,7.76782E-3,1.4996777E-2],"split_indices":[15,7,79,15,1,1,15,0,0,0,0,0,0,0,0],"split_type":[0,0,0,0,0,0,0,0,0,0,0,0,0,0,0],"sum_hessian":[2.187125E4,9.7949795E3,1.2076271E4,3.3697488E3,6.425231E3,6.8951123E3,5.1811587E3,1.4562064E3,1.9135422E3,2.7279893E3,3.6972417E3,1.7611312E3,5.133981E3,3.7997385E3,1.3814204E3],"tree_param":{"num_deleted":"0","num_feature":"86","num_nodes":"15","size_leaf_vector":"1"}},{"base_weights":[-0E0,2.8832883E-1,-2.9480827E-1,1.3124004E-1,5.4070276E-1,-5.6900877E-1,-1.4195873E-1,-3.5378884E-4,4.9839416E-3,9.035405E-3,1.718491E-2,-1.992379E-2,-9.896126E-3,-4.65535E-3,1.6500447E-3],"categories":[],"categories_nodes":[],"categories_segments":[],"categories_sizes":[],"default_left":[0,0,0,0,0,0,0,0,0,0,0,0,0,0,0],"id":43,"left_children":[1,3,5,7,9,11,13,-1,-1,-1,-1,-1,-1,-1,-1],"loss_changes":[1.8577639E3,4.358678E2,4.5029657E2,1.2813971E2,1.0582495E2,1.00519775E2,1.5378534E2,0E0,0E0,0E0,0E0,0E0,0E0,0E0,0E0],"parents":[2147483647,0,0,1,1,2,2,3,3,4,4,5,5,6,6],"right_children":[2,4,6,8,10,12,14,-1,-1,-1,-1,-1,-1,-1,-1],"split_conditions":[2E0,1.74921E0,-1.5245976E2,3.1E1,3.3837006E2,-4.1741742E2,7.906468E0,-3.5378884E-4,4.9839416E-3,9.035405E-3,1.718491E-2,-1.992379E-2,-9.896126E-3,-4.65535E-3,1.6500447E-3],"split_indices":[1,75,15,15,15,15,4,0,0,0,0,0,0,0,0],"split_type":[0,0,0,0,0,0,0,0,0,0,0,0,0,0,0],"sum_hessian":[2.1854752E4,1.105243E4,1.0802321E4,6.821011E3,4.231418E3,3.8578818E3,6.9444395E3,3.0935996E3,3.7274119E3,3.4695518E3,7.6186633E2,4.4444678E2,3.413435E3,4.869755E3,2.0746846E3],"tree_param":{"num_deleted":"0","num_feature":"86","num_nodes":"15","size_leaf_vector":"1"}},{"base_weights":[1.7129254E-4,-2.4932706E-1,3.2959744E-1,-5.342485E-1,-1.1057399E-1,2.295621E-1,6.5212905E-1,-1.6749544E-2,-8.7771695E-3,3.90209E-3,-3.4799096E-3,2.0245144E-3,7.182054E-3,1.08297905E-2,1.954194E-2],"categories":[],"categories_nodes":[],"categories_segments":[],"categories_sizes":[],"default_left":[0,0,0,0,0,0,0,0,0,0,0,0,0,0,0],"id":44,"left_children":[1,3,5,7,9,11,13,-1,-1,-1,-1,-1,-1,-1,-1],"loss_changes":[1.7940704E3,4.8850415E2,3.0057953E2,1.054917E2,1.7746683E2,1.2435834E2,6.907886E1,0E0,0E0,0E0,0E0,0E0,0E0,0E0,0E0],"parents":[2147483647,0,0,1,1,2,2,3,3,4,4,5,5,6,6],"right_children":[2,4,6,8,10,12,14,-1,-1,-1,-1,-1,-1,-1,-1],"split_conditions":[2.89926E1,-1.6386069E2,2.3883716E2,-3.5994247E2,-4.1E1,8.399118E0,4.0179068E2,-1.6749544E-2,-8.7771695E-3,3.90209E-3,-3.4799096E-3,2.0245144E-3,7.182054E-3,1.08297905E-2,1.954194E-2],"split_indices":[15,9,15,9,1,4,9,0,0,0,0,0,0,0,0],"split_type":[0,0,0,0,0,0,0,0,0,0,0,0,0,0,0],"sum_hessian":[2.182364E4,1.2412515E4,9.411127E3,4.0565667E3,8.355947E3,7.19194E3,2.2191868E3,8.137626E2,3.242804E3,1.4946182E3,6.8613296E3,3.8000132E3,3.3919265E3,1.7544342E3,4.647525E2],"tree_param":{"num_deleted":"0","num_feature":"86","num_nodes":"15","size_leaf_vector":"1"}},{"base_weights":[4.226015E-3,-3.4872115E-1,2.2696722E-1,-6.4954466E-1,-2.4373068E-1,1.04293756E-1,5.355618E-1,-1.7323341E-2,-1.0446373E-2,-8.541519E-3,-3.0291528E-3,-1.0351484E-3,4.325976E-3,8.598222E-3,1.6412942E-2],"categories":[],"categories_nodes":[],"categories_segments":[],"categories_sizes":[],"default_left":[0,0,0,0,0,0,0,0,0,0,0,0,0,0,0],"id":45,"left_children":[1,3,5,7,9,11,13,-1,-1,-1,-1,-1,-1,-1,-1],"loss_changes":[1.7137468E3,2.631372E2,5.0407465E2,5.381598E1,1.0553702E2,1.7865765E2,1.0491931E2,0E0,0E0,0E0,0E0,0E0,0E0,0E0,0E0],"parents":[2147483647,0,0,1,1,2,2,3,3,4,4,5,5,6,6],"right_children":[2,4,6,8,10,12,14,-1,-1,-1,-1,-1,-1,-1,-1],"split_conditions":[-5.348885E1,-2.3479126E2,1.6691423E2,-3.5994247E2,-1.860529E1,2.508454E-1,3.3500067E2,-1.7323341E-2,-1.0446373E-2,-8.541519E-3,-3.0291528E-3,-1.0351484E-3,4.325976E-3,8.598222E-3,1.6412942E-2],"split_indices":[9,15,15,9,5,75,9,0,0,0,0,0,0,0,0],"split_type":[0,0,0,0,0,0,0,0,0,0,0,0,0,0,0],"sum_hessian":[2.1803256E4,8.429925E3,1.3373332E4,2.1718704E3,6.258054E3,9.577703E3,3.7956287E3,6.8138684E2,1.4904834E3,1.9321072E3,4.3259473E3,4.0909377E3,5.4867656E3,2.9200986E3,8.7553E2],"tree_param":{"num_deleted":"0","num_feature":"86","num_nodes":"15","size_leaf_vector":"1"}},{"base_weights":[1.4029986E-4,2.7337247E-1,-2.8106523E-1,1.22319326E-1,5.17756E-1,-5.5578226E-1,-1.3795014E-1,-3.9864415E-3,3.4013959E-3,8.929335E-3,1.8616311E-2,-1.4935629E-2,-8.570017E-3,-6.438722E-3,-3.700461E-4],"categories":[],"categories_nodes":[],"categories_segments":[],"categories_sizes":[],"default_left":[0,0,0,0,0,0,0,0,0,0,0,0,0,0,0],"id":46,"left_children":[1,3,5,7,9,11,13,-1,-1,-1,-1,-1,-1,-1,-1],"loss_changes":[1.6699795E3,4.049566E2,4.1847998E2,1.1717299E2,1.0353674E2,8.508252E1,1.6054407E2,0E0,0E0,0E0,0E0,0E0,0E0,0E0,0E0],"parents":[2147483647,0,0,1,1,2,2,3,3,4,4,5,5,6,6],"right_children":[2,4,6,8,10,12,14,-1,-1,-1,-1,-1,-1,-1,-1],"split_conditions":[2E0,1.74921E0,-2.190745E0,-9.4181526E1,4.0179068E2,-2.5344836E2,-9.6197784E1,-3.9864415E-3,3.4013959E-3,8.929335E-3,1.8616311E-2,-1.4935629E-2,-8.570017E-3,-6.438722E-3,-3.700461E-4],"split_indices":[1,75,79,15,9,15,15,0,0,0,0,0,0,0,0],"split_type":[0,0,0,0,0,0,0,0,0,0,0,0,0,0,0],"sum_hessian":[2.1734115E4,1.1029494E4,1.0704622E4,6.8254233E3,4.204071E3,3.657865E3,7.046757E3,9.3452106E2,5.8909023E3,3.7151392E3,4.889317E2,1.2778405E3,2.3800244E3,2.675675E3,4.371082E3],"tree_param":{"num_deleted":"0","num_feature":"86","num_nodes":"15","size_leaf_vector":"1"}},{"base_weights":[-8.079429E-4,2.679666E-1,-2.7756044E-1,1.191875E-1,5.093968E-1,-5.057834E-1,-1.1134233E-1,-3.895702E-3,3.3093723E-3,8.339358E-3,1.602281E-2,-1.5913578E-2,-8.2688965E-3,-5.907594E-3,-1.0575892E-4],"categories":[],"categories_nodes":[],"categories_segments":[],"categories_sizes":[],"default_left":[0,0,0,0,0,0,0,0,0,0,0,0,0,0,0],"id":47,"left_children":[1,3,5,7,9,11,13,-1,-1,-1,-1,-1,-1,-1,-1],"loss_changes":[1.6185435E3,3.941026E2,4.0477722E2,1.1104675E2,1.0206641E2,1.0934851E2,1.25523315E2,0E0,0E0,0E0,0E0,0E0,0E0,0E0,0E0],"parents":[2147483647,0,0,1,1,2,2,3,3,4,4,5,5,6,6],"right_children":[2,4,6,8,10,12,14,-1,-1,-1,-1,-1,-1,-1,-1],"split_conditions":[2E0,1.74921E0,-1.7254949E0,-9.4181526E1,3.4529346E1,-3.1526047E2,-9.6197784E1,-3.895702E-3,3.3093723E-3,8.339358E-3,1.602281E-2,-1.5913578E-2,-8.2688965E-3,-5.907594E-3,-1.0575892E-4],"split_indices":[1,75,79,15,7,15,15,0,0,0,0,0,0,0,0],"split_type":[0,0,0,0,0,0,0,0,0,0,0,0,0,0,0],"sum_hessian":[2.1757836E4,1.1031772E4,1.0726063E4,6.834783E3,4.196989E3,4.510899E3,6.2151646E3,9.3006647E2,5.904717E3,3.3479937E3,8.4899524E2,9.179435E2,3.5929553E3,2.1956216E3,4.0195432E3],"tree_param":{"num_deleted":"0","num_feature":"86","num_nodes":"15","size_leaf_vector":"1"}},{"base_weights":[1.8635312E-3,2.8473398E-1,-2.5937027E-1,1.2794526E-1,4.9864498E-1,-5.751247E-1,-1.4181983E-1,4.648712E-4,5.668748E-3,6.9866236E-3,1.40692815E-2,-1.8196965E-2,-9.914435E-3,-6.352759E-3,-4.8618345E-4],"categories":[],"categories_nodes":[],"categories_segments":[],"categories_sizes":[],"default_left":[0,0,0,0,0,0,0,0,0,0,0,0,0,0,0],"id":48,"left_children":[1,3,5,7,9,11,13,-1,-1,-1,-1,-1,-1,-1,-1],"loss_changes":[1.6038405E3,3.475161E2,4.1607495E2,1.01386635E2,1.3402563E2,6.68714E1,1.7629457E2,0E0,0E0,0E0,0E0,0E0,0E0,0E0,0E0],"parents":[2147483647,0,0,1,1,2,2,3,3,4,4,5,5,6,6],"right_children":[2,4,6,8,10,12,14,-1,-1,-1,-1,-1,-1,-1,-1],"split_conditions":[-3E0,1.1804871E1,-2.5602171E0,9.010552E1,2.1795793E2,-3.857581E2,-9.6197784E1,4.648712E-4,5.668748E-3,6.9866236E-3,1.40692815E-2,-1.8196965E-2,-9.914435E-3,-6.352759E-3,-4.8618345E-4],"split_indices":[1,7,79,15,15,15,15,0,0,0,0,0,0,0,0],"split_type":[0,0,0,0,0,0,0,0,0,0,0,0,0,0,0],"sum_hessian":[2.1702035E4,1.0425765E4,1.127627E4,6.0258184E3,4.3999463E3,3.0507117E3,8.225558E3,3.6946345E3,2.331184E3,2.7232712E3,1.6766752E3,4.6079056E2,2.5899211E3,3.1755496E3,5.0500083E3],"tree_param":{"num_deleted":"0","num_feature":"86","num_nodes":"15","size_leaf_vector":"1"}},{"base_weights":[3.467484E-4,-3.224295E-1,2.1438432E-1,-6.113011E-1,-2.2592364E-1,9.91999E-2,5.097915E-1,-1.8357186E-2,-1.0240519E-2,-3.6973313E-3,-1.3680293E-2,8.770003E-3,8.5856346E-4,8.096695E-3,1.5843391E-2],"categories":[],"categories_nodes":[],"categories_segments":[],"categories_sizes":[],"default_left":[0,0,0,0,0,0,0,0,0,0,0,0,0,0,0],"id":49,"left_children":[1,3,5,7,9,11,13,-1,-1,-1,-1,-1,-1,-1,-1],"loss_changes":[1.497099E3,2.3782782E2,4.4157788E2,5.5525146E1,1.0793274E2,1.8010468E2,9.970569E1,0E0,0E0,0E0,0E0,0E0,0E0,0E0,0E0],"parents":[2147483647,0,0,1,1,2,2,3,3,4,4,5,5,6,6],"right_children":[2,4,6,8,10,12,14,-1,-1,-1,-1,-1,-1,-1,-1],"split_conditions":[-4.743878E1,-2.3479126E2,1.7009213E2,-4.1741742E2,2.2E2,-1.01E2,3.3500067E2,-1.8357186E-2,-1.0240519E-2,-3.6973313E-3,-1.3680293E-2,8.770003E-3,8.5856346E-4,8.096695E-3,1.5843391E-2],"split_indices":[9,15,15,15,1,1,9,0,0,0,0,0,0,0,0],"split_type":[0,0,0,0,0,0,0,0,0,0,0,0,0,0,0],"sum_hessian":[2.167432E4,8.635496E3,1.3038823E4,2.1529658E3,6.4825303E3,9.389798E3,3.6490251E3,4.2934372E2,1.7236222E3,6.036327E3,4.4620322E2,1.2628893E3,8.126909E3,2.8001938E3,8.488314E2],"tree_param":{"num_deleted":"0","num_feature":"86","num_nodes":"15","size_leaf_vector":"1"}},{"base_weights":[-7.153394E-4,-2.0793186E-1,3.2229358E-1,-4.8166218E-1,-8.45818E-2,2.2336271E-1,6.0699075E-1,-1.4909601E-2,-7.584969E-3,-3.7459582E-3,1.7875606E-3,1.4555929E-3,6.3559E-3,9.8800305E-3,1.7741837E-2],"categories":[],"categories_nodes":[],"categories_segments":[],"categories_sizes":[],"default_left":[0,0,0,0,0,0,0,0,0,0,0,0,0,0,0],"id":50,"left_children":[1,3,5,7,9,11,13,-1,-1,-1,-1,-1,-1,-1,-1],"loss_changes":[1.4486841E3,4.4358118E2,2.3522223E2,1.0281091E2,1.737901E2,9.505264E1,6.058075E1,0E0,0E0,0E0,0E0,0E0,0E0,0E0,0E0],"parents":[2147483647,0,0,1,1,2,2,3,3,4,4,5,5,6,6],"right_children":[2,4,6,8,10,12,14,-1,-1,-1,-1,-1,-1,-1,-1],"split_conditions":[4.7146523E1,-1.5840643E2,2.3883716E2,-3.2594894E2,1.2911502E0,2.7697346E0,3.0799782E1,-1.4909601E-2,-7.584969E-3,-3.7459582E-3,1.7875606E-3,1.4555929E-3,6.3559E-3,9.8800305E-3,1.7741837E-2],"split_indices":[15,15,15,9,3,4,3,0,0,0,0,0,0,0,0],"split_type":[0,0,0,0,0,0,0,0,0,0,0,0,0,0,0],"sum_hessian":[2.1648674E4,1.3194733E4,8.453941E3,4.0897998E3,9.104934E3,6.2833804E3,2.1705605E3,9.875934E2,3.1022063E3,5.6610693E3,3.4438645E3,2.5912063E3,3.692174E3,1.6471683E3,5.2339233E2],"tree_param":{"num_deleted":"0","num_feature":"86","num_nodes":"15","size_leaf_vector":"1"}},{"base_weights":[-2.6159376E-4,2.481723E-1,-2.6238468E-1,9.0910316E-2,4.5249853E-1,-4.6291193E-1,-9.865656E-2,1.3076856E-2,1.0401413E-3,6.9635115E-3,1.3810072E-2,-1.3950672E-2,-6.9262614E-3,-4.3902225E-3,2.7232294E-4],"categories":[],"categories_nodes":[],"categories_segments":[],"categories_sizes":[],"default_left":[0,0,0,0,0,0,0,0,0,0,0,0,0,0,0],"id":51,"left_children":[1,3,5,7,9,11,13,-1,-1,-1,-1,-1,-1,-1,-1],"loss_changes":[1.4087153E3,3.547741E2,3.4386676E2,1.3424281E2,1.1349078E2,1.2458533E2,8.381213E1,0E0,0E0,0E0,0E0,0E0,0E0,0E0,0E0],"parents":[2147483647,0,0,1,1,2,2,3,3,4,4,5,5,6,6],"right_children":[2,4,6,8,10,12,14,-1,-1,-1,-1,-1,-1,-1,-1],"split_conditions":[3E0,1.1412103E2,-1.001316E1,-2.56E2,2.3310156E1,-2.5863025E2,-5.2668404E1,1.3076856E-2,1.0401413E-3,6.9635115E-3,1.3810072E-2,-1.3950672E-2,-6.9262614E-3,-4.3902225E-3,2.7232294E-4],"split_indices":[1,15,3,1,3,15,15,0,0,0,0,0,0,0,0],"split_type":[0,0,0,0,0,0,0,0,0,0,0,0,0,0,0],"sum_hessian":[2.163076E4,1.10987E4,1.053206E4,6.2814976E3,4.8172026E3,4.7242476E3,5.807812E3,3.7423328E2,5.907264E3,3.532736E3,1.2844666E3,1.3889131E3,3.3353345E3,2.7442305E3,3.0635815E3],"tree_param":{"num_deleted":"0","num_feature":"86","num_nodes":"15","size_leaf_vector":"1"}},{"base_weights":[2.9070757E-3,-2.9809305E-1,2.1187098E-1,-5.6600493E-1,-1.9044738E-1,6.609881E-2,4.314264E-1,-1.6017556E-2,-9.130208E-3,-6.6980617E-3,-1.8555911E-3,2.1999378E-3,-5.812658E-3,6.08E-3,1.2569425E-2],"categories":[],"categories_nodes":[],"categories_segments":[],"categories_sizes":[],"default_left":[0,0,0,0,0,0,0,0,0,0,0,0,0,0,0],"id":52,"left_children":[1,3,5,7,9,11,13,-1,-1,-1,-1,-1,-1,-1,-1],"loss_changes":[1.3590398E3,2.5256567E2,4.067603E2,5.8286316E1,9.0940735E1,1.3099585E2,1.26367004E2,0E0,0E0,0E0,0E0,0E0,0E0,0E0,0E0],"parents":[2147483647,0,0,1,1,2,2,3,3,4,4,5,5,6,6],"right_children":[2,4,6,8,10,12,14,-1,-1,-1,-1,-1,-1,-1,-1],"split_conditions":[-3.800958E1,-2.032662E1,1.0493878E1,-3.1526047E2,-1.5840643E2,7E1,2.1795793E2,-1.6017556E-2,-9.130208E-3,-6.6980617E-3,-1.8555911E-3,2.1999378E-3,-5.812658E-3,6.08E-3,1.2569425E-2],"split_indices":[15,5,7,15,15,1,15,0,0,0,0,0,0,0,0],"split_type":[0,0,0,0,0,0,0,0,0,0,0,0,0,0,0],"sum_hessian":[2.1610645E4,8.848446E3,1.2762197E4,2.5265215E3,6.3219253E3,7.6795854E3,5.082612E3,6.7984595E2,1.8466754E3,2.4008457E3,3.9210796E3,6.812283E3,8.673019E2,3.281178E3,1.8014338E3],"tree_param":{"num_deleted":"0","num_feature":"86","num_nodes":"15","size_leaf_vector":"1"}},{"base_weights":[7.139728E-4,2.6052672E-1,-2.3903275E-1,1.2756452E-1,4.7714755E-1,-4.5755783E-1,-8.7472185E-2,6.9845933E-4,5.336722E-3,7.960165E-3,1.6449323E-2,-1.3392864E-2,-6.8945056E-3,-5.284545E-3,9.055999E-5],"categories":[],"categories_nodes":[],"categories_segments":[],"categories_sizes":[],"default_left":[0,0,0,0,0,0,0,0,0,0,0,0,0,0,0],"id":53,"left_children":[1,3,5,7,9,11,13,-1,-1,-1,-1,-1,-1,-1,-1],"loss_changes":[1.3421975E3,2.9593713E2,3.690373E2,8.5313866E1,9.389459E1,1.05339294E2,1.1325517E2,0E0,0E0,0E0,0E0,0E0,0E0,0E0,0E0],"parents":[2147483647,0,0,1,1,2,2,3,3,4,4,5,5,6,6],"right_children":[2,4,6,8,10,12,14,-1,-1,-1,-1,-1,-1,-1,-1],"split_conditions":[-3E0,1.813974E0,-1.6910466E0,9.010552E1,3.5865784E2,-2.5344836E2,-9.6197784E1,6.9845933E-4,5.336722E-3,7.960165E-3,1.6449323E-2,-1.3392864E-2,-6.8945056E-3,-5.284545E-3,9.055999E-5],"split_indices":[1,75,79,15,15,15,15,0,0,0,0,0,0,0,0],"split_type":[0,0,0,0,0,0,0,0,0,0,0,0,0,0,0],"sum_hessian":[2.1545627E4,1.0346902E4,1.1198726E4,6.4217627E3,3.9251394E3,4.5765615E3,6.622164E3,3.9671328E3,2.4546296E3,3.3218896E3,6.0324976E2,1.4031024E3,3.173459E3,2.2203594E3,4.4018047E3],"tree_param":{"num_deleted":"0","num_feature":"86","num_nodes":"15","size_leaf_vector":"1"}},{"base_weights":[-2.9470583E-3,-2.1677701E-1,2.7982908E-1,-4.934595E-1,-1.07995085E-1,1.9079311E-1,5.762405E-1,-1.7665075E-2,-8.462971E-3,1.8081663E-3,-3.8759636E-3,9.125823E-3,2.5764643E-3,9.465513E-3,1.7926421E-2],"categories":[],"categories_nodes":[],"categories_segments":[],"categories_sizes":[],"default_left":[0,0,0,0,0,0,0,0,0,0,0,0,0,0,0],"id":54,"left_children":[1,3,5,7,9,11,13,-1,-1,-1,-1,-1,-1,-1,-1],"loss_changes":[1.3012507E3,3.6701318E2,2.417373E2,7.890326E1,1.6186945E2,1.1374179E2,6.094873E1,0E0,0E0,0E0,0E0,0E0,0E0,0E0,0E0],"parents":[2147483647,0,0,1,1,2,2,3,3,4,4,5,5,6,6],"right_children":[2,4,6,8,10,12,14,-1,-1,-1,-1,-1,-1,-1,-1],"split_conditions":[2.89926E1,-1.7944933E2,2.3883716E2,-4.1741742E2,-9E0,-9.1E1,4.0179068E2,-1.7665075E-2,-8.462971E-3,1.8081663E-3,-3.8759636E-3,9.125823E-3,2.5764643E-3,9.465513E-3,1.7926421E-2],"split_indices":[15,15,15,15,1,1,9,0,0,0,0,0,0,0,0],"split_type":[0,0,0,0,0,0,0,0,0,0,0,0,0,0,0],"sum_hessian":[2.1522906E4,1.226245E4,9.260455E3,3.4512336E3,8.811217E3,7.1308354E3,2.1296196E3,4.1872717E2,3.0325066E3,2.7394214E3,6.0717954E3,1.2258235E3,5.905012E3,1.6989067E3,4.307129E2],"tree_param":{"num_deleted":"0","num_feature":"86","num_nodes":"15","size_leaf_vector":"1"}},{"base_weights":[-6.716746E-4,-1.9153771E-1,2.9812998E-1,-4.535201E-1,-7.8131944E-2,2.0100613E-1,5.5798125E-1,-1.485415E-2,-7.3637804E-3,8.471145E-3,-2.102441E-3,5.3426614E-3,1.3899588E-4,9.481298E-3,1.7840777E-2],"categories":[],"categories_nodes":[],"categories_segments":[],"categories_sizes":[],"default_left":[0,0,0,0,0,0,0,0,0,0,0,0,0,0,0],"id":55,"left_children":[1,3,5,7,9,11,13,-1,-1,-1,-1,-1,-1,-1,-1],"loss_changes":[1.2277378E3,3.8877728E2,2.0901556E2,8.812976E1,1.4005771E2,8.6275665E1,5.262726E1,0E0,0E0,0E0,0E0,0E0,0E0,0E0,0E0],"parents":[2147483647,0,0,1,1,2,2,3,3,4,4,5,5,6,6],"right_children":[2,4,6,8,10,12,14,-1,-1,-1,-1,-1,-1,-1,-1],"split_conditions":[4.7146523E1,-1.6386069E2,2.7749848E0,-3.5994247E2,-1.43E2,3.8E0,4.1845642E2,-1.485415E-2,-7.3637804E-3,8.471145E-3,-2.102441E-3,5.3426614E-3,1.3899588E-4,9.481298E-3,1.7840777E-2],"split_indices":[15,9,79,9,1,0,9,0,0,0,0,0,0,0,0],"split_type":[0,0,0,0,0,0,0,0,0,0,0,0,0,0,0],"sum_hessian":[2.1532879E4,1.314672E4,8.386158E3,3.9621155E3,9.1846045E3,6.114706E3,2.2714521E3,7.626339E2,3.1994814E3,4.9911166E2,8.685492E3,4.4193896E3,1.6953164E3,1.9067252E3,3.647269E2],"tree_param":{"num_deleted":"0","num_feature":"86","num_nodes":"15","size_leaf_vector":"1"}},{"base_weights":[-0E0,2.3002668E-1,-2.4919257E-1,1.2245986E-1,5.013091E-1,-5.23781E-1,-1.3842872E-1,5.329792E-4,5.2625425E-3,8.558479E-3,1.693642E-2,-1.7653195E-2,-9.048055E-3,-5.039415E-3,-0E0],"categories":[],"categories_nodes":[],"categories_segments":[],"categories_sizes":[],"default_left":[0,0,0,0,0,0,0,0,0,0,0,0,0,0,0],"id":56,"left_children":[1,3,5,7,9,11,13,-1,-1,-1,-1,-1,-1,-1,-1],"loss_changes":[1.2306619E3,3.2372577E2,3.1105066E2,1.1164243E2,6.7042725E1,6.162207E1,1.22339966E2,0E0,0E0,0E0,0E0,0E0,0E0,0E0,0E0],"parents":[2147483647,0,0,1,1,2,2,3,3,4,4,5,5,6,6],"right_children":[2,4,6,8,10,12,14,-1,-1,-1,-1,-1,-1,-1,-1],"split_conditions":[4E0,2.2538185E0,-1.7811777E1,9.010552E1,4.0179068E2,-4.0082285E2,-5.2668404E1,5.329792E-4,5.2625425E-3,8.558479E-3,1.693642E-2,-1.7653195E-2,-9.048055E-3,-5.039415E-3,-0E0],"split_indices":[1,75,7,15,9,15,15,0,0,0,0,0,0,0,0],"split_type":[0,0,0,0,0,0,0,0,0,0,0,0,0,0,0],"sum_hessian":[2.146918E4,1.1167172E4,1.0302008E4,8.0060005E3,3.1611711E3,2.9517676E3,7.35024E3,4.889329E3,3.1166716E3,2.7190193E3,4.4215192E2,3.833885E2,2.5683792E3,3.9228826E3,3.4273577E3],"tree_param":{"num_deleted":"0","num_feature":"86","num_nodes":"15","size_leaf_vector":"1"}},{"base_weights":[-2.4409003E-4,2.4078432E-1,-2.2320467E-1,9.88315E-2,4.3240455E-1,-5.465813E-1,-1.3044499E-1,1.2126293E-2,1.4213973E-3,5.995873E-3,1.2454587E-2,-1.8363217E-2,-9.597818E-3,-5.6630834E-3,-5.0021865E-4],"categories":[],"categories_nodes":[],"categories_segments":[],"categories_sizes":[],"default_left":[0,0,0,0,0,0,0,0,0,0,0,0,0,0,0],"id":57,"left_children":[1,3,5,7,9,11,13,-1,-1,-1,-1,-1,-1,-1,-1],"loss_changes":[1.1536863E3,2.7858765E2,3.3241132E2,7.7803635E1,1.0961328E2,4.7343628E1,1.4495221E2,0E0,0E0,0E0,0E0,0E0,0E0,0E0,0E0],"parents":[2147483647,0,0,1,1,2,2,3,3,4,4,5,5,6,6],"right_children":[2,4,6,8,10,12,14,-1,-1,-1,-1,-1,-1,-1,-1],"split_conditions":[-3E0,1.158665E1,-2.7316682E0,-2.56E2,2.1795793E2,-4.3588995E2,-9.6197784E1,1.2126293E-2,1.4213973E-3,5.995873E-3,1.2454587E-2,-1.8363217E-2,-9.597818E-3,-5.6630834E-3,-5.0021865E-4],"split_indices":[1,7,75,1,15,15,15,0,0,0,0,0,0,0,0],"split_type":[0,0,0,0,0,0,0,0,0,0,0,0,0,0,0],"sum_hessian":[2.1468088E4,1.0308689E4,1.1159398E4,5.9324663E3,4.376223E3,2.4787595E3,8.680639E3,2.7119366E2,5.6612725E3,2.7494055E3,1.6268177E3,2.8463583E2,2.1941238E3,3.4130852E3,5.2675537E3],"tree_param":{"num_deleted":"0","num_feature":"86","num_nodes":"15","size_leaf_vector":"1"}},{"base_weights":[4.5289588E-4,2.2706932E-1,-2.3832996E-1,8.777951E-2,4.276124E-1,-4.2885345E-1,-8.4160484E-2,-5.860821E-6,4.6848725E-3,5.98236E-3,1.2363898E-2,-1.2569538E-2,-6.582904E-3,-4.7765934E-4,-5.6541217E-3],"categories":[],"categories_nodes":[],"categories_segments":[],"categories_sizes":[],"default_left":[0,0,0,0,0,0,0,0,0,0,0,0,0,0,0],"id":58,"left_children":[1,3,5,7,9,11,13,-1,-1,-1,-1,-1,-1,-1,-1],"loss_changes":[1.1604163E3,3.0578156E2,3.0474E2,8.8528656E1,1.09122314E2,8.808374E1,7.002991E1,0E0,0E0,0E0,0E0,0E0,0E0,0E0,0E0],"parents":[2147483647,0,0,1,1,2,2,3,3,4,4,5,5,6,6],"right_children":[2,4,6,8,10,12,14,-1,-1,-1,-1,-1,-1,-1,-1],"split_conditions":[3E0,1.158665E1,-1.001316E1,9.010552E1,2.1795793E2,-2.5863025E2,8.2E1,-5.860821E-6,4.6848725E-3,5.98236E-3,1.2363898E-2,-1.2569538E-2,-6.582904E-3,-4.7765934E-4,-5.6541217E-3],"split_indices":[1,7,3,15,15,15,1,0,0,0,0,0,0,0,0],"split_type":[0,0,0,0,0,0,0,0,0,0,0,0,0,0,0],"sum_hessian":[2.144436E4,1.1009818E4,1.0434542E4,6.507608E3,4.5022104E3,4.6567197E3,5.7778223E3,4.1162305E3,2.3913772E3,2.8642417E3,1.6379686E3,1.3579271E3,3.2987925E3,4.4965156E3,1.2813065E3],"tree_param":{"num_deleted":"0","num_feature":"86","num_nodes":"15","size_leaf_vector":"1"}},{"base_weights":[-2.2660353E-4,-1.8410985E-1,2.7391437E-1,-3.9727432E-1,-5.7739194E-2,2.0263371E-1,6.0018736E-1,-1.1665669E-2,-5.4983543E-3,4.056334E-3,-2.1103432E-3,5.255553E-3,2.6184032E-4,9.3741985E-3,1.6280588E-2],"categories":[],"categories_nodes":[],"categories_segments":[],"categories_sizes":[],"default_left":[0,0,0,0,0,0,0,0,0,0,0,0,0,0,0],"id":59,"left_children":[1,3,5,7,9,11,13,-1,-1,-1,-1,-1,-1,-1,-1],"loss_changes":[1.0794976E3,3.439999E2,1.9703003E2,1.074361E2,1.085701E2,8.91716E1,3.8199463E1,0E0,0E0,0E0,0E0,0E0,0E0,0E0,0E0],"parents":[2147483647,0,0,1,1,2,2,3,3,4,4,5,5,6,6],"right_children":[2,4,6,8,10,12,14,-1,-1,-1,-1,-1,-1,-1,-1],"split_conditions":[4.1889297E1,-1.1426625E1,2.3310156E1,-2.1846918E2,-4.8E1,3.8E0,3.542058E2,-1.1665669E-2,-5.4983543E-3,4.056334E-3,-2.1103432E-3,5.255553E-3,2.6184032E-4,9.3741985E-3,1.6280588E-2],"split_indices":[15,7,3,15,1,0,9,0,0,0,0,0,0,0,0],"split_type":[0,0,0,0,0,0,0,0,0,0,0,0,0,0,0],"sum_hessian":[2.1419441E4,1.2827711E4,8.591731E3,4.763863E3,8.063848E3,7.0605024E3,1.5312289E3,1.7119957E3,3.0518672E3,1.2795458E3,6.7843022E3,5.1906743E3,1.8698279E3,1.0311581E3,5.0007074E2],"tree_param":{"num_deleted":"0","num_feature":"86","num_nodes":"15","size_leaf_vector":"1"}},{"base_weights":[-1.1065879E-3,-2.3486575E-1,2.0781982E-1,-5.344679E-1,-1.5679663E-1,1.2523644E-1,5.0169265E-1,-1.6701259E-2,-9.015806E-3,4.5038783E-3,-3.8137909E-3,1.3655112E-2,1.9392617E-3,8.275806E-3,1.684742E-2],"categories":[],"categories_nodes":[],"categories_segments":[],"categories_sizes":[],"default_left":[0,0,0,0,0,0,0,0,0,0,0,0,0,0,0],"id":60,"left_children":[1,3,5,7,9,11,13,-1,-1,-1,-1,-1,-1,-1,-1],"loss_changes":[1.0440337E3,2.3373932E2,2.7157333E2,4.313379E1,1.22005905E2,1.27169815E2,6.3956116E1,0E0,0E0,0E0,0E0,0E0,0E0,0E0,0E0],"parents":[2147483647,0,0,1,1,2,2,3,3,4,4,5,5,6,6],"right_children":[2,4,6,8,10,12,14,-1,-1,-1,-1,-1,-1,-1,-1],"split_conditions":[-1.5251449E-1,-2.4372443E2,2.0989478E2,-4.1741742E2,-6.8E1,-2.56E2,4.0179068E2,-1.6701259E-2,-9.015806E-3,4.5038783E-3,-3.8137909E-3,1.3655112E-2,1.9392617E-3,8.275806E-3,1.684742E-2],"split_indices":[75,9,15,15,1,1,9,0,0,0,0,0,0,0,0],"split_type":[0,0,0,0,0,0,0,0,0,0,0,0,0,0,0],"sum_hessian":[2.137438E4,1.0095358E4,1.1279022E4,2.0771875E3,8.0181704E3,8.814361E3,2.4646614E3,3.641918E2,1.7129957E3,7.2736725E2,7.290803E3,3.6800198E2,8.446359E3,2.0461826E3,4.184788E2],"tree_param":{"num_deleted":"0","num_feature":"86","num_nodes":"15","size_leaf_vector":"1"}},{"base_weights":[-1.9806426E-3,2.1344665E-1,-2.2453772E-1,1.0446871E-1,4.458432E-1,-4.6731132E-1,-1.1761138E-1,-3.3667446E-3,2.8478997E-3,7.040486E-3,1.4003278E-2,-1.4663E-2,-7.546144E-3,-5.0647603E-3,-4.0626625E-4],"categories":[],"categories_nodes":[],"categories_segments":[],"categories_sizes":[],"default_left":[0,0,0,0,0,0,0,0,0,0,0,0,0,0,0],"id":61,"left_children":[1,3,5,7,9,11,13,-1,-1,-1,-1,-1,-1,-1,-1],"loss_changes":[1.0245114E3,2.7288812E2,2.710063E2,8.593569E1,7.561871E1,6.890515E1,9.9970924E1,0E0,0E0,0E0,0E0,0E0,0E0,0E0,0E0],"parents":[2147483647,0,0,1,1,2,2,3,3,4,4,5,5,6,6],"right_children":[2,4,6,8,10,12,14,-1,-1,-1,-1,-1,-1,-1,-1],"split_conditions":[2E0,2.0614488E0,-1.7926847E1,-9.4181526E1,3.4529346E1,-3.1526047E2,-9.6197784E1,-3.3667446E-3,2.8478997E-3,7.040486E-3,1.4003278E-2,-1.4663E-2,-7.546144E-3,-5.0647603E-3,-4.0626625E-4],"split_indices":[1,75,5,15,7,15,15,0,0,0,0,0,0,0,0],"split_type":[0,0,0,0,0,0,0,0,0,0,0,0,0,0,0],"sum_hessian":[2.1366727E4,1.0849499E4,1.0517228E4,7.3964727E3,3.4530261E3,3.2055356E3,7.3116924E3,9.5944135E2,6.4370312E3,2.6530417E3,7.999843E2,6.861672E2,2.5193684E3,2.9393823E3,4.37231E3],"tree_param":{"num_deleted":"0","num_feature":"86","num_nodes":"15","size_leaf_vector":"1"}},{"base_weights":[1.3603414E-3,-1.7530684E-1,2.7048618E-1,-3.8167602E-1,-5.6705967E-2,1.82303E-1,5.1409996E-1,-1.3771159E-2,-6.291155E-3,-4.132094E-3,6.0066837E-4,5.1140212E-3,5.227889E-4,8.605877E-3,1.628879E-2],"categories":[],"categories_nodes":[],"categories_segments":[],"categories_sizes":[],"default_left":[0,0,0,0,0,0,0,0,0,0,0,0,0,0,0],"id":62,"left_children":[1,3,5,7,9,11,13,-1,-1,-1,-1,-1,-1,-1,-1],"loss_changes":[1.0144495E3,3.1346994E2,1.7933142E2,8.551294E1,1.1218758E2,7.690994E1,4.7358337E1,0E0,0E0,0E0,0E0,0E0,0E0,0E0,0E0],"parents":[2147483647,0,0,1,1,2,2,3,3,4,4,5,5,6,6],"right_children":[2,4,6,8,10,12,14,-1,-1,-1,-1,-1,-1,-1,-1],"split_conditions":[4.360645E1,-1.6910466E0,2.7749848E0,-3.410718E2,-9.4181526E1,2.8E0,4.0179068E2,-1.3771159E-2,-6.291155E-3,-4.132094E-3,6.0066837E-4,5.1140212E-3,5.227889E-4,8.605877E-3,1.628879E-2],"split_indices":[15,79,79,15,15,0,9,0,0,0,0,0,0,0,0],"split_type":[0,0,0,0,0,0,0,0,0,0,0,0,0,0,0],"sum_hessian":[2.1328465E4,1.286848E4,8.459984E3,4.6855684E3,8.1829116E3,6.2224653E3,2.2375193E3,7.01249E2,3.9843196E3,2.959925E3,5.222987E3,4.084028E3,2.1384373E3,1.8403429E3,3.9717648E2],"tree_param":{"num_deleted":"0","num_feature":"86","num_nodes":"15","size_leaf_vector":"1"}},{"base_weights":[-2.3328068E-3,-2.762003E-1,1.630613E-1,-5.031974E-1,-1.8247361E-1,1.3665869E-2,3.305471E-1,-1.6506944E-2,-8.648205E-3,-7.42613E-4,-5.106619E-3,9.772417E-4,-6.7809015E-3,4.461103E-3,1.0373716E-2],"categories":[],"categories_nodes":[],"categories_segments":[],"categories_sizes":[],"default_left":[0,0,0,0,0,0,0,0,0,0,0,0,0,0,0],"id":63,"left_children":[1,3,5,7,9,11,13,-1,-1,-1,-1,-1,-1,-1,-1],"loss_changes":[9.647836E2,1.6833997E2,3.3077527E2,4.270575E1,6.465694E1,9.199019E1,1.2545026E2,0E0,0E0,0E0,0E0,0E0,0E0,0E0,0E0],"parents":[2147483647,0,0,1,1,2,2,3,3,4,4,5,5,6,6],"right_children":[2,4,6,8,10,12,14,-1,-1,-1,-1,-1,-1,-1,-1],"split_conditions":[-5.2668404E1,-2.032662E1,6.7066007E0,-4.0082285E2,-2.5E0,9.5E1,2.0989478E2,-1.6506944E-2,-8.648205E-3,-7.42613E-4,-5.106619E-3,9.772417E-4,-6.7809015E-3,4.461103E-3,1.0373716E-2],"split_indices":[15,5,3,15,0,1,15,0,0,0,0,0,0,0,0],"split_type":[0,0,0,0,0,0,0,0,0,0,0,0,0,0,0],"sum_hessian":[2.128997E4,8.0238965E3,1.3266074E4,2.3335823E3,5.690314E3,7.0227607E3,6.243314E3,3.297757E2,2.0038066E3,2.0447434E3,3.6455706E3,6.3877886E3,6.3497235E2,4.174808E3,2.068506E3],"tree_param":{"num_deleted":"0","num_feature":"86","num_nodes":"15","size_leaf_vector":"1"}},{"base_weights":[-3.4369063E-3,-2.5670576E-1,1.7192666E-1,-4.715525E-1,-1.5313424E-1,4.9230948E-2,3.647407E-1,-1.5139401E-2,-7.880723E-3,-5.771238E-3,-1.3415075E-3,1.6691815E-3,-6.0869805E-3,5.971074E-3,1.4215568E-2],"categories":[],"categories_nodes":[],"categories_segments":[],"categories_sizes":[],"default_left":[0,0,0,0,0,0,0,0,0,0,0,0,0,0,0],"id":64,"left_children":[1,3,5,7,9,11,13,-1,-1,-1,-1,-1,-1,-1,-1],"loss_changes":[9.450809E2,1.9166956E2,2.9574933E2,5.3355225E1,6.9879105E1,1.01004745E2,9.951373E1,0E0,0E0,0E0,0E0,0E0,0E0,0E0,0E0],"parents":[2147483647,0,0,1,1,2,2,3,3,4,4,5,5,6,6],"right_children":[2,4,6,8,10,12,14,-1,-1,-1,-1,-1,-1,-1,-1],"split_conditions":[-3.800958E1,-1.7926847E1,1.2942807E2,-3.8257513E2,-1.5840643E2,9.5E1,3.5865784E2,-1.5139401E-2,-7.880723E-3,-5.771238E-3,-1.3415075E-3,1.6691815E-3,-6.0869805E-3,5.971074E-3,1.4215568E-2],"split_indices":[15,5,9,9,15,1,15,0,0,0,0,0,0,0,0],"split_type":[0,0,0,0,0,0,0,0,0,0,0,0,0,0,0],"sum_hessian":[2.1271314E4,8.710452E3,1.2560862E4,2.8219424E3,5.8885093E3,7.6873804E3,4.873482E3,4.9300662E2,2.3289358E3,2.1619385E3,3.726571E3,6.9912837E3,6.9609644E2,4.2169873E3,6.5649445E2],"tree_param":{"num_deleted":"0","num_feature":"86","num_nodes":"15","size_leaf_vector":"1"}},{"base_weights":[3.0911488E-5,-1.695146E-1,2.5342587E-1,-4.3274134E-1,-7.858293E-2,1.8508765E-1,5.5739427E-1,-1.5980508E-2,-7.368761E-3,-1.0105618E-3,-1.0631791E-2,1.249616E-3,5.3573786E-3,8.77666E-3,1.5285836E-2],"categories":[],"categories_nodes":[],"categories_segments":[],"categories_sizes":[],"default_left":[0,0,0,0,0,0,0,0,0,0,0,0,0,0,0],"id":65,"left_children":[1,3,5,7,9,11,13,-1,-1,-1,-1,-1,-1,-1,-1],"loss_changes":[9.149262E2,3.0334833E2,1.7486548E2,6.424286E1,1.161723E2,7.50269E1,3.341977E1,0E0,0E0,0E0,0E0,0E0,0E0,0E0,0E0],"parents":[2147483647,0,0,1,1,2,2,3,3,4,4,5,5,6,6],"right_children":[2,4,6,8,10,12,14,-1,-1,-1,-1,-1,-1,-1,-1],"split_conditions":[4.5718346E1,-1.7944933E2,2.3812801E1,-4.1741742E2,2.2E2,5.301973E-1,3.542058E2,-1.5980508E-2,-7.368761E-3,-1.0105618E-3,-1.0631791E-2,1.249616E-3,5.3573786E-3,8.77666E-3,1.5285836E-2],"split_indices":[9,15,3,15,1,6,9,0,0,0,0,0,0,0,0],"split_type":[0,0,0,0,0,0,0,0,0,0,0,0,0,0,0],"sum_hessian":[2.128851E4,1.2746554E4,8.541955E3,3.262613E3,9.483941E3,6.983875E3,1.5580804E3,3.8957562E2,2.8730374E3,8.980366E3,5.0357513E2,3.0023286E3,3.9815461E3,1.0742008E3,4.8387955E2],"tree_param":{"num_deleted":"0","num_feature":"86","num_nodes":"15","size_leaf_vector":"1"}},{"base_weights":[1.120648E-3,-1.627261E-1,2.594937E-1,-3.516705E-1,-4.1015342E-2,1.934797E-1,5.6054986E-1,-1.0955692E-2,-5.0108805E-3,-3.5282874E-3,6.8250316E-4,5.094329E-3,3.852425E-5,8.738874E-3,1.5298988E-2],"categories":[],"categories_nodes":[],"categories_segments":[],"categories_sizes":[],"default_left":[0,0,0,0,0,0,0,0,0,0,0,0,0,0,0],"id":66,"left_children":[1,3,5,7,9,11,13,-1,-1,-1,-1,-1,-1,-1,-1],"loss_changes":[9.009005E2,2.9783524E2,1.6159918E2,9.8341064E1,8.5116264E1,8.793901E1,3.274362E1,0E0,0E0,0E0,0E0,0E0,0E0,0E0,0E0],"parents":[2147483647,0,0,1,1,2,2,3,3,4,4,5,5,6,6],"right_children":[2,4,6,8,10,12,14,-1,-1,-1,-1,-1,-1,-1,-1],"split_conditions":[4.7146523E1,-1.0326443E1,2.3310156E1,-2.3479126E2,-9.4181526E1,3.8E0,3.542058E2,-1.0955692E-2,-5.0108805E-3,-3.5282874E-3,6.8250316E-4,5.094329E-3,3.852425E-5,8.738874E-3,1.5298988E-2],"split_indices":[15,7,3,15,15,0,9,0,0,0,0,0,0,0,0],"split_type":[0,0,0,0,0,0,0,0,0,0,0,0,0,0,0],"sum_hessian":[2.127218E4,1.300933E4,8.262851E3,5.085539E3,7.9237915E3,6.7868306E3,1.4760198E3,1.554801E3,3.5307378E3,2.8015369E3,5.1222544E3,4.988395E3,1.7984355E3,9.994481E2,4.765717E2],"tree_param":{"num_deleted":"0","num_feature":"86","num_nodes":"15","size_leaf_vector":"1"}},{"base_weights":[-2.366747E-3,2.0508476E-1,-1.9442807E-1,8.1453376E-2,3.75345E-1,-4.2891535E-1,-9.689986E-2,9.396085E-3,9.838158E-4,6.02254E-3,1.3314997E-2,-1.6438983E-2,-7.3758154E-3,-8.0769835E-4,-5.7893E-3],"categories":[],"categories_nodes":[],"categories_segments":[],"categories_sizes":[],"default_left":[0,0,0,0,0,0,0,0,0,0,0,0,0,0,0],"id":67,"left_children":[1,3,5,7,9,11,13,-1,-1,-1,-1,-1,-1,-1,-1],"loss_changes":[8.436866E2,2.1253357E2,2.4984671E2,7.139569E1,8.32746E1,6.2447998E1,8.533075E1,0E0,0E0,0E0,0E0,0E0,0E0,0E0,0E0],"parents":[2147483647,0,0,1,1,2,2,3,3,4,4,5,5,6,6],"right_children":[2,4,6,8,10,12,14,-1,-1,-1,-1,-1,-1,-1,-1],"split_conditions":[-3E0,1.158665E1,-1.7926847E1,-1.94E2,3.2130405E2,-4.0082285E2,8.2E1,9.396085E-3,9.838158E-4,6.02254E-3,1.3314997E-2,-1.6438983E-2,-7.3758154E-3,-8.0769835E-4,-5.7893E-3],"split_indices":[1,7,5,1,15,15,1,0,0,0,0,0,0,0,0],"split_type":[0,0,0,0,0,0,0,0,0,0,0,0,0,0,0],"sum_hessian":[2.1174955E4,1.017107E4,1.1003884E4,5.9044443E3,4.2666265E3,3.2215696E3,7.782314E3,4.1341324E2,5.4910312E3,3.5274153E3,7.3921124E2,3.364136E2,2.885156E3,6.112592E3,1.6697219E3],"tree_param":{"num_deleted":"0","num_feature":"86","num_nodes":"15","size_leaf_vector":"1"}},{"base_weights":[2.6434867E-3,-1.2548894E-1,3.049106E-1,-3.3069625E-1,-1.5999474E-2,2.302075E-1,5.82877E-1,-1.25148585E-2,-5.3059775E-3,-2.0764754E-3,2.6657628E-3,5.8476515E-3,5.46523E-4,9.727434E-3,1.7249538E-2],"categories":[],"categories_nodes":[],"categories_segments":[],"categories_sizes":[],"default_left":[0,0,0,0,0,0,0,0,0,0,0,0,0,0,0],"id":68,"left_children":[1,3,5,7,9,11,13,-1,-1,-1,-1,-1,-1,-1,-1],"loss_changes":[8.2008215E2,3.324997E2,1.2812189E2,9.023395E1,1.3449617E2,6.969632E1,2.8437592E1,0E0,0E0,0E0,0E0,0E0,0E0,0E0,0E0],"parents":[2147483647,0,0,1,1,2,2,3,3,4,4,5,5,6,6],"right_children":[2,4,6,8,10,12,14,-1,-1,-1,-1,-1,-1,-1,-1],"split_conditions":[9.010552E1,-1.18595314E2,2.3310156E1,-3.410718E2,6.1444526E0,4E0,5E0,-1.25148585E-2,-5.3059775E-3,-2.0764754E-3,2.6657628E-3,5.8476515E-3,5.46523E-4,9.727434E-3,1.7249538E-2],"split_indices":[15,15,3,15,4,0,2,0,0,0,0,0,0,0,0],"split_type":[0,0,0,0,0,0,0,0,0,0,0,0,0,0,0],"sum_hessian":[2.1157414E4,1.4851016E4,6.3063984E3,5.15578E3,9.695235E3,4.9809663E3,1.325432E3,7.969367E2,4.3588433E3,6.1005156E3,3.5947202E3,3.682347E3,1.2986194E3,1.0510146E3,2.7441742E2],"tree_param":{"num_deleted":"0","num_feature":"86","num_nodes":"15","size_leaf_vector":"1"}},{"base_weights":[3.392938E-4,2.0493634E-1,-1.8848228E-1,1.1373871E-1,4.079035E-1,-4.739389E-1,-1.0886401E-1,1.1950343E-2,1.5265045E-3,6.910921E-3,1.5819862E-2,-1.665715E-2,-8.276988E-3,-4.6677664E-3,-4.7076348E-4],"categories":[],"categories_nodes":[],"categories_segments":[],"categories_sizes":[],"default_left":[0,0,0,0,0,0,0,0,0,0,0,0,0,0,0],"id":69,"left_children":[1,3,5,7,9,11,13,-1,-1,-1,-1,-1,-1,-1,-1],"loss_changes":[8.173374E2,1.863013E2,2.4783432E2,1.21639305E2,6.290094E1,3.9737915E1,9.457745E1,0E0,0E0,0E0,0E0,0E0,0E0,0E0,0E0],"parents":[2147483647,0,0,1,1,2,2,3,3,4,4,5,5,6,6],"right_children":[2,4,6,8,10,12,14,-1,-1,-1,-1,-1,-1,-1,-1],"split_conditions":[-3E0,1.7009213E2,-2.7316682E0,-2.56E2,4.1845642E2,-4.3588995E2,-9.6197784E1,1.1950343E-2,1.5265045E-3,6.910921E-3,1.5819862E-2,-1.665715E-2,-8.276988E-3,-4.6677664E-3,-4.7076348E-4],"split_indices":[1,15,75,1,9,15,15,0,0,0,0,0,0,0,0],"split_type":[0,0,0,0,0,0,0,0,0,0,0,0,0,0,0],"sum_hessian":[2.1154354E4,1.0161695E4,1.0992658E4,7.0234824E3,3.138213E3,2.3874727E3,8.605186E3,4.5562628E2,6.567856E3,2.7852554E3,3.529574E2,2.6015634E2,2.1273162E3,3.3614563E3,5.243729E3],"tree_param":{"num_deleted":"0","num_feature":"86","num_nodes":"15","size_leaf_vector":"1"}},{"base_weights":[1.5338561E-3,1.6626084E-1,-2.2533415E-1,5.18504E-2,3.5965008E-1,-4.777339E-1,-1.4106771E-1,6.150302E-3,2.0971846E-4,4.9666543E-3,1.0783936E-2,-1.4895693E-2,-8.164464E-3,-4.4155833E-3,-0E0],"categories":[],"categories_nodes":[],"categories_segments":[],"categories_sizes":[],"default_left":[0,0,0,0,0,0,0,0,0,0,0,0,0,0,0],"id":70,"left_children":[1,3,5,7,9,11,13,-1,-1,-1,-1,-1,-1,-1,-1],"loss_changes":[7.88968E2,2.6946637E2,1.8660165E2,8.2494E1,8.937976E1,3.277722E1,8.010489E1,0E0,0E0,0E0,0E0,0E0,0E0,0E0,0E0],"parents":[2147483647,0,0,1,1,2,2,3,3,4,4,5,5,6,6],"right_children":[2,4,6,8,10,12,14,-1,-1,-1,-1,-1,-1,-1,-1],"split_conditions":[1.3E1,1.158665E1,-2.9515612E0,-1.01E2,2.1795793E2,-3.857581E2,9.100174E0,6.150302E-3,2.0971846E-4,4.9666543E-3,1.0783936E-2,-1.4895693E-2,-8.164464E-3,-4.4155833E-3,-0E0],"split_indices":[1,7,79,1,15,15,6,0,0,0,0,0,0,0,0],"split_type":[0,0,0,0,0,0,0,0,0,0,0,0,0,0,0],"sum_hessian":[2.1115986E4,1.2242196E4,8.873791E3,7.703203E3,4.5389927E3,2.210359E3,6.663432E3,1.0245981E3,6.678605E3,2.9664954E3,1.5724973E3,3.6038318E2,1.8499757E3,4.129643E3,2.533789E3],"tree_param":{"num_deleted":"0","num_feature":"86","num_nodes":"15","size_leaf_vector":"1"}},{"base_weights":[2.1910963E-3,1.8654075E-1,-1.918974E-1,5.16521E-2,3.2845795E-1,-4.2565924E-1,-1.0227216E-1,1.0908082E-2,3.780919E-4,5.4209954E-3,1.3471974E-2,-1.5755385E-2,-7.3593203E-3,-3.6867983E-3,5.194453E-4],"categories":[],"categories_nodes":[],"categories_segments":[],"categories_sizes":[],"default_left":[0,0,0,0,0,0,0,0,0,0,0,0,0,0,0],"id":71,"left_children":[1,3,5,7,9,11,13,-1,-1,-1,-1,-1,-1,-1,-1],"loss_changes":[7.55718E2,2.0623642E2,2.135546E2,8.938253E1,9.219739E1,4.749048E1,8.4268394E1,0E0,0E0,0E0,0E0,0E0,0E0,0E0,0E0],"parents":[2147483647,0,0,1,1,2,2,3,3,4,4,5,5,6,6],"right_children":[2,4,6,8,10,12,14,-1,-1,-1,-1,-1,-1,-1,-1],"split_conditions":[3E0,9.010552E1,-2.5602171E0,-2.56E2,3.3399826E1,-4.1741742E2,8.119413E0,1.0908082E-2,3.780919E-4,5.4209954E-3,1.3471974E-2,-1.5755385E-2,-7.3593203E-3,-3.6867983E-3,5.194453E-4],"split_indices":[1,15,79,1,7,15,6,0,0,0,0,0,0,0,0],"split_type":[0,0,0,0,0,0,0,0,0,0,0,0,0,0,0],"sum_hessian":[2.1120648E4,1.0841107E4,1.0279541E4,5.5708647E3,5.270243E3,2.8378555E3,7.4416855E3,3.2485654E2,5.2460083E3,4.644492E3,6.2575116E2,3.0303796E2,2.5348176E3,4.455125E3,2.9865605E3],"tree_param":{"num_deleted":"0","num_feature":"86","num_nodes":"15","size_leaf_vector":"1"}},{"base_weights":[-0E0,1.9479585E-1,-1.801992E-1,1.1340059E-1,4.2264542E-1,-4.0235266E-1,-8.8595375E-2,5.4902164E-3,1.0118097E-3,6.4337305E-3,1.2732358E-2,-1.37056755E-2,-6.761361E-3,-5.2008517E-3,-5.899251E-4],"categories":[],"categories_nodes":[],"categories_segments":[],"categories_sizes":[],"default_left":[0,0,0,0,0,0,0,0,0,0,0,0,0,0,0],"id":72,"left_children":[1,3,5,7,9,11,13,-1,-1,-1,-1,-1,-1,-1,-1],"loss_changes":[7.3967725E2,1.8606659E2,2.2090576E2,7.633667E1,5.3139862E1,4.901288E1,7.975854E1,0E0,0E0,0E0,0E0,0E0,0E0,0E0,0E0],"parents":[2147483647,0,0,1,1,2,2,3,3,4,4,5,5,6,6],"right_children":[2,4,6,8,10,12,14,-1,-1,-1,-1,-1,-1,-1,-1],"split_conditions":[-3E0,2.4758773E0,-1.7926847E1,-3.3E0,3.4529346E1,-3.8257513E2,-1.5245976E2,5.4902164E-3,1.0118097E-3,6.4337305E-3,1.2732358E-2,-1.37056755E-2,-6.761361E-3,-5.2008517E-3,-5.899251E-4],"split_indices":[1,75,5,0,7,9,15,0,0,0,0,0,0,0,0],"split_type":[0,0,0,0,0,0,0,0,0,0,0,0,0,0,0],"sum_hessian":[2.107005E4,1.013214E4,1.0937911E4,7.476882E3,2.6552585E3,3.1820354E3,7.755876E3,1.9791154E3,5.497766E3,1.9122686E3,7.429899E2,4.784856E2,2.7035498E3,1.8923682E3,5.863508E3],"tree_param":{"num_deleted":"0","num_feature":"86","num_nodes":"15","size_leaf_vector":"1"}},{"base_weights":[2.4070665E-3,-1.6795218E-1,1.9711322E-1,-3.1432757E-1,-4.6384383E-2,1.23324424E-1,4.4295815E-1,-1.2393553E-2,-5.1792567E-3,-3.2743404E-4,-8.622124E-3,1.192488E-2,1.931528E-3,7.0943055E-3,1.4387619E-2],"categories":[],"categories_nodes":[],"categories_segments":[],"categories_sizes":[],"default_left":[0,0,0,0,0,0,0,0,0,0,0,0,0,0,0],"id":73,"left_children":[1,3,5,7,9,11,13,-1,-1,-1,-1,-1,-1,-1,-1],"loss_changes":[6.9743445E2,1.9811884E2,1.7617905E2,7.557623E1,7.035266E1,8.6607796E1,4.8502594E1,0E0,0E0,0E0,0E0,0E0,0E0,0E0,0E0],"parents":[2147483647,0,0,1,1,2,2,3,3,4,4,5,5,6,6],"right_children":[2,4,6,8,10,12,14,-1,-1,-1,-1,-1,-1,-1,-1],"split_conditions":[1.2911502E0,-9.4181526E1,2.0989478E2,-3.5994247E2,1.54E2,-2.56E2,5E0,-1.2393553E-2,-5.1792567E-3,-3.2743404E-4,-8.622124E-3,1.192488E-2,1.931528E-3,7.0943055E-3,1.4387619E-2],"split_indices":[3,15,15,9,1,1,2,0,0,0,0,0,0,0,0],"split_type":[0,0,0,0,0,0,0,0,0,0,0,0,0,0,0],"sum_hessian":[2.1022053E4,1.1202724E4,9.819329E3,5.0696665E3,6.1330566E3,7.56375E3,2.2555789E3,6.481114E2,4.421555E3,5.7163564E3,4.1670004E2,3.469654E2,7.2167847E3,1.7941891E3,4.6138992E2],"tree_param":{"num_deleted":"0","num_feature":"86","num_nodes":"15","size_leaf_vector":"1"}},{"base_weights":[-1.5595087E-3,-1.7134923E-1,1.9195022E-1,-3.9376947E-1,-9.1980316E-2,1.00100964E-1,3.924944E-1,-6.2750024E-3,-1.2997181E-2,-2.7922953E-3,1.5761405E-3,4.180175E-3,2.3587309E-4,6.3047707E-3,1.3312521E-2],"categories":[],"categories_nodes":[],"categories_segments":[],"categories_sizes":[],"default_left":[0,0,0,0,0,0,0,0,0,0,0,0,0,0,0],"id":74,"left_children":[1,3,5,7,9,11,13,-1,-1,-1,-1,-1,-1,-1,-1],"loss_changes":[6.919419E2,1.9653516E2,1.7944171E2,5.3993378E1,7.4094536E1,6.743865E1,5.7900543E1,0E0,0E0,0E0,0E0,0E0,0E0,0E0,0E0],"parents":[2147483647,0,0,1,1,2,2,3,3,4,4,5,5,6,6],"right_children":[2,4,6,8,10,12,14,-1,-1,-1,-1,-1,-1,-1,-1],"split_conditions":[1.2911502E0,-1.7944933E2,1.6691423E2,5E0,6.1900936E1,-7E-1,5E0,-6.2750024E-3,-1.2997181E-2,-2.7922953E-3,1.5761405E-3,4.180175E-3,2.3587309E-4,6.3047707E-3,1.3312521E-2],"split_indices":[3,15,15,2,15,0,2,0,0,0,0,0,0,0,0],"split_type":[0,0,0,0,0,0,0,0,0,0,0,0,0,0,0],"sum_hessian":[2.1060979E4,1.1227447E4,9.833531E3,2.94093E3,8.286518E3,6.7567188E3,3.0768127E3,2.3451104E3,5.958195E2,6.3998135E3,1.886704E3,2.915163E3,3.8415554E3,2.502379E3,5.744339E2],"tree_param":{"num_deleted":"0","num_feature":"86","num_nodes":"15","size_leaf_vector":"1"}},{"base_weights":[1.1808313E-3,-1.6175452E-1,1.9753829E-1,-4.4257727E-1,-1.0387255E-1,1.3872479E-1,4.860771E-1,-7.1316226E-3,-1.3762872E-2,-1.5201798E-3,-1.1322096E-2,5.1083886E-3,8.784987E-4,7.530486E-3,1.4690296E-2],"categories":[],"categories_nodes":[],"categories_segments":[],"categories_sizes":[],"default_left":[0,0,0,0,0,0,0,0,0,0,0,0,0,0,0],"id":75,"left_children":[1,3,5,7,9,11,13,-1,-1,-1,-1,-1,-1,-1,-1],"loss_changes":[6.725003E2,1.8465091E2,1.5972943E2,3.5486145E1,1.14941086E2,9.088966E1,3.871631E1,0E0,0E0,0E0,0E0,0E0,0E0,0E0,0E0],"parents":[2147483647,0,0,1,1,2,2,3,3,4,4,5,5,6,6],"right_children":[2,4,6,8,10,12,14,-1,-1,-1,-1,-1,-1,-1,-1],"split_conditions":[2.508454E-1,-2.3479126E2,2.6427585E2,5E0,2.2E2,-7E-1,3.4529346E1,-7.1316226E-3,-1.3762872E-2,-1.5201798E-3,-1.1322096E-2,5.1083886E-3,8.784987E-4,7.530486E-3,1.4690296E-2],"split_indices":[75,15,9,2,1,0,7,0,0,0,0,0,0,0,0],"split_type":[0,0,0,0,0,0,0,0,0,0,0,0,0,0,0],"sum_hessian":[2.101503E4,1.1475502E4,9.539527E3,1.9504285E3,9.525074E3,7.934741E3,1.6047859E3,1.5262233E3,4.2420517E2,9.045712E3,4.7936154E2,3.3991868E3,4.5355547E3,1.1830513E3,4.2173456E2],"tree_param":{"num_deleted":"0","num_feature":"86","num_nodes":"15","size_leaf_vector":"1"}},{"base_weights":[-2.7814503E-3,-2.4102895E-1,1.3032588E-1,-4.4448432E-1,-1.6407406E-1,8.950659E-3,2.8979027E-1,-1.52718965E-2,-7.4982587E-3,-2.6414564E-4,-4.82246E-3,4.6657403E-3,-9.939119E-4,4.726496E-3,1.2320762E-2],"categories":[],"categories_nodes":[],"categories_segments":[],"categories_sizes":[],"default_left":[0,0,0,0,0,0,0,0,0,0,0,0,0,0,0],"id":76,"left_children":[1,3,5,7,9,11,13,-1,-1,-1,-1,-1,-1,-1,-1],"loss_changes":[6.660205E2,1.1582724E2,2.594442E2,3.719928E1,6.81848E1,1.0672326E2,9.035452E1,0E0,0E0,0E0,0E0,0E0,0E0,0E0,0E0],"parents":[2147483647,0,0,1,1,2,2,3,3,4,4,5,5,6,6],"right_children":[2,4,6,8,10,12,14,-1,-1,-1,-1,-1,-1,-1,-1],"split_conditions":[-6.019621E1,-2.1465752E1,9.639739E0,-4.0082285E2,-2.5E0,-6.1E1,3.2130405E2,-1.52718965E-2,-7.4982587E-3,-2.6414564E-4,-4.82246E-3,4.6657403E-3,-9.939119E-4,4.726496E-3,1.2320762E-2],"split_indices":[15,5,4,15,0,1,15,0,0,0,0,0,0,0,0],"split_type":[0,0,0,0,0,0,0,0,0,0,0,0,0,0,0],"sum_hessian":[2.098892E4,7.532242E3,1.3456679E4,2.054298E3,5.477944E3,7.653323E3,5.803355E3,2.9443005E2,1.759868E3,1.9737609E3,3.504183E3,1.5909327E3,6.0623906E3,5.1160303E3,6.873249E2],"tree_param":{"num_deleted":"0","num_feature":"86","num_nodes":"15","size_leaf_vector":"1"}},{"base_weights":[1.4714284E-3,-1.4025919E-1,2.1825379E-1,-3.135482E-1,-4.322767E-2,1.6684066E-1,5.1739436E-1,-1.183349E-2,-5.13664E-3,2.1539584E-3,-2.4306383E-3,8.2795107E-4,4.872976E-3,7.775024E-3,1.7110562E-2],"categories":[],"categories_nodes":[],"categories_segments":[],"categories_sizes":[],"default_left":[0,0,0,0,0,0,0,0,0,0,0,0,0,0,0],"id":77,"left_children":[1,3,5,7,9,11,13,-1,-1,-1,-1,-1,-1,-1,-1],"loss_changes":[6.4479504E2,2.119004E2,1.2531418E2,6.317624E1,1.0240554E2,7.27294E1,4.6959015E1,0E0,0E0,0E0,0E0,0E0,0E0,0E0,0E0],"parents":[2147483647,0,0,1,1,2,2,3,3,4,4,5,5,6,6],"right_children":[2,4,6,8,10,12,14,-1,-1,-1,-1,-1,-1,-1,-1],"split_conditions":[4.360645E1,-1.6910466E0,2.922086E2,-3.410718E2,-2.5E0,-1.2559022E0,5E0,-1.183349E-2,-5.13664E-3,2.1539584E-3,-2.4306383E-3,8.2795107E-4,4.872976E-3,7.775024E-3,1.7110562E-2],"split_indices":[15,79,9,15,0,6,2,0,0,0,0,0,0,0,0],"split_type":[0,0,0,0,0,0,0,0,0,0,0,0,0,0,0],"sum_hessian":[2.0976543E4,1.2674501E4,8.302041E3,4.5364897E3,8.1380117E3,7.0948438E3,1.207197E3,6.422686E2,3.894221E3,2.8070764E3,5.330935E3,2.8700806E3,4.224763E3,9.187581E2,2.8843893E2],"tree_param":{"num_deleted":"0","num_feature":"86","num_nodes":"15","size_leaf_vector":"1"}},{"base_weights":[-3.2013597E-4,1.453082E-1,-2.0183623E-1,6.925859E-2,3.7282032E-1,-4.4897425E-1,-1.3377237E-1,3.4873215E-3,-4.9307797E-4,5.8521526E-3,1.2242737E-2,-1.543997E-2,-7.744772E-3,-4.5681894E-3,-4.8357513E-4],"categories":[],"categories_nodes":[],"categories_segments":[],"categories_sizes":[],"default_left":[0,0,0,0,0,0,0,0,0,0,0,0,0,0,0],"id":78,"left_children":[1,3,5,7,9,11,13,-1,-1,-1,-1,-1,-1,-1,-1],"loss_changes":[6.158489E2,2.090188E2,1.4618597E2,9.55326E1,5.2835052E1,2.8966187E1,7.524357E1,0E0,0E0,0E0,0E0,0E0,0E0,0E0,0E0],"parents":[2147483647,0,0,1,1,2,2,3,3,4,4,5,5,6,6],"right_children":[2,4,6,8,10,12,14,-1,-1,-1,-1,-1,-1,-1,-1],"split_conditions":[1.3E1,2.2538185E0,-3.007493E0,-4E-1,3.2130405E2,-4.3588995E2,5.301973E-1,3.4873215E-3,-4.9307797E-4,5.8521526E-3,1.2242737E-2,-1.543997E-2,-7.744772E-3,-4.5681894E-3,-4.8357513E-4],"split_indices":[1,75,75,0,15,15,6,0,0,0,0,0,0,0,0],"split_type":[0,0,0,0,0,0,0,0,0,0,0,0,0,0,0],"sum_hessian":[2.0977879E4,1.2167843E4,8.810036E3,9.131231E3,3.036611E3,1.8909836E3,6.9190522E3,4.2389326E3,4.892299E3,2.3818105E3,6.548006E2,2.3389496E2,1.6570887E3,3.5732175E3,3.3458347E3],"tree_param":{"num_deleted":"0","num_feature":"86","num_nodes":"15","size_leaf_vector":"1"}},{"base_weights":[-1.5301277E-3,-1.8190295E-1,1.5885136E-1,-4.2193964E-1,-1.1976855E-1,7.157758E-2,3.4194747E-1,-1.3945012E-2,-6.862464E-3,3.8779262E-3,-2.9669749E-3,2.0380684E-3,-5.999445E-3,5.2568708E-3,1.279572E-2],"categories":[],"categories_nodes":[],"categories_segments":[],"categories_sizes":[],"default_left":[0,0,0,0,0,0,0,0,0,0,0,0,0,0,0],"id":79,"left_children":[1,3,5,7,9,11,13,-1,-1,-1,-1,-1,-1,-1,-1],"loss_changes":[6.050101E2,1.4506879E2,1.7529544E2,3.733716E1,8.169707E1,9.387395E1,7.733536E1,0E0,0E0,0E0,0E0,0E0,0E0,0E0,0E0],"parents":[2147483647,0,0,1,1,2,2,3,3,4,4,5,5,6,6],"right_children":[2,4,6,8,10,12,14,-1,-1,-1,-1,-1,-1,-1,-1],"split_conditions":[-1.5251449E-1,-2.394032E2,1.5208817E2,-4.0082285E2,-6.8E1,8.8E1,5E0,-1.3945012E-2,